tree
version=v4
num_class=1
num_tree_per_iteration=1
label_index=0
max_feature_idx=16
objective=regression
feature_names=LINEA DIR proxima_est_teorica dist_a_prox_m dist_estacion_m vel_mps Altitud s_m dist_m time_diff dwell_same_xy_s hour dow is_no_progress progress_event is_weekend is_peak
feature_infos=-1:1:7:4:0:2:6:5:8 -1:1:2:0 -1:56:65:20:69:33:28:14:6:17:104:90:55:64:95:91:29:60:102:18:47:89:31:92:8:45:96:71:62:24:53:98:39:70:32:80:12:21:59:40:87:50:4:37:46:2:26:74:7:3:11:75:73:97:19:30:51:57:88:72:44:83:63:25:34:101:54:58:99:100:67:13:94:66:41:43:42:68:84:38:48:86:93:10:52:82:61:5:49:103:0:36:79:78:1:16:23:27:22:76:85:9:105:106:81:35:77 [0:2999.59765625] [0.069460943341255188:8130.3583984375] [0:24.44444465637207] [0:6893] [0:13700.7861328125] [8.3628256106749177e-05:10487.5625] [0:31437] [0:25614] [0:22] [0:6] [0:1] [0:1] [0:1] [0:1]
tree_sizes=6105 6249 6176 6255 6254 6175 6169 6172 6248 6097 5964 6340 6233 6032 6037 6037 6106 6145 6268 5941 6123 6305 5997 6258 6190 6145 6260 6053 6120 6207 6208 6192 6161 6189 6222 6243 6232 6238 6125 6193 6230 5985 6269 6009 6292 6315 6133 6193 6105 6167 6195 6193 6193 6098 6150 6193 6273 6027 6181 6192 5967 6058 6248 5995 6160 6291 6116 5921 5992 6326 6209 6351 5955 6301 6008 6279 6218 6109 6148 6226 6209 6267 6167 6256 6209 6121 6267 6234 5923 6197 5925 6182 6226 6091 6227 6221 6227 6331 6105 6224 6079 6061 6180 6187 6203 6096 6235 5958 5953 6092 6084 6056 5994 6068 6196 6316 5952 5908 6199 6005 6069 6005 5907 6087 6124 5919 6227 6196 6021 6147 5991 6174 6134 6086 5941 5888 6156 6092 5997 5927 6165 5898 6175 5918 5933 5962 6225 6090 5887 6012 6239 5987 6098 5909 5959 6176 5903 6021 6118 6153 6185 6173 6158 6142 6146 6110 6045 5918 6015 6044 6114 5860 6125 6066 5881 6213 6113 6064 6192 6085 5977 6036 6080 5952 6104 5994 6034 5927 5918 5969 6075 6054 5965 6025 5917 6183 6015 6119 5958 5891 5917 5871 5992 5899 6155 5862 5937 6009 5976 5982 6043 5995 6060 5966 6133 6123 5807 6134 5987 5995 5986 6110 5941 5918 6101 5841 5931 6068 6046 5950 5934 5837 6009 5968 5969 6061 6059 6013 5869 6000 6087 6017 5890 6022 6082 5837 5952 6008 5912 6051 6169 5931 6142 5902 6136 5948 5925 5926 6176 5890 6153 6117 6102 5940

Tree=0
num_leaves=64
num_cat=13
split_feature=8 2 2 4 7 4 11 6 8 2 2 5 4 11 7 8 7 2 16 0 7 8 8 7 7 2 11 2 7 7 2 11 7 11 4 11 8 11 8 11 11 2 2 16 11 10 4 11 7 4 11 8 2 5 10 7 10 7 0 7 11 11 6
split_gain=1.05541e+11 3.76365e+10 3.27169e+10 1.49487e+10 1.30859e+10 8.33758e+09 7.239e+09 6.99146e+09 6.58107e+09 5.40909e+09 5.30067e+09 3.78758e+09 3.77333e+09 3.63513e+09 2.96246e+09 2.63834e+09 2.45545e+09 2.96755e+09 2.42811e+09 2.04703e+09 3.49659e+09 2.91563e+09 2.20891e+09 2.02894e+09 2.01648e+09 1.8702e+09 1.73361e+09 1.73213e+09 2.67321e+09 2.37146e+09 1.68707e+09 1.63212e+09 1.61007e+09 1.55418e+09 1.53548e+09 1.52734e+09 1.45377e+09 1.44232e+09 1.41091e+09 1.40312e+09 1.36052e+09 1.22746e+09 1.22546e+09 1.14697e+09 1.0876e+09 1.04064e+09 9.12145e+08 8.8843e+08 8.46048e+08 8.27694e+08 8.68931e+08 8.13519e+08 8.55846e+08 7.7858e+08 7.64786e+08 7.92382e+08 7.17055e+08 6.85822e+08 6.78495e+08 6.73114e+08 6.50665e+08 1.72426e+09 6.49396e+08
threshold=241.47621154785159 0 1 364.55036926269537 256.80535888671881 908.24240112304699 13.500000000000002 1471.5000000000002 2389.619262695313 2 3 4.1805558204650888 687.39669799804699 12.500000000000002 6292.7395019531259 578.51733398437511 5952.4558105468759 4 1.0000000180025095e-35 5 144.87094879150393 9.6947360038757342 37.998119354248054 4496.3659667968759 508.21936035156256 6 16.500000000000004 7 757.93435668945324 3783.5224609375005 8 18.500000000000004 3191.255737304688 7.5000000000000009 222.24517822265628 5.5000000000000009 990.18386840820324 4.5000000000000009 28.464809417724613 7.5000000000000009 15.500000000000002 9 10 1.0000000180025095e-35 8.5000000000000018 58.500000000000007 427.29031372070318 17.500000000000004 5911.3342285156259 334.58482360839849 16.500000000000004 1188.421569824219 11 3.3472224473953252 3.5000000000000004 1.0000000180025095e-35 58.500000000000007 9949.8496093750018 12 2817.4968261718755 10.500000000000002 9.5000000000000018 1481.5000000000002
decision_type=2 9 9 2 2 2 2 2 2 9 9 2 2 2 2 2 2 9 2 9 2 2 2 2 2 9 2 9 2 2 9 2 2 2 2 2 2 2 2 2 2 9 9 2 2 2 2 2 2 2 2 2 9 2 2 2 2 2 9 2 2 2 2
left_child=1 4 3 6 19 9 8 13 35 -6 24 33 16 18 62 25 17 40 60 20 54 -22 -21 27 26 -8 -3 29 -29 44 -4 46 -14 -7 -24 -2 -37 -31 -18 -23 41 48 47 -17 59 -26 -15 -40 -11 50 -27 52 -9 -52 -1 -56 -12 -16 -43 -19 61 -5 -10
right_child=2 10 30 7 5 11 15 51 14 12 56 -13 32 31 57 43 38 23 -20 22 21 39 34 -25 45 49 -28 28 -30 37 -32 -33 -34 -35 -36 36 -38 -39 42 -41 -42 58 -44 -45 -46 -47 -48 -49 -50 -51 53 -53 -54 -55 55 -57 -58 -59 -60 -61 -62 -63 -64
leaf_value=323.30144754514549 322.76749803757605 310.36018917189091 326.29853258244106 368.9419096075369 301.34250910645414 372.9193653364614 300.61908098145074 410.01207534713797 383.44841691719739 340.46191959060354 300.22549768752697 314.42276594032586 379.59909593025066 430.51170083100249 484.44059246885428 367.49690023813321 306.34739067873852 357.99287420349617 426.86019148964505 315.11187906902336 345.42257630944346 514.21026916091114 341.59558885357785 304.31839173356076 304.99701619015809 347.05812308498832 330.99929335890738 321.58406121334849 306.05123628129991 376.34385361477422 304.66540495545604 356.33146961230585 332.98402426626461 337.81084144219903 327.69386835018861 334.49912460041963 359.4091192735026 312.54144374227457 333.08896009725061 411.85334508014722 332.34966886986683 321.47076147997376 303.05981596365172 396.2541482671009 322.09796066560193 313.66992011479101 471.02144444102589 386.0062979639996 321.89360301716414 396.73903468096182 375.6731298713301 364.18177865307842 311.23393877324224 341.52647450631105 419.12044819120763 344.23521971849391 307.59038441253892 415.75998057615959 311.25983351180076 332.9685376438523 364.94333423193012 427.91174996658657 350.37760329224136
leaf_weight=5945 17553 38284 13062 3356 97373 8563 1288 232 2447 9343 922654 6871 2516 5821 443 5300 124410 3337 3599 25714 1510 476 27519 57232 526029 7720 13857 39844 90877 897 29009 628 7023 4989 71400 21033 8118 70213 3427 1130 25494 28543 2798 10033 30482 37021 1827 1032 17865 1657 8631 1823 2343 2070 398 3138 34277 2032 37838 13802 4531 1966 3775
leaf_count=5945 17553 38284 13062 3356 97373 8563 1288 232 2447 9343 922654 6871 2516 5821 443 5300 124410 3337 3599 25714 1510 476 27519 57232 526029 7720 13857 39844 90877 897 29009 628 7023 4989 71400 21033 8118 70213 3427 1130 25494 28543 2798 10033 30482 37021 1827 1032 17865 1657 8631 1823 2343 2070 398 3138 34277 2032 37838 13802 4531 1966 3775
internal_value=309.98 307.35 349.258 362.731 316.02 313.196 353.266 396.117 341.856 312.229 302.817 344.663 314.098 407.754 381.791 370.489 313.565 315.41 391.711 330.113 349.325 395.306 328.166 312.809 306.438 359.131 315.845 314.757 310.786 319.128 311.384 433.828 345.28 359.995 331.561 334.42 341.436 313.346 307.597 442.202 322.109 319.321 329.028 386.314 327.764 305.567 440.191 345.259 328.263 362.863 359.844 338.625 320.53 369.068 334.254 352.667 300.489 428.06 315.651 337.841 378.871 390.728 363.385
internal_weight=2.55442e+06 2.39412e+06 160297 118226 821999 684769 92100 26126 55401 664346 1.57212e+06 20423 566973 21728 8697 36699 557434 425767 13452 137230 12597 3116 124633 306684 615191 21366 52141 249452 130721 118731 42071 8276 9539 13552 98919 46704 29151 71110 131667 1606 119083 93589 7257 15333 47621 563050 7648 4459 27208 20078 18421 4398 2575 10701 9481 3536 956931 2475 66381 17139 9853 5322 6222
internal_count=2554418 2394121 160297 118226 821999 684769 92100 26126 55401 664346 1572122 20423 566973 21728 8697 36699 557434 425767 13452 137230 12597 3116 124633 306684 615191 21366 52141 249452 130721 118731 42071 8276 9539 13552 98919 46704 29151 71110 131667 1606 119083 93589 7257 15333 47621 563050 7648 4459 27208 20078 18421 4398 2575 10701 9481 3536 956931 2475 66381 17139 9853 5322 6222
cat_boundaries=0 4 8 11 15 18 19 23 27 31 33 36 39 40
cat_threshold=17476 18025602 2718695430 260 537919488 25167872 33816610 4 4 16844800 34078720 1360003504 343933017 13762680 146 0 1048578 2 80 0 0 32 4 16448 0 0 4 268976192 64 2214592516 17 0 2 0 1024 262146 0 16777216 262144 128
is_linear=0
shrinkage=1


Tree=1
num_leaves=64
num_cat=18
split_feature=8 3 2 2 2 11 8 6 5 3 3 8 8 3 8 0 3 2 8 11 2 8 11 2 12 2 11 3 2 2 7 2 8 11 11 11 8 2 2 3 2 3 16 3 11 5 7 5 0 11 7 7 11 8 11 2 3 10 11 10 2 2 11
split_gain=9.57814e+10 3.8736e+10 2.80597e+10 1.24891e+10 1.21827e+10 7.9184e+09 9.75055e+09 1.24758e+10 6.1289e+09 5.40314e+09 4.78589e+09 4.72507e+09 4.17974e+09 3.36646e+09 2.76338e+09 2.58208e+09 2.3422e+09 3.01321e+09 2.19835e+09 2.16945e+09 2.11511e+09 2.07449e+09 1.87616e+09 1.84664e+09 1.83411e+09 1.81207e+09 1.70425e+09 1.6991e+09 1.50247e+09 1.44877e+09 1.42541e+09 1.41175e+09 1.39115e+09 1.27526e+09 1.95692e+09 1.2444e+09 1.15768e+09 1.34729e+09 1.10887e+09 1.00801e+09 9.87434e+08 9.20939e+08 8.6322e+08 8.1448e+08 8.09525e+08 7.77299e+08 7.72588e+08 7.39083e+08 1.1369e+09 9.35997e+08 1.65261e+09 1.57901e+09 7.02131e+08 6.95967e+08 6.80789e+08 6.72713e+08 6.68619e+08 6.49224e+08 6.24942e+08 6.23474e+08 6.38596e+08 5.73876e+08 5.7757e+08
threshold=236.79704284667972 801.08834838867199 0 1 2 5.5000000000000009 275.59919738769537 1474.5000000000002 5.0138890743255624 423.20892333984381 2507.7624511718755 578.51733398437511 2389.619262695313 241.87199401855472 376.69331359863287 3 1495.845886230469 4 23.338887214660648 15.500000000000002 5 2389.619262695313 15.500000000000002 6 4.5000000000000009 7 18.500000000000004 20.762838363647464 8 9 1751.7366943359377 10 117.85597610473634 12.500000000000002 10.500000000000002 17.500000000000004 19.631528854370121 11 12 529.45007324218761 13 229.74614715576175 1.0000000180025095e-35 20.762838363647464 7.5000000000000009 3.1805555820465092 6292.7395019531259 1.0000000180025095e-35 14 7.5000000000000009 199.55206298828128 121.33518981933595 17.500000000000004 303.70957946777349 8.5000000000000018 15 83.452056884765639 98.500000000000014 7.5000000000000009 57.500000000000007 16 17 4.5000000000000009
decision_type=2 2 9 9 9 2 2 2 2 2 2 2 2 2 2 9 2 9 2 2 9 2 2 9 2 9 2 2 9 9 2 9 2 2 2 2 2 9 9 2 9 2 2 2 2 2 2 2 9 2 2 2 2 2 2 9 2 2 2 2 9 9 2
left_child=1 4 5 8 9 12 40 14 10 20 16 19 -2 43 33 18 32 44 -11 -9 -1 22 -13 39 26 -10 -24 -22 -4 -5 -20 -21 38 34 -8 53 56 52 -3 -15 -7 -23 -12 -6 -18 -33 -14 48 49 50 51 -19 -38 -35 -50 -40 -29 -45 -44 -41 -61 62 -58
right_child=2 3 28 29 13 6 7 11 25 15 42 21 46 23 -16 -17 17 47 30 31 27 41 24 -25 -26 -27 -28 36 -30 -31 -32 45 -34 35 -36 -37 37 -39 55 59 -42 -43 58 57 -46 -47 -48 -49 54 -51 -52 -53 -54 -55 -56 -57 61 -59 -60 60 -62 -63 -64
leaf_value=-8.7294908124484802 12.626242715066816 1.4332934816542824 14.301614812554215 -5.9652546594049536 -14.999057389576969 67.898907508677908 92.673524155005197 11.7456290630167 -3.523876030674586 14.091842408538284 38.046791200404478 46.00926102919248 50.100629592188 -5.6113075132969641 122.95990418126104 3.286978542057255 56.46901507129212 38.790204885267102 110.60715236293468 -7.3050258458850523 -14.960458540036829 53.797194507908443 98.787376689832101 -9.0835722696329455 34.288288679033698 13.801013089083947 50.183558910710786 -4.3666358978739943 -5.3948922308195923 2.7216176235495073 17.228005033085907 61.744918296114463 29.871989984494832 78.365604662489247 45.855954740937257 61.500490443712309 18.49717529233369 1.3999278179292067 85.20205361117074 -1.0437062499738772 26.065795357217951 109.33228469550143 92.732581515192265 -10.613889587282115 29.282351192191506 27.255104848257048 111.93960828218422 16.390278018908802 11.483738881856532 26.225249211614518 43.729231562639313 193.6109653934208 49.558326012703446 118.15326569631628 25.243612045517406 13.086363526670338 53.212168862457112 3.8899897816870621 48.991018877634275 51.121545122018233 7.9679930772536922 -0.66546320952753535 7.3951452003498721
leaf_weight=116157 20343 24325 14667 84502 119273 1497 4833 8690 50146 61032 2177 15988 8252 321816 6212 129660 7203 282 988 1102 16786 994 5870 336185 2394 21580 2604 52416 28440 111077 697 6424 10619 1427 4148 1769 7745 12899 315 112222 24542 3002 2401 460390 4418 2191 538 76228 13669 5405 3394 396 2378 4796 26258 101605 705 7847 1238 1034 4865 41610 28114
leaf_count=116157 20343 24325 14667 84502 119273 1497 4833 8690 50146 61032 2177 15988 8252 321816 6212 129660 7203 282 988 1102 16786 994 5870 336185 2394 21580 2604 52416 28440 111077 697 6424 10619 1427 4148 1769 7745 12899 315 112222 24542 3002 2401 460390 4418 2191 538 76228 13669 5405 3394 396 2378 4796 26258 101605 705 7847 1238 1034 4865 41610 28114
internal_value=0.014863 -2.57797 36.192 9.09711 -6.06008 47.9713 54.7491 64.1813 14.73 0.870992 18.0717 49.9459 25.0755 -8.45497 94.4255 7.31677 17.1194 21.7347 15.6448 29.8972 -3.57652 61.9073 56.9057 -6.29356 72.935 1.69006 83.8525 0.103959 1.30855 -1.03175 71.9842 46.13 12.491 83.9815 71.0509 98.5111 1.83755 12.127 11.0289 -4.16122 28.5071 95.5197 62.9542 -11.3104 46.094 52.9123 53.8868 19.4762 24.2414 39.8229 57.9685 129.232 25.7687 109.031 20.5278 13.3177 -0.0907721 -10.3708 77.8533 -0.210852 15.633 3.09149 8.5132
internal_weight=2.55278e+06 2.38206e+06 170723 547238 1.83482e+06 127616 98483 72444 351659 471187 279933 49259 29133 1.36363e+06 23185 192377 274117 137253 62717 18407 278810 30852 26856 776122 10868 71726 8474 162653 43107 195579 1685 9717 136864 16973 8981 7992 145867 23022 126245 439937 26039 3996 5816 587510 11621 8615 8790 125632 49404 9477 4072 678 10123 6223 39927 101920 122845 468237 3639 118121 5899 70429 28819
internal_count=2552780 2382057 170723 547238 1834819 127616 98483 72444 351659 471187 279933 49259 29133 1363632 23185 192377 274117 137253 62717 18407 278810 30852 26856 776122 10868 71726 8474 162653 43107 195579 1685 9717 136864 16973 8981 7992 145867 23022 126245 439937 26039 3996 5816 587510 11621 8615 8790 125632 49404 9477 4072 678 10123 6223 39927 101920 122845 468237 3639 118121 5899 70429 28819
cat_boundaries=0 4 8 12 13 16 19 23 27 31 35 39 42 46 49 50 52 55 58
cat_threshold=537919488 16779264 33816610 4 1860040 293734530 2252341278 276 1140 278070403 537657350 4 80 64 2178 18 52 277020674 524292 957628801 3321921616 2537570544 275 1048576 285214720 2185232404 256 1342193744 8388674 2214592772 17 2156075024 2105344 134486272 64 0 0 33554464 4 0 1152 262146 532608 16779264 100663320 276 0 2048 262146 16 0 128 285212672 0 33554560 64 1048704 536870912
is_linear=0
shrinkage=0.05


Tree=2
num_leaves=64
num_cat=14
split_feature=8 2 2 4 7 4 11 6 8 2 2 5 4 11 0 8 7 2 16 0 7 8 8 7 12 7 2 11 16 2 7 7 11 2 7 11 11 11 8 11 8 11 2 11 2 4 4 12 10 2 4 4 5 8 2 8 10 11 7 11 11 7 11
split_gain=8.55651e+10 3.0777e+10 2.64711e+10 1.19567e+10 1.07081e+10 6.83372e+09 6.10668e+09 5.67396e+09 5.48096e+09 4.54438e+09 4.29647e+09 3.12028e+09 3.1156e+09 2.81696e+09 2.44602e+09 2.07993e+09 1.9953e+09 2.46537e+09 1.97274e+09 1.71951e+09 3.10199e+09 2.38836e+09 1.86801e+09 1.68143e+09 1.67058e+09 1.55837e+09 1.54019e+09 1.53568e+09 1.50224e+09 1.42117e+09 2.1442e+09 1.90734e+09 1.39404e+09 1.37617e+09 1.27344e+09 1.26302e+09 1.25535e+09 1.24523e+09 1.24189e+09 1.24e+09 1.21021e+09 1.19021e+09 1.03599e+09 1.01891e+09 9.83751e+08 9.54325e+08 1.01061e+09 8.56922e+08 8.04412e+08 7.76534e+08 7.56771e+08 7.49123e+08 7.342e+08 7.04477e+08 7.51679e+08 6.69516e+08 6.46096e+08 6.11223e+08 6.09859e+08 6.02508e+08 1.36995e+09 5.96238e+08 5.94237e+08
threshold=241.47621154785159 0 1 364.55036926269537 256.80535888671881 908.24240112304699 13.500000000000002 1472.5000000000002 2389.619262695313 2 3 3.9027780294418339 687.39669799804699 12.500000000000002 4 578.51733398437511 5952.4558105468759 5 1.0000000180025095e-35 6 144.87094879150393 9.6947360038757342 10.518831729888918 4496.3659667968759 4.5000000000000009 477.60855102539068 7 16.500000000000004 1.0000000180025095e-35 8 788.80468750000011 3783.5224609375005 18.500000000000004 9 3191.255737304688 15.500000000000002 5.5000000000000009 7.5000000000000009 990.18386840820324 7.5000000000000009 28.464809417724613 4.5000000000000009 10 8.5000000000000018 11 227.32582855224612 96.013576507568374 5.5000000000000009 58.500000000000007 12 27.878752708435062 427.29031372070318 0.097222227603197112 1188.421569824219 13 249.56349945068362 3.5000000000000004 17.500000000000004 1.0000000180025095e-35 10.500000000000002 9.5000000000000018 6402.3032226562509 18.500000000000004
decision_type=2 9 9 2 2 2 2 2 2 9 9 2 2 2 9 2 2 9 2 9 2 2 2 2 2 2 9 2 2 9 2 2 2 9 2 2 2 2 2 2 2 2 9 2 9 2 2 2 2 9 2 2 2 2 9 2 2 2 2 2 2 2 2
left_child=1 4 3 6 19 9 8 13 36 -6 25 37 16 18 -10 26 17 35 59 20 56 -22 -21 29 28 27 52 -3 -17 30 -19 43 51 -4 -14 42 -2 -7 61 -23 -18 -33 50 -31 57 46 -24 -20 -27 -12 -11 -15 55 54 -9 -8 -1 -42 -58 60 -5 -38 -30
right_child=2 10 33 7 5 11 15 53 14 12 49 -13 34 32 -16 24 40 23 47 22 21 39 45 -25 -26 48 -28 -29 62 31 -32 41 -34 -35 -36 -37 38 -39 -40 -41 44 -43 -44 -45 -46 -47 -48 -49 -50 -51 -52 -53 -54 -55 -56 -57 58 -59 -60 -61 -62 -63 -64
leaf_value=11.780063011934535 11.295206094172542 0.3400225655844068 14.703253424802035 54.07094871239125 -7.944275478283501 57.219645298972978 30.438550041176679 94.996578580455889 47.559744002578789 10.609360822087689 -6.9915399453436393 4.6181149325464554 62.919918504180671 108.00621625440158 105.91922334779807 53.289797416373041 -3.2674110437098407 10.23766805448019 119.1130482363443 1.8198767676319303 33.737850749418961 188.96624840886614 11.602292833484775 -5.1662057713209872 39.100854777309493 -4.3181677180816456 -1.6244142471391037 20.458805348838538 97.645662554597095 25.510924383577319 -3.6327612668599287 60.489146312792343 38.991883852638345 -4.8561786271375311 21.2482157067546 20.91382755931815 23.978456504760189 25.500151690752997 44.722637582101342 92.951005100520021 22.003697426458004 2.3055157401781066 4.9719158324047257 10.460345073245383 -5.8515888919700387 15.565484566448802 30.510162849403596 60.003324325190775 3.4658625135512233 -9.7591107409631146 28.24200350822581 144.79483884206397 40.136085760330161 49.339548512186241 0.083525840633088197 66.279514430560127 96.633713417968806 65.639803552718107 31.289873339841002 48.754456776288976 106.46547786783272 -10.029184723941128 62.895394131943192
leaf_weight=5983 17701 36888 13034 3348 97279 8471 1602 219 6143 17977 495398 7106 2488 5800 2575 4076 124485 40559 2732 18572 1472 483 9579 57182 3631 470344 1664 12768 6228 17554 89010 890 623 28946 6967 25504 19707 4875 8164 1108 3514 70160 66027 31290 2776 69313 26951 791 35710 519733 9199 1819 11131 1808 2342 6987 403 1040 3130 4498 1989 1379 1534
leaf_count=5983 17701 36888 13034 3348 97279 8471 1602 219 6143 17977 495398 7106 2488 5800 2575 4076 124485 40559 2732 18572 1472 483 9579 57182 3631 470344 1664 12768 6228 17554 89010 890 623 28946 6967 25504 19707 4875 8164 1108 3514 70160 66027 31290 2776 69313 26951 791 35710 519733 9199 1819 11131 1808 2342 6987 403 1040 3130 4498 1989 1379 1534
internal_value=-0.00194936 -2.3729 35.3425 47.428 5.47017 2.91593 39.0173 77.4118 28.5656 2.03898 -6.47381 31.3829 3.753 87.9229 64.9742 54.805 3.27008 4.93575 73.7384 18.2303 35.8508 79.6429 16.4445 2.56701 68.7712 -2.93942 44.7017 5.51318 77.8714 4.33973 0.709051 8.26263 110.911 1.21873 32.2143 11.0536 21.8051 45.6335 28.1652 122.11 -2.10486 3.03443 8.35656 15.8694 17.6385 19.0122 25.5521 105.844 -3.76888 -8.40858 16.5719 116.791 48.587 25.4448 8.57451 59.595 21.792 31.9001 38.746 62.2371 73.599 21.7544 90.7789
internal_weight=2.55266e+06 2.39219e+06 160471 118491 821347 684353 92522 25969 55669 663901 1.57084e+06 20452 566622 21600 8718 36853 557167 425352 13358 136994 12579 3063 124415 306645 15469 555710 21384 49656 11838 249463 129569 119894 8242 41980 9455 118707 46951 13346 29250 1591 131815 71050 93203 48844 7330 105843 36530 3523 506054 1.01513e+06 27176 7619 19720 4369 2561 8589 9516 4554 3533 9835 5337 21086 7762
internal_count=2552659 2392188 160471 118491 821347 684353 92522 25969 55669 663901 1570841 20452 566622 21600 8718 36853 557167 425352 13358 136994 12579 3063 124415 306645 15469 555710 21384 49656 11838 249463 129569 119894 8242 41980 9455 118707 46951 13346 29250 1591 131815 71050 93203 48844 7330 105843 36530 3523 506054 1015131 27176 7619 19720 4369 2561 8589 9516 4554 3533 9835 5337 21086 7762
cat_boundaries=0 4 8 11 15 16 19 20 23 27 31 33 36 40 43
cat_threshold=17476 18025602 2718695430 260 537919488 25167872 33816610 4 4 16844800 34078720 1360003248 276824153 5243000 146 144 0 1048578 2 80 537919488 16779264 2 0 128 2147483652 256 1342718016 64 2214592772 17 0 2 0 1024 262146 671293697 3858797056 1434603649 1 0 16777216 262144
is_linear=0
shrinkage=0.05


Tree=3
num_leaves=64
num_cat=17
split_feature=8 3 2 2 2 2 2 8 3 3 5 11 8 7 2 8 8 2 11 6 8 11 11 2 3 3 7 12 11 11 16 7 5 3 2 8 2 2 2 11 11 11 0 3 8 1 2 3 5 2 3 11 2 12 7 5 12 5 6 3 5 11 3
split_gain=7.74819e+10 3.71435e+10 2.44213e+10 1.20106e+10 1.15364e+10 9.49183e+09 5.37451e+09 5.0717e+09 4.78556e+09 4.58357e+09 4.45133e+09 3.69746e+09 2.9815e+09 2.69652e+09 2.51084e+09 2.28507e+09 2.27858e+09 2.35311e+09 2.20279e+09 1.8493e+09 1.63314e+09 1.59606e+09 1.58541e+09 1.57623e+09 2.18744e+09 1.69496e+09 2.0428e+09 1.51513e+09 1.39149e+09 1.37756e+09 1.34317e+09 1.19408e+09 1.15254e+09 1.14742e+09 1.08287e+09 1.84864e+09 1.06676e+09 1.04869e+09 1.04088e+09 1.01737e+09 1.01388e+09 9.66007e+08 9.22142e+08 8.29257e+08 8.27105e+08 8.16756e+08 7.52005e+08 7.15077e+08 7.08843e+08 7.00982e+08 6.91325e+08 6.58693e+08 6.58222e+08 6.42694e+08 6.16727e+08 7.05955e+08 6.01401e+08 5.61421e+08 5.58518e+08 8.6407e+08 5.56793e+08 5.43306e+08 4.67102e+08
threshold=275.59919738769537 901.03646850585949 0 1 2 3 4 578.51733398437511 469.47048950195318 322.16873168945318 7.2361114025115976 5.5000000000000009 2389.619262695313 2817.4968261718755 5 376.69331359863287 23.338887214660648 6 16.500000000000004 1487.5000000000002 45.557584762573249 15.500000000000002 7.5000000000000009 7 1791.4627685546877 1930.9599609375002 175.99497985839847 4.5000000000000009 18.500000000000004 12.500000000000002 1.0000000180025095e-35 144.87094879150393 2.2083333730697636 20.762838363647464 8 25.322739601135257 9 10 11 17.500000000000004 17.500000000000004 17.500000000000004 12 77.938411712646499 303.70957946777349 13 14 20.762838363647464 0.097222227603197112 15 560.53997802734386 4.5000000000000009 16 5.5000000000000009 5911.3342285156259 2.2361112833023076 3.5000000000000004 6.9583334922790536 1447.5000000000002 858.16043090820324 2.736111164093018 18.500000000000004 664.59869384765636
decision_type=2 2 9 9 9 9 9 2 2 2 2 2 2 2 9 2 2 9 2 2 2 2 2 9 2 2 2 2 2 2 2 2 2 2 9 2 9 9 9 2 2 2 9 2 2 1 9 2 2 9 2 2 9 2 2 2 2 2 2 2 2 2 2
left_child=1 3 15 8 7 37 13 18 16 33 20 19 21 22 32 29 38 39 -4 -9 23 -13 -7 -8 -25 26 31 28 -23 30 -2 -26 50 -5 35 54 -6 -3 51 -18 44 62 60 -41 -31 -37 -35 -40 -22 -12 -11 -1 -43 -32 55 -10 58 -16 -14 -60 -20 -17 -36
right_child=2 5 4 9 36 6 10 11 34 14 49 12 56 -15 57 61 17 -19 42 -21 48 27 -24 24 25 -27 -28 -29 -30 40 53 -33 -34 46 41 45 -38 -39 47 43 -42 52 -44 -45 -46 -47 -48 -49 -50 -51 -52 -53 -54 -55 -56 -57 -58 -59 59 -61 -62 -63 -64
leaf_value=46.415398018365657 47.794378636096674 -4.4648348619926903 8.6521165012299903 -13.942055007189783 14.091900174849181 66.333679175792028 5.6987357558815495 53.613775325179247 29.17070075124948 -0.51231869573229905 -4.8557696827920624 40.73805470930516 144.3998774120804 21.935778588191109 -5.5157792652566808 111.57210104298696 20.476345756961617 -8.0713906285252648 57.616640060738042 18.695150001417961 23.638437633320112 89.080544629768383 29.365230497230677 12.818264941743969 51.836904025017127 23.600501678079478 38.397493732966936 30.397365693379289 44.079507801046212 65.785815127922604 98.921428804309954 156.10702132849269 -4.0482130860361707 -6.0952387658606471 2.5579690117871436 19.494610732044162 -4.2022044489521626 3.6303297229965743 -14.214369332862365 26.456967982893588 54.941288823941093 34.125927556388611 -6.9524670251742684 77.147626902477612 107.47838914585481 113.56151125061379 -9.8159698817219461 -3.2893444268537482 16.058935288488357 12.134960832588821 6.0933289071453736 3.342410721878053 1.9748374391877073 45.86974844880551 10.808763066071579 6.3478700282679696 69.687706663022496 -9.3889744464263938 61.200617799680096 120.06804239383187 26.551514185853218 52.545982367430511 10.787155167852809
leaf_weight=906 6690 69845 16054 129655 12910 8024 62064 5431 12974 118623 35797 15657 722 15797 261684 6046 7742 6272 4556 12562 56972 5858 4542 69001 432 8651 2489 2350 2431 1569 2525 754 171651 185845 40900 341 20786 93621 16744 1495 1794 5419 877 1753 4927 714 505796 141988 67271 7300 59464 43454 2266 738 23363 4586 1818 145626 1101 1438 2111 417 29814
leaf_count=906 6690 69845 16054 129655 12910 8024 62064 5431 12974 118623 35797 15657 722 15797 261684 6046 7742 6272 4556 12562 56972 5858 4542 69001 432 8651 2489 2350 2431 1569 2525 754 171651 185845 40900 341 20786 93621 16744 1495 1794 5419 877 1753 4927 714 505796 141988 67271 7300 59464 43454 2266 738 23363 4586 1818 145626 1101 1438 2111 417 29814
internal_value=-0.00315172 -2.03193 37.3953 -5.20081 27.011 10.0687 14.8395 38.1856 3.31253 -7.03863 12.9367 47.3047 57.667 35.6736 -4.23221 82.1827 -1.06705 16.3727 19.1242 29.2352 15.3385 50.8928 52.9717 11.7028 16.2821 35.6856 64.1327 65.8365 75.8833 73.1643 60.6235 118.134 -1.12458 -9.6256 11.3298 17.8109 2.80897 0.171403 -2.54937 30.3027 88.2199 7.85621 41.4089 53.8171 97.4094 83.1617 -8.81643 -4.44151 19.5346 -1.97608 1.69334 4.22128 24.693 86.9244 16.1303 23.2103 92.7385 -6.9004 105.587 94.5445 47.7093 107.765 6.02752
internal_weight=2.553e+06 2.42164e+06 131368 1.91908e+06 106662 502560 339094 72966 340731 1.57834e+06 310731 49368 31375 28363 757048 24706 220354 17262 23598 17993 267634 26296 12566 143391 81327 12326 3675 10639 8289 18243 9953 1186 349738 821296 120377 41978 33696 163466 203092 10990 8290 78399 7544 3248 6496 1055 691641 158732 124243 43097 178087 44360 7685 3263 40923 17560 5079 407310 3261 2539 6667 6463 70714
internal_count=2553003 2421635 131368 1919075 106662 502560 339094 72966 340731 1578344 310731 49368 31375 28363 757048 24706 220354 17262 23598 17993 267634 26296 12566 143391 81327 12326 3675 10639 8289 18243 9953 1186 349738 821296 120377 41978 33696 163466 203092 10990 8290 78399 7544 3248 6496 1055 691641 158732 124243 43097 178087 44360 7685 3263 40923 17560 5079 407310 3261 2539 6667 6463 70714
cat_boundaries=0 4 7 10 14 17 21 24 28 31 35 39 42 43 44 48 52 55
cat_threshold=536870912 16779264 262144 4 1092 1246338 537657350 1048576 8388608 33554466 2426601472 2216698392 1087524960 192 64 130 128 152322481 3565207633 2218803696 6 0 1152 786434 1572872 16777216 2181038088 16 0 1179778 524288 268976208 64 2214592516 1 2156068864 2105360 8392704 64 1088 1049600 536870912 144 2 1207959712 1375752257 302121136 7 0 16779264 2181038100 256 4 0 6
is_linear=0
shrinkage=0.05


Tree=4
num_leaves=64
num_cat=17
split_feature=8 3 2 4 2 2 11 5 6 8 4 3 3 11 7 8 2 16 3 2 2 8 1 2 3 12 2 16 2 2 11 11 8 3 2 8 8 11 8 2 7 5 2 12 8 3 7 2 11 2 11 11 4 3 11 11 11 3 11 3 8 2 11
split_gain=7.05041e+10 3.03593e+10 2.1944e+10 1.00107e+10 9.23001e+09 9.05291e+09 5.1194e+09 4.75399e+09 4.65993e+09 4.5856e+09 4.24469e+09 4.12369e+09 2.75521e+09 2.33651e+09 2.07458e+09 1.72376e+09 1.72119e+09 1.58524e+09 1.56012e+09 1.52062e+09 1.4492e+09 1.41356e+09 1.46215e+09 1.38637e+09 1.3834e+09 1.37579e+09 1.36164e+09 1.21957e+09 1.13182e+09 1.12388e+09 1.10601e+09 1.03355e+09 1.0686e+09 1.01937e+09 1.27178e+09 1.18133e+09 9.55876e+08 9.267e+08 9.1083e+08 1.03154e+09 8.77863e+08 8.44263e+08 9.72135e+08 7.54878e+08 7.16526e+08 9.84131e+08 1.37612e+09 9.69484e+08 7.71633e+08 7.10774e+08 7.09965e+08 7.0074e+08 6.97676e+08 6.44702e+08 6.09924e+08 6.19097e+08 6.06498e+08 6.76873e+08 5.87087e+08 5.85764e+08 5.85573e+08 6.7407e+08 5.81061e+08
threshold=241.47621154785159 801.08834838867199 0 364.55036926269537 1 2 13.500000000000002 3.9027780294418339 1476.5000000000002 2389.619262695313 769.65573120117199 423.20892333984381 237.74082183837893 12.500000000000002 6292.7395019531259 578.51733398437511 3 1.0000000180025095e-35 1998.1540527343752 4 5 25.322739601135257 6 7 20.762838363647464 4.5000000000000009 8 1.0000000180025095e-35 9 10 17.500000000000004 5.5000000000000009 990.18386840820324 1654.267272949219 11 129.52586364746097 164.53254699707034 7.5000000000000009 19.631528854370121 12 34.105047225952156 2.2083333730697636 13 5.5000000000000009 15.021658897399904 1930.9599609375002 230.14119720458987 14 8.5000000000000018 15 16.500000000000004 7.5000000000000009 334.58482360839849 20.762838363647464 16.500000000000004 19.500000000000004 9.5000000000000018 2507.464721679688 15.500000000000002 568.44860839843761 1188.421569824219 16 10.500000000000002
decision_type=2 2 9 2 9 9 2 2 2 2 2 2 2 2 2 2 9 2 2 9 9 2 1 9 2 2 9 2 9 9 2 2 2 2 9 2 2 2 2 9 2 2 9 2 2 2 2 9 2 9 2 2 2 2 2 2 2 2 2 2 2 9 2
left_child=1 5 3 6 7 11 9 10 13 31 33 16 53 17 -11 26 24 62 -12 21 40 -13 -23 41 -1 27 -8 -17 -4 -6 50 -2 -33 35 -35 49 44 -20 -26 -40 -9 42 -14 -19 47 46 51 -36 -49 -3 -15 -46 54 -7 -28 -56 -47 -58 -54 -44 61 -10 -5
right_child=2 4 28 8 29 12 15 20 60 14 18 19 23 30 -16 25 -18 43 37 -21 -22 22 -24 -25 38 -27 52 -29 -30 -31 -32 32 -34 34 36 -37 -38 -39 39 -41 -42 -43 59 -45 45 56 -48 48 -50 -51 -52 -53 58 -55 55 -57 57 -59 -60 -61 -62 -63 -64
leaf_value=-13.449864197044295 10.016640207621101 14.601115967701134 13.153583270945559 67.878306729866864 -4.9897724116407725 -13.195048663611937 -9.4287442020753698 12.064722048070692 91.160041004600771 43.645281219009632 26.235662038656354 9.8955521058744793 30.323081523698406 102.53096795465599 97.648608462878713 48.64645402135389 -7.8086169715082878 107.85598773744523 67.359185424909995 1.811261098154973 11.672557024797701 11.980616149489386 102.52271728402707 -7.7362799569411242 0.00031402416335322931 35.484562552098041 30.348472545805265 82.37094356128776 -4.4754741434349548 2.6541393555183759 67.334835712997673 19.406415768586971 40.780437869615334 74.308813586296083 3.1130797073257472 27.620467986725799 13.402033453644979 32.226358668238582 22.140850705583759 1.0278220387144203 -4.0577898721810532 -5.3728596239419559 -2.5478937970094973 52.282847140737978 170.78134070727558 16.205787284501586 18.348145485393967 33.658643562162503 14.201843604513897 6.7668568232533932 144.51670217235653 69.233518990389257 121.96673242789836 -9.0761429214134015 53.816543122872964 20.31973871895611 10.514485843004346 39.340008501921623 56.046939956946261 5.3797654125457894 44.960842654884686 -0.4214074608931202 43.449181689611777
leaf_weight=16755 17595 49825 13298 5299 84575 119623 1280 10119 210 6205 10275 96400 2447 5159 2493 4089 116118 2775 5488 93880 32554 944 845 347709 122855 3603 7736 7787 28815 111434 1905 20957 8111 982 8507 10397 65589 2853 10749 12529 50976 253328 152997 784 344 8415 637 9497 10996 69268 1252 336 474 461600 9133 1625 2551 10100 1176 27487 1788 2314 4504
leaf_count=16755 17595 49825 13298 5299 84575 119623 1280 10119 210 6205 10275 96400 2447 5159 2493 4089 116118 2775 5488 93880 32554 944 845 347709 122855 3603 7736 7787 28815 111434 1905 20957 8111 982 8507 10397 65589 2853 10749 12529 50976 253328 152997 784 344 8415 637 9497 10996 69268 1252 336 474 461600 9133 1625 2551 10100 1176 27487 1788 2314 4504
internal_value=-0.00231421 -2.15403 32.092 43.1277 8.08544 -5.25285 35.4102 12.842 70.5413 25.7941 16.2526 0.723719 -7.31509 79.9838 59.1245 49.8358 -3.15768 67.0328 39.2775 6.362 3.15369 10.7118 54.7498 -5.38107 0.15831 62.5492 40.65 70.7598 1.09306 -0.644183 100.792 19.5812 25.3706 14.5203 17.8828 11.4574 17.4012 55.3427 1.71859 10.7871 -1.38722 -3.50365 -0.915314 95.6158 22.5093 29.2301 71.16 17.322 23.2074 10.0463 110.732 120.622 43.8151 -9.92387 41.057 48.7571 26.6084 33.5276 74.9901 -1.34047 23.0698 7.56108 56.6549
internal_weight=2.55235e+06 2.39198e+06 160367 118254 555718 1.83627e+06 92264 359709 25990 55361 266060 471075 1.36519e+06 21678 8698 36903 279006 13362 18616 192069 93649 98189 1789 783968 162888 15479 21424 11876 42113 196009 8316 46663 29068 247444 117954 129490 116972 8341 146133 23278 61095 436259 182931 3559 51383 22383 1317 29000 20493 119093 6411 680 20144 581223 18494 10758 21066 12651 1650 180484 4312 2524 9803
internal_count=2552351 2391984 160367 118254 555718 1836266 92264 359709 25990 55361 266060 471075 1365191 21678 8698 36903 279006 13362 18616 192069 93649 98189 1789 783968 162888 15479 21424 11876 42113 196009 8316 46663 29068 247444 117954 129490 116972 8341 146133 23278 61095 436259 182931 3559 51383 22383 1317 29000 20493 119093 6411 680 20144 581223 18494 10758 21066 12651 1650 180484 4312 2524 9803
cat_boundaries=0 4 8 12 16 19 23 24 28 32 36 40 43 46 49 51 54 57
cat_threshold=537919488 25167872 33816610 4 1335744 285345922 2248146974 276 1140 278070403 537657350 4 1088 1049729 537133058 4 0 1245314 524290 1048576 285214720 2181038100 256 2 957628801 3858792528 2537570480 275 0 0 32 4 268451920 64 2214592780 17 2156076048 2106368 134486272 64 64 130 2 64 1152 262146 0 2147483648 33554560 0 16777216 16448 268568706 6 0 16777216 262144
is_linear=0
shrinkage=0.05


Tree=5
num_leaves=64
num_cat=15
split_feature=7 2 4 3 3 3 2 4 11 2 11 2 3 16 11 11 3 11 11 11 2 11 5 2 12 5 12 0 4 3 4 7 3 4 3 3 0 11 7 3 3 7 2 4 2 11 4 2 3 10 2 4 10 10 3 10 2 4 4 11 2 2 3
split_gain=5.79355e+10 2.547e+10 2.32245e+10 1.14923e+10 6.02273e+09 5.00349e+09 4.95186e+09 5.15484e+09 2.95392e+09 2.66028e+09 2.54524e+09 3.00779e+09 2.29854e+09 2.20379e+09 2.13879e+09 1.68593e+09 1.64033e+09 1.52532e+09 1.42398e+09 1.53445e+09 1.36103e+09 1.31369e+09 1.29019e+09 1.37393e+09 1.19275e+09 1.16512e+09 1.14805e+09 1.10591e+09 1.0183e+09 9.52794e+08 9.32419e+08 8.53249e+08 2.96782e+09 8.11463e+08 7.93731e+08 7.46041e+08 7.38644e+08 7.57535e+08 7.19547e+08 1.25334e+09 7.13732e+08 4.66365e+09 1.12382e+09 7.02681e+08 7.01319e+08 6.93915e+08 6.93808e+08 6.93184e+08 7.74141e+08 6.86981e+08 6.73949e+08 6.54571e+08 6.53773e+08 6.49192e+08 6.44491e+08 7.86771e+08 5.92571e+08 5.84406e+08 5.34685e+08 5.17589e+08 6.50359e+08 5.13068e+08 5.05775e+08
threshold=1.0000000180025095e-35 0 334.58482360839849 1791.4627685546877 469.47048950195318 345.65171813964849 1 282.37921142578131 7.5000000000000009 2 11.500000000000002 3 88.924678802490249 1.0000000180025095e-35 12.500000000000002 17.500000000000004 288.55848693847662 5.5000000000000009 10.500000000000002 5.5000000000000009 4 18.500000000000004 2.347222208976746 5 4.5000000000000009 3.0138889551162724 4.5000000000000009 6 427.29031372070318 313.61990356445318 427.29031372070318 9949.8496093750018 858.16043090820324 314.00379943847662 27.141586303710941 20.762838363647464 7 8.5000000000000018 2260.2780761718755 1930.9599609375002 771.19470214843761 9949.8496093750018 8 52.146780014038093 9 10.500000000000002 83.036762237548842 10 1444.6098632812502 57.500000000000007 11 133.13844299316409 53.500000000000007 59.500000000000007 564.35427856445324 85.500000000000014 12 202.03433227539065 110.70878982543947 15.500000000000002 13 14 989.47958374023449
decision_type=2 9 2 2 2 2 9 2 2 9 2 9 2 2 2 2 2 2 2 2 9 2 2 9 2 2 2 9 2 2 2 2 2 2 2 2 9 2 2 2 2 2 9 2 9 2 2 9 2 2 9 2 2 2 2 2 9 2 2 2 9 9 2
left_child=2 3 10 4 6 34 7 12 17 25 27 13 35 -12 18 52 -8 -5 19 -4 46 30 23 43 53 54 38 44 -21 -18 -16 47 -33 -13 -3 -2 37 -9 39 -19 -24 42 -42 -6 58 -39 -17 -25 -49 -36 -51 -37 57 -15 -7 59 -44 -14 -1 -56 -61 -11 -27
right_child=1 5 14 8 22 9 16 36 -10 61 11 33 15 24 21 20 29 26 -20 28 -22 -23 40 31 -26 62 -28 -29 -30 -31 -32 32 -34 -35 49 51 -38 45 -40 -41 41 -43 56 -45 -46 -47 -48 48 -50 50 -52 -53 -54 -55 55 -57 -58 -59 -60 60 -62 -63 -64
leaf_value=18.283184013204064 -12.984527151954964 -12.108698517984427 32.403495947903323 26.523428098465207 18.253845374909865 -0.045331549041768393 -7.6038475189126009 46.6263971956473 20.508712836873581 -3.6183364018076603 23.00134099051278 19.064770031666651 5.168256450258637 55.02356917803327 89.238038020084559 70.215617190612278 7.1990082563202868 150.15009222055485 39.119349953302802 77.284357973495233 -0.12929863540073691 30.154419280335549 1.275896887109188 13.580480168898852 20.932072695745884 -4.7227804249692049 7.3644810007340471 11.037736599170206 134.72450405297195 -2.6363091333311388 129.27034733330188 4.3321670720528207 86.064995380532139 45.230834560647793 -8.3226853530613329 -1.0682989407371555 22.210328591033207 150.77026817126713 56.454676703537295 71.925742936563125 84.496883996496265 83.247142212403034 9.9458537321996072 72.346479074677873 23.608644130232989 68.254468301499216 33.287162204371867 4.6199296614540852 17.403598357539554 18.311467211769774 -3.5851296388733731 18.659051030558633 20.507088955351147 86.576870890632478 2.0801372392800181 27.605249133912352 2.0257298085714233 25.075411721248202 118.73657242368695 19.840629250834574 4.692153009524862 -6.8955867871327587 3.0559280161986622
leaf_weight=211 12407 144112 1708 4093 1049 102323 148526 4162 15074 209296 9831 59960 61920 9897 7257 1774 35113 614 4735 4929 2482 793 57612 97473 2308 111267 858 67087 915 82433 1820 3304 1673 3117 581540 49292 2189 348 5563 3086 452 2032 51614 1404 15510 952 4495 59475 14787 4261 19817 4597 9313 1952 62196 3912 43564 3920 356 10867 20386 278401 25729
leaf_count=211 12407 144112 1708 4093 1049 102323 148526 4162 15074 209296 9831 59960 61920 9897 7257 1774 35113 614 4735 4929 2482 793 57612 97473 2308 111267 858 67087 915 82433 1820 3304 1673 3117 581540 49292 2189 348 5563 3086 452 2032 51614 1404 15510 952 4495 59475 14787 4261 19817 4597 9313 1952 62196 3912 43564 3920 356 10867 20386 278401 25729
internal_value=0.00457255 -2.14469 26.3892 5.19564 4.0088 -5.81763 0.0510984 7.06679 35.9284 -3.12936 20.1216 26.097 5.02794 41.1709 74.5414 10.526 -4.11117 52.2807 60.6173 74.0956 31.2962 91.8744 9.02545 11.9165 53.8171 0.289224 62.6967 13.866 86.28 0.301672 97.2661 11.3981 31.8075 20.3546 -8.77363 -1.93045 47.101 56.931 67.8218 84.9105 5.68952 8.29316 6.70041 49.0162 25.6448 90.3532 43.6685 10.8073 7.16446 -7.98003 0.296011 0.614574 8.10747 60.2223 2.72552 5.63758 6.32133 6.35353 79.9544 4.71793 9.96734 -5.48925 -3.26187
internal_weight=2.55414e+06 2.36176e+06 192386 787650 758362 1.57411e+06 423923 157851 29288 824377 170229 87065 150200 23988 22157 83904 266072 14214 12287 7552 8751 9870 334439 179165 14157 336680 10121 83164 5844 117546 9077 176712 4977 63077 749730 66296 7651 5462 9263 3700 155274 97662 95630 2453 16077 1300 6269 171735 74262 605618 24078 53889 75153 11849 199684 97361 95178 65840 567 93449 31253 487697 136996
internal_count=2554143 2361757 192386 787650 758362 1574107 423923 157851 29288 824377 170229 87065 150200 23988 22157 83904 266072 14214 12287 7552 8751 9870 334439 179165 14157 336680 10121 83164 5844 117546 9077 176712 4977 63077 749730 66296 7651 5462 9263 3700 155274 97662 95630 2453 16077 1300 6269 171735 74262 605618 24078 53889 75153 11849 199684 97361 95178 65840 567 93449 31253 487697 136996
cat_boundaries=0 4 8 12 14 17 20 21 22 24 27 30 34 37 40 44
cat_threshold=17476 1182850 2685141030 260 1088 1049600 537133058 4 420487344 2491433305 105923032 145 1048576 2048 0 0 2 0 1048704 524288 224 20 0 128 0 0 524288 64 2 2147483654 1074266112 2348810240 33554944 35 16448 2 2 17825792 2147483648 16 537264385 1644200448 1367543808 66
is_linear=0
shrinkage=0.05


Tree=6
num_leaves=64
num_cat=14
split_feature=8 2 2 4 7 4 11 8 6 2 2 5 4 11 0 8 7 2 11 11 7 0 7 8 8 12 11 2 7 11 11 11 2 7 11 8 11 8 11 11 2 4 2 7 7 4 4 11 2 11 10 7 2 4 5 11 10 7 10 0 8 7 7
split_gain=5.84432e+10 2.03766e+10 1.79192e+10 7.88675e+09 7.18729e+09 4.60732e+09 4.33181e+09 3.82735e+09 3.80468e+09 3.17616e+09 2.88672e+09 2.22837e+09 2.1965e+09 1.82065e+09 1.59625e+09 1.53239e+09 1.36753e+09 1.6881e+09 1.25404e+09 1.65017e+09 1.24707e+09 1.24506e+09 2.2678e+09 1.91518e+09 1.23946e+09 1.18715e+09 1.12189e+09 1.11979e+09 1.06954e+09 1.24354e+09 1.05675e+09 1.00302e+09 9.79575e+08 9.42886e+08 9.24755e+08 9.17761e+08 9.11458e+08 9.08075e+08 8.56136e+08 8.40884e+08 8.32921e+08 8.10564e+08 8.03518e+08 1.4333e+09 1.31666e+09 7.69551e+08 7.69381e+08 7.45243e+08 7.11016e+08 6.55233e+08 6.3431e+08 6.31199e+08 5.87693e+08 5.8242e+08 5.52683e+08 5.48136e+08 5.46118e+08 5.27521e+08 5.17758e+08 5.14515e+08 5.10054e+08 4.97075e+08 4.95471e+08
threshold=241.47621154785159 0 1 364.55036926269537 256.80535888671881 908.24240112304699 13.500000000000002 2389.619262695313 1476.5000000000002 2 3 3.62500011920929 687.39669799804699 12.500000000000002 4 578.51733398437511 5952.4558105468759 5 10.500000000000002 5.5000000000000009 4496.3659667968759 6 144.87094879150393 10.828494071960451 10.518831729888918 4.5000000000000009 4.5000000000000009 7 508.21936035156256 16.500000000000004 15.500000000000002 18.500000000000004 8 3191.255737304688 5.5000000000000009 990.18386840820324 18.500000000000004 28.464809417724613 7.5000000000000009 7.5000000000000009 9 227.32582855224612 10 757.93435668945324 3783.5224609375005 96.013576507568374 427.29031372070318 8.5000000000000018 11 15.500000000000002 58.500000000000007 5911.3342285156259 12 427.29031372070318 1.6527778506278994 17.500000000000004 61.500000000000007 9949.8496093750018 3.5000000000000004 13 249.56349945068362 1.0000000180025095e-35 6437.6140136718759
decision_type=2 9 9 2 2 2 2 2 2 9 9 2 2 2 9 2 2 9 2 2 2 9 2 2 2 2 2 9 2 2 2 2 9 2 2 2 2 2 2 2 9 2 9 2 2 2 2 2 9 2 2 2 9 2 2 2 2 2 2 9 2 2 2
left_child=1 4 3 6 21 9 7 34 13 56 28 38 16 18 -9 27 17 30 19 -5 26 22 58 -24 -23 36 -19 -8 29 -3 40 53 -4 -14 -2 62 49 -18 -7 -25 59 45 43 -28 47 -26 -21 -44 55 -17 -30 -42 -12 -15 60 -39 -6 -16 -1 -11 -29 -60 -36
right_child=2 10 32 8 5 11 15 14 -10 12 52 -13 33 31 57 25 37 20 -20 46 -22 24 23 39 41 -27 42 54 50 -31 -32 -33 -34 -35 35 -37 -38 48 -40 -41 51 -43 44 -45 -46 -47 -48 -49 -50 -51 -52 -53 -54 -55 -56 -57 -58 -59 61 -61 -62 -63 -64
leaf_value=8.7455062657094995 8.7925873587050702 -0.18272320694262234 13.326124839658517 43.454574683863541 -7.0450843046019713 47.853323941837346 -8.2994617588730399 39.99304721162747 20.504568637481 -0.27622856052986139 -5.7742632545650672 3.6851814046146951 52.995914310569482 87.487390916301933 133.4466342048141 53.10937699997011 -2.8197039848750909 48.68240347384998 39.315837535094118 78.75427919339586 -4.6134600429929602 1.4672705169269329 28.563085449816381 163.30268606063325 9.2365569480722609 32.385518577164653 8.4966478098793612 24.076554141296715 -3.5831454205490276 17.393108234982574 18.121193932942163 29.514166869370925 -3.6599509633264158 17.407764345202096 19.812619213806588 37.603543292034338 39.992791370844792 18.20479478439043 21.123014250299786 82.458123585749618 24.44535901320522 12.26570805217878 20.985403509316569 -2.9083940760490297 1.9257412413142416 25.761249303548368 125.18668444334054 8.0349546168388866 -4.5564936678049293 82.02174965693024 3.3623285171094666 8.4563702137976442 -8.1839413587716905 119.70010615301317 32.296047743531204 59.879099716283378 36.90248311459851 76.376123209939905 85.727563481285287 8.6339898939153841 54.497770511865781 26.243572756964983 -11.121369383443652
leaf_weight=5958 17727 38103 11801 3314 96819 8308 1290 6139 4321 37494 555559 7296 2518 5834 507 2866 124493 1371 4596 4520 57087 18634 1592 462 9520 3583 39795 1689 463363 13676 25385 628 30156 7135 19585 8078 2744 3484 4685 1060 9409 69106 17229 89509 70292 27107 1112 31273 2783 6202 35383 17945 465195 1849 11057 1020 712 2015 396 28524 7485 3101 1386
leaf_count=5958 17727 38103 11801 3314 96819 8308 1290 6139 4321 37494 555559 7296 2518 5834 507 2866 124493 1371 4596 4520 57087 18634 1592 462 9520 3583 39795 1689 463363 13676 25385 628 30156 7135 19585 8078 2744 3484 4685 1060 9409 69106 17229 89509 70292 27107 1112 31273 2783 6202 35383 17945 465195 1849 11057 1020 712 2015 396 28524 7485 3101 1386
internal_value=-0.00325698 -1.96234 29.2063 39.1451 4.4189 2.32725 32.2821 23.4454 63.3755 1.61037 -5.2986 25.7981 3.04462 71.8523 53.9767 45.5522 2.63493 4.01387 60.5452 71.4513 2.05299 14.8757 29.8748 66.9058 13.3563 57.5968 3.57859 36.9358 -2.38027 4.45947 9.07466 90.2751 1.11968 26.6914 17.7922 23.2841 65.244 -1.81553 38.2152 107.007 6.61614 15.4529 3.32932 0.601614 6.29778 21.4662 87.9241 12.6353 15.3399 72.8845 -3.09041 13.9511 -6.87251 95.2412 39.8046 27.5825 -6.72353 87.5069 17.7097 3.57429 48.8973 32.9818 17.7681
internal_weight=2.55326e+06 2.39278e+06 160484 118527 821502 684566 92353 55437 26174 664277 1.57128e+06 20289 566746 21853 8661 36916 557093 425313 13542 8946 306556 136936 12569 3114 124367 15395 249469 21521 550525 51779 118757 8311 41957 9653 46776 29049 11812 131780 12993 1522 93372 105733 248098 129304 118794 36627 5632 48502 7287 9068 498746 27354 1.02075e+06 7683 20231 4504 97531 2522 9455 66018 9174 3497 20971
internal_count=2553265 2392781 160484 118527 821502 684566 92353 55437 26174 664277 1571279 20289 566746 21853 8661 36916 557093 425313 13542 8946 306556 136936 12569 3114 124367 15395 249469 21521 550525 51779 118757 8311 41957 9653 46776 29049 11812 131780 12993 1522 93372 105733 248098 129304 118794 36627 5632 48502 7287 9068 498746 27354 1020754 7683 20231 4504 97531 2522 9455 66018 9174 3497 20971
cat_boundaries=0 4 8 11 15 16 19 20 24 28 31 35 38 42 43
cat_threshold=17476 18025602 2718695430 260 537919488 25167872 33816610 4 4 16844800 34078720 1360003248 276824145 5374064 146 144 0 1048578 2 80 0 8388608 32 4 268435528 64 3288334340 17 0 1048576 2 0 128 2147483652 256 0 1024 262146 671293705 3993014792 1434538121 1 20
is_linear=0
shrinkage=0.05


Tree=7
num_leaves=64
num_cat=18
split_feature=8 2 2 4 5 4 8 11 8 6 2 2 8 2 11 0 8 0 16 12 11 2 10 16 2 11 5 8 8 5 11 2 2 11 12 2 2 4 2 2 4 11 8 10 6 10 2 8 2 4 4 10 0 8 4 8 11 4 11 11 11 11 11
split_gain=5.23712e+10 1.78488e+10 1.52767e+10 7.81288e+09 4.46623e+09 5.5792e+09 4.1724e+09 3.88387e+09 3.54472e+09 3.37002e+09 2.59232e+09 2.19457e+09 1.81498e+09 1.69379e+09 1.68968e+09 1.46808e+09 1.34287e+09 1.26475e+09 1.09122e+09 1.01843e+09 9.49151e+08 9.46343e+08 9.14572e+08 9.05107e+08 8.82306e+08 8.51569e+08 8.32391e+08 8.28344e+08 7.80741e+08 7.8137e+08 7.27138e+08 6.85176e+08 6.69849e+08 6.69066e+08 6.61923e+08 6.14453e+08 6.04365e+08 6.00484e+08 5.90374e+08 5.73034e+08 5.639e+08 8.8088e+08 6.17273e+08 5.35696e+08 4.94952e+08 4.84958e+08 4.76092e+08 4.70311e+08 5.4358e+08 4.68113e+08 4.64036e+08 4.50958e+08 4.49743e+08 4.2893e+08 4.06662e+08 4.6902e+08 4.31758e+08 4.04995e+08 5.86665e+08 4.90902e+08 4.3341e+08 4.04848e+08 9.44992e+08
threshold=236.79704284667972 0 1 364.55036926269537 2.5138889551162724 750.76654052734386 18.821064949035648 13.500000000000002 2389.619262695313 1471.5000000000002 2 3 578.51733398437511 4 12.500000000000002 5 45.557584762573249 6 1.0000000180025095e-35 4.5000000000000009 17.500000000000004 7 58.500000000000007 1.0000000180025095e-35 8 7.5000000000000009 3.1805555820465092 990.18386840820324 249.56349945068362 2.736111164093018 7.5000000000000009 9 10 16.500000000000004 5.5000000000000009 11 12 42.964416503906257 13 14 162.02740478515628 4.5000000000000009 21.786786079406742 110.50000000000001 1466.5000000000002 58.500000000000007 15 1188.421569824219 16 149.299430847168 269.30201721191412 91.500000000000014 17 2389.619262695313 222.24517822265628 45.557584762573249 11.500000000000002 347.53865051269537 16.500000000000004 15.500000000000002 19.500000000000004 10.500000000000002 9.5000000000000018
decision_type=2 9 9 2 2 2 2 2 2 2 9 9 2 9 2 9 2 9 2 2 2 9 2 2 9 2 2 2 2 2 2 9 9 2 2 9 9 2 9 9 2 2 2 2 2 2 9 2 9 2 2 2 9 2 2 2 2 2 2 2 2 2 2
left_child=1 4 3 7 5 6 17 8 27 14 26 -8 21 40 18 52 -15 31 61 23 33 -9 38 53 -4 -7 45 35 -23 57 39 -1 49 -16 -20 -2 -29 -32 54 51 -6 -42 -43 46 -17 -3 -12 48 -11 -18 -24 -19 -10 -14 55 -13 -57 58 -30 -59 -60 62 -5
right_child=2 10 24 9 13 25 11 12 15 47 43 22 19 16 20 44 32 30 34 -21 -22 28 50 -25 -26 -27 -28 36 29 -31 37 -33 -34 -35 -36 -37 -38 -39 -40 -41 41 42 -44 -45 -46 -47 -48 -49 -50 -51 -52 -53 -54 -55 -56 56 -58 59 60 -61 -62 -63 -64
leaf_value=-2.5833117729478614 19.579890794257349 -1.4490042688664357 12.570469290963013 41.231976557707043 0.39212451622472999 43.482760403366107 83.989123885922652 -8.1076565694191221 130.88051846104895 63.892177962945198 -5.6852438264716705 5.5171516458491325 37.014651828086862 -5.2541627352805493 87.036922671173826 57.829789351525761 25.268226259501343 16.974846251646948 92.44700873577159 31.410604857899884 55.082666986874102 20.027333782241918 24.921413564941982 71.901719488324147 -3.3493851667411265 19.223640598999392 -4.6778292041763505 10.651412903366985 31.855955400364959 24.034828214962154 8.8911942110764599 3.496880145029615 -4.0519785681168417 127.81715246385927 40.542049551855179 7.1371354808338356 34.741633353380827 1.9672939288897824 1.3971193317049198 7.6232485076617653 74.341734299622985 7.8711405493402884 -8.0963460017757409 4.5206565799262277 27.641593170486701 4.4100915365194524 -7.8827525385974813 39.065253165986519 -3.3801593779342998 7.3297808165537806 12.934526998568021 55.126186059772081 72.516079130525796 88.939025627465583 9.994344653237885 15.37245436873026 33.877234206330527 146.74234967647988 59.373493324290905 53.62892657376522 20.427820556966296 37.244985849148911 84.722814983794393
leaf_weight=83431 18486 298116 12060 3300 63835 11212 1137 1333 442 338 545318 4419 3607 161426 5127 2033 4959 18159 2740 3571 1938 6179 23406 7749 31192 5341 225313 3734 4701 4964 51398 104185 9785 1252 792 21494 8827 80138 13278 32105 480 65193 6672 10792 4089 40063 450355 1851 2184 13640 12326 809 2059 447 32439 6429 6185 221 6059 394 810 4448 2010
leaf_count=83431 18486 298116 12060 3300 63835 11212 1137 1333 442 338 545318 4419 3607 161426 5127 2033 4959 18159 2740 3571 1938 6179 23406 7749 31192 5341 225313 3734 4701 4964 51398 104185 9785 1252 792 21494 8827 80138 13278 32105 480 65193 6672 10792 4089 40063 450355 1851 2184 13640 12326 809 2059 447 32439 6429 6185 221 6059 394 810 4448 2010
internal_value=-0.0102057 -1.92571 26.7653 35.4938 4.09064 7.12574 6.1206 29.2174 21.2926 59.9554 -5.03891 15.204 41.3246 -0.437789 68.0568 51.0045 -3.49047 3.67647 56.9949 54.808 85.7321 32.9186 14.3998 61.8866 1.09146 35.6555 -2.32344 16.4162 35.2513 40.7571 6.6385 0.793085 6.53877 95.0427 80.8095 12.8971 27.6166 4.67283 10.7652 11.7023 3.81707 6.83966 6.3887 -6.55918 37.6059 -0.754895 -6.67934 19.9259 5.87782 12.1063 20.7865 18.5925 83.3157 42.742 13.2766 19.5353 24.4461 47.5693 45.4669 87.1076 54.7813 48.3742 57.6959
internal_weight=2.55278e+06 2.38234e+06 170431 127179 812387 486397 469844 101199 61164 25980 1.56996e+06 99619 40035 325990 21607 8623 189810 370225 13290 15374 8317 24661 98482 11803 43252 16553 563492 52541 23328 17149 182609 187616 28384 6379 3532 39980 12561 131536 62750 51073 136180 72345 71865 1.00646e+06 6122 338179 995673 4373 2522 18599 35732 18968 2501 4054 49472 17033 12614 12185 11570 615 6869 9758 5310
internal_count=2552775 2382344 170431 127179 812387 486397 469844 101199 61164 25980 1569957 99619 40035 325990 21607 8623 189810 370225 13290 15374 8317 24661 98482 11803 43252 16553 563492 52541 23328 17149 182609 187616 28384 6379 3532 39980 12561 131536 62750 51073 136180 72345 71865 1006465 6122 338179 995673 4373 2522 18599 35732 18968 2501 4054 49472 17033 12614 12185 11570 615 6869 9758 5310
cat_boundaries=0 4 8 12 15 18 19 20 24 28 30 33 37 40 43 47 51 54 55
cat_threshold=17476 18025602 2718695430 260 537919488 16779264 33816610 4 1494220976 343933009 5374072 146 0 0 524288 16448 128 2 6 198 0 0 32 4 1342177344 8388672 2214592516 1 16384 16777346 0 16780288 524288 0 16777216 33554432 4 0 0 2 0 16780416 33816582 17408 131072 0 256 537075977 3925902088 1436635265 513 0 16777216 33816576 4
is_linear=0
shrinkage=0.05


Tree=8
num_leaves=64
num_cat=19
split_feature=8 3 2 2 2 2 8 2 3 3 4 4 7 3 6 3 2 8 2 10 3 2 7 16 16 8 8 2 2 8 2 2 8 8 2 3 3 10 15 7 0 10 9 4 10 8 10 8 10 3 16 4 0 2 8 2 14 3 2 4 2 7 3
split_gain=4.77729e+10 2.41212e+10 1.53003e+10 7.50285e+09 6.79177e+09 5.47407e+09 3.4503e+09 3.4117e+09 3.09799e+09 3.07175e+09 2.06495e+09 1.92199e+09 1.92122e+09 1.73972e+09 1.89749e+09 1.62713e+09 1.51544e+09 1.29844e+09 1.67691e+09 1.29586e+09 1.28169e+09 9.9061e+08 9.10425e+08 9.77692e+08 7.77342e+08 1.63665e+09 7.52198e+08 7.34832e+08 7.21086e+08 1.6204e+09 7.12554e+08 6.90399e+08 6.6895e+08 6.37045e+08 1.07835e+09 7.54216e+08 6.3608e+08 6.1613e+08 5.782e+08 5.70055e+08 5.58305e+08 6.45177e+08 5.55221e+08 5.07107e+08 4.98842e+08 4.70323e+08 4.67397e+08 4.5995e+08 4.50515e+08 4.50201e+08 4.45142e+08 4.35032e+08 4.63256e+08 4.1959e+08 4.13722e+08 4.03971e+08 4.03474e+08 4.02221e+08 4.65217e+08 3.99796e+08 6.22991e+08 5.47854e+08 3.76913e+08
threshold=275.59919738769537 901.03646850585949 0 1 2 3 578.51733398437511 4 246.43582153320315 430.40370178222662 612.67117309570324 427.29031372070318 2711.1457519531255 858.16043090820324 1456.5000000000002 870.16540527343761 5 21.786786079406742 6 58.500000000000007 540.66107177734386 7 6384.8212890625009 1.0000000180025095e-35 1.0000000180025095e-35 1188.421569824219 1460.3316040039065 8 9 23.338887214660648 10 11 241.47621154785159 45.557584762573249 12 1791.4627685546877 20.762838363647464 8.5000000000000018 1.0000000180025095e-35 4445.8991699218759 13 116.50000000000001 55.500000000000007 32.043821334838874 87.500000000000014 3338.586303710938 58.500000000000007 303.70957946777349 52.500000000000007 19.201362609863285 1.0000000180025095e-35 216.03737640380862 14 15 1188.421569824219 16 1.0000000180025095e-35 481.06245422363287 17 40.387254714965827 18 121.33518981933595 664.59869384765636
decision_type=2 2 9 9 9 9 2 9 2 2 2 2 2 2 2 2 9 2 9 2 2 9 2 2 2 2 2 9 9 2 9 9 2 2 9 2 2 2 2 2 9 2 2 2 2 2 2 2 2 2 2 2 9 9 2 9 2 2 9 2 9 2 2
left_child=1 3 11 9 6 31 22 12 36 17 19 26 -7 14 -8 -15 20 21 32 33 53 39 23 -4 -17 38 47 59 29 37 45 -3 -19 34 -9 -36 -5 -11 43 56 41 -30 -13 -26 -38 -6 -25 -2 -45 -23 -37 52 -35 -10 -16 -46 -1 -42 62 60 61 -21 -59
right_child=2 5 4 8 30 7 13 10 16 28 -12 42 -14 15 54 24 -18 18 -20 27 -22 49 -24 46 25 -27 -28 -29 40 -31 -32 -33 -34 51 35 50 44 -39 -40 -41 57 -43 -44 48 55 -47 -48 -49 -50 -51 -52 -53 -54 -55 -56 -57 -58 58 -60 -61 -62 -63 -64
leaf_value=37.739972022673449 40.231053145208413 -3.1178502500849827 7.7780134240394858 -11.484484187266638 8.6166482105923787 44.452792796826564 59.777523920342141 2.537894107445188 13.873968078724554 3.1769492679170157 -2.2635693190748851 112.24947333559963 17.868715073610073 79.294898216945228 13.612681452542212 31.239329177770628 -5.8337969723278906 19.039260138640021 -0.83540222780281559 30.228466236902097 1.7991206021887725 -12.712918673724396 -7.0550736313972635 25.580326485979832 29.082043446238352 123.3090780365068 105.53582753256069 15.388432348155821 -0.67616247770441662 83.174930704587879 -3.4643499495428944 3.4527076821067135 57.708274449674676 24.216069114507523 9.4600038043380597 14.547719480614711 -7.7603138958604134 50.856236819622296 26.994886463399826 0.35698978750190274 4.2660865695034067 32.327729018076091 70.892404463803359 57.208471343193459 71.688123734459552 42.675015865150236 57.029888970465656 60.379213521222852 103.88876238252385 -4.0332856999126472 33.71486975432645 10.905179092227471 10.704553713038138 -3.9180708838095208 27.943968332987552 2.3460214270936888 9.7391485532319688 15.882105758624853 8.1852376502773634 26.330381715332688 13.556044127447686 122.50260537608831 79.496072015961104
leaf_weight=1506 3397 69906 10046 128598 12251 11232 4290 57329 3342 3418 29740 2405 17210 3491 7163 8635 460609 10077 19641 255 162226 16969 4251 7686 1367 744 832 44637 27795 1006 20133 93361 1258 15395 69096 6963 496213 845 2711 32882 33808 1564 1226 3360 205 1105 1396 17074 611 124927 5362 59328 10886 296121 16961 9034 8825 24405 54026 10772 511 436 235
leaf_count=1506 3397 69906 10046 128598 12251 11232 4290 57329 3342 3418 29740 2405 17210 3491 7163 8635 460609 10077 19641 255 162226 16969 4251 7686 1367 744 832 44637 27795 1006 20133 93361 1258 15395 69096 6963 496213 845 2711 32882 33808 1564 1226 3360 205 1105 1396 17074 611 124927 5362 59328 10886 296121 16961 9034 8825 24405 54026 10772 511 436 235
internal_value=0.000101399 -1.59139 29.3936 -4.14422 21.1111 8.16191 29.6924 11.7829 -5.65427 2.32681 10.2648 64.6365 28.3572 37.1944 29.1377 48.1374 -3.80468 -1.4671 8.00768 11.5913 -1.78015 -3.05261 13.8748 18.5262 41.8959 52.3605 58.9307 18.3512 7.90003 26.0499 2.47591 0.639374 23.3108 9.88559 7.79278 11.4911 -8.34479 12.6288 45.801 3.57512 7.22341 1.08174 98.2877 55.3513 -7.54598 11.4262 30.415 57.036 64.3934 -5.07091 22.8866 13.2775 18.6327 -3.71918 23.6887 3.96551 13.8213 8.82632 10.7873 29.3583 56.733 87.1982 16.4824
internal_weight=2.55309e+06 2.42195e+06 131135 1.91954e+06 106201 502419 72712 339152 1.55635e+06 363187 310710 24934 28442 49333 28414 20919 922298 216085 30976 280970 461689 185109 23379 19128 17428 8793 21303 56611 147102 5269 33489 163267 11335 224359 138750 81421 634050 4263 8049 43213 141833 29359 3631 5338 505452 13356 9082 20471 3971 141896 12325 85609 26281 299463 24124 9239 10331 112474 78666 11974 1202 691 24640
internal_count=2553089 2421954 131135 1919535 106201 502419 72712 339152 1556348 363187 310710 24934 28442 49333 28414 20919 922298 216085 30976 280970 461689 185109 23379 19128 17428 8793 21303 56611 147102 5269 33489 163267 11335 224359 138750 81421 634050 4263 8049 43213 141833 29359 3631 5338 505452 13356 9082 20471 3971 141896 12325 85609 26281 299463 24124 9239 10331 112474 78666 11974 1202 691 24640
cat_boundaries=0 4 7 10 14 17 21 24 27 31 34 38 42 45 46 47 51 55 57 61
cat_threshold=536870912 25167872 262144 4 1092 1246339 537657350 1048576 0 33554466 2426601472 2216698392 1087524960 192 64 8388738 128 152322481 3598762064 2252357872 262 0 1152 786434 1088 1024 536870912 16384 2048 33554436 256 0 1048576 524288 268976144 2 2214592516 1 2156068864 2105360 8392704 64 1048576 16779264 2181038100 292 386 0 2147483648 0 4 0 0 33554432 1 0 130 0 0 0 256
is_linear=0
shrinkage=0.05


Tree=9
num_leaves=64
num_cat=5
split_feature=7 3 10 0 3 3 3 11 5 5 11 6 3 6 11 3 7 7 3 7 6 11 11 1 12 11 11 3 7 7 11 3 5 16 6 3 12 7 3 11 7 7 11 3 0 11 0 6 11 7 3 11 0 7 5 7 11 7 7 5 6 9 3
split_gain=3.91554e+10 1.17363e+10 6.16061e+09 4.50344e+09 4.54468e+09 3.95352e+09 5.61173e+09 2.80452e+09 2.29577e+09 2.1493e+09 1.54884e+09 1.32745e+09 1.16729e+09 9.33175e+08 9.23929e+08 9.17744e+08 8.97161e+08 8.8655e+08 4.49385e+09 2.41766e+09 8.34713e+08 8.06913e+08 1.01121e+09 1.05541e+09 7.50488e+08 6.88947e+08 7.2235e+08 6.76383e+08 6.72634e+08 9.41736e+08 6.5174e+08 6.15816e+08 5.74086e+08 5.82961e+08 5.18033e+08 5.04932e+08 4.74187e+08 4.55652e+08 4.89342e+08 5.29461e+08 4.52714e+08 7.13817e+08 6.60163e+08 4.59186e+08 5.24936e+08 4.43838e+08 6.49453e+08 4.23586e+08 4.22711e+08 4.12625e+08 5.83341e+08 5.57147e+08 3.98031e+08 3.96138e+08 3.91697e+08 3.8452e+08 3.8186e+08 3.66279e+08 3.63696e+08 3.78836e+08 3.45585e+08 3.42173e+08 3.21803e+08
threshold=1.0000000180025095e-35 771.19470214843761 57.500000000000007 0 1791.4627685546877 128.34885406494143 128.35047149658206 12.500000000000002 3.0138889551162724 2.7916668653488164 8.5000000000000018 1491.5000000000002 47.751071929931648 1418.5000000000002 5.5000000000000009 1041.0923461914065 5227.0961914062509 9522.7958984375018 870.16540527343761 11191.836914062502 1469.5000000000002 18.500000000000004 16.500000000000004 1 4.5000000000000009 8.5000000000000018 10.500000000000002 20.762838363647464 349.05529785156256 5654.9995117187509 6.5000000000000009 390.98603820800787 3.3472224473953252 1.0000000180025095e-35 1430.5000000000002 1165.913024902344 4.5000000000000009 5911.3342285156259 383.59074401855474 17.500000000000004 6312.3972167968759 6292.7395019531259 17.500000000000004 469.47048950195318 2 7.5000000000000009 3 1429.5000000000002 7.5000000000000009 2099.3439941406255 1930.9599609375002 7.5000000000000009 4 5713.6811523437509 7.4861111640930185 5227.0961914062509 7.5000000000000009 10511.834960937502 2483.7749023437505 8.0694446563720721 1485.5000000000002 298.50000000000006 573.80358886718761
decision_type=2 2 2 9 2 2 2 2 2 2 2 2 2 2 2 2 2 2 2 2 2 2 2 1 2 2 2 2 2 2 2 2 2 2 2 2 2 2 2 2 2 2 2 2 9 2 9 2 2 2 2 2 9 2 2 2 2 2 2 2 2 2 2
left_child=7 2 5 17 32 27 11 13 16 10 14 25 -4 56 -6 -9 31 58 19 -19 53 22 47 34 -25 -7 -27 -2 30 62 -22 -8 33 -5 -24 -35 49 -31 39 -39 41 43 60 -18 -45 46 -15 -17 -37 50 51 -16 -33 -14 55 -10 -1 -42 59 -3 -43 -29 -30
right_child=1 3 12 4 9 6 8 15 54 -11 -12 -13 20 45 36 21 40 18 -20 -21 28 -23 23 24 -26 26 -28 61 29 37 -32 52 -34 35 -36 48 -38 38 -40 -41 57 42 -44 44 -46 -47 -48 -49 -50 -51 -52 -53 -54 -55 -56 -57 -58 -59 -60 -61 -62 -63 -64
leaf_value=17.219264848505379 -11.113889849567455 2.5511114121697567 -3.805648249305567 5.1763027002030899 23.688551053545901 40.029365991481889 -4.1982606849203448 6.8586023690909173 -5.1758981257118926 11.934775527001904 17.459246413039057 17.081702272461445 17.186496594405039 22.74773850041791 133.68974980802989 33.562667621939198 -1.0893820033195436 72.373727603850099 1.4093666972008847 -5.1930645135156039 6.3036930583874433 17.176613963052773 40.516084198348274 60.018631854624473 16.853161079725773 150.94082111452084 58.898830213263651 -7.1589974259483471 1.9869400143460245 22.263619461587286 36.13629297669069 12.477111729326973 3.2220318183501355 8.7003336764040817 20.660862046134795 22.851032230650944 6.3054616007406885 12.737465911487774 5.5351300431125097 38.846642272273762 -2.1959651071173969 75.769304893992327 62.635781895733487 10.645189621378623 -6.3205796970164023 17.193241867623701 6.5599074835653131 23.885497495824808 10.881556467418335 48.522769375462396 58.167555035847094 44.969255896836039 -0.70758647664808427 63.26415877947808 -6.7656893693358757 -1.5611765045520505 32.52409468782335 5.0378874473060966 -4.9109344448635559 -4.4864206008567038 12.485829139884643 15.287233918215501 13.796880574182266
leaf_weight=6466 150237 54422 26926 61861 3483 3969 196592 4649 303651 15382 7125 8617 911 7884 574 18395 26623 3563 76813 1399 3514 11090 7445 7468 1164 302 725 313676 73124 8500 3822 5869 65773 53782 5880 14688 510 11552 26449 2334 59503 225 845 26909 5485 52411 28961 29356 14818 6727 2593 256 217293 956 269346 97097 11026 24789 64689 29482 5187 1707 6262
leaf_count=6466 150237 54422 26926 61861 3483 3969 196592 4649 303651 15382 7125 8617 911 7884 574 18395 26623 3563 76813 1399 3514 11090 7445 7468 1164 302 725 313676 73124 8500 3822 5869 65773 53782 5880 14688 510 11552 26449 2334 59503 225 845 26909 5485 52411 28961 29356 14818 6727 2593 256 217293 956 269346 97097 11026 24789 64689 29482 5187 1707 6262
internal_value=0.00832853 -1.75835 -3.5344 5.23898 9.92061 -4.4188 -2.95695 21.7103 -3.30763 26.1725 36.4699 28.9708 5.71397 16.3065 46.0469 28.4612 -0.973012 0.207272 4.38846 50.5047 7.57919 29.7042 31.6972 40.5781 54.1982 49.4761 85.9768 -8.35279 7.12185 6.27938 21.8465 -2.15781 7.09712 8.85308 31.7547 11.5839 53.3519 11.7428 9.52559 17.1262 2.35211 5.47811 21.5362 3.77558 7.77384 14.237 10.0317 27.6135 16.84 55.7157 69.8496 106.334 -0.360306 40.7828 -5.29114 -4.30009 26.8667 -0.0685952 -2.09375 0.0782767 15.1181 -7.0375 2.91853
internal_weight=2.55313e+06 2.36094e+06 1.883e+06 477940 247572 1.71865e+06 1.25303e+06 192195 1.23941e+06 36650 21268 13613 164350 106748 14143 85447 569320 230368 81775 4962 137424 80798 69708 21957 8632 4996 1027 465620 135557 128221 7336 419754 210922 145149 13325 83288 10660 48835 40335 13886 149566 65274 6257 59017 32394 89256 36845 47751 29506 10150 3423 830 223162 1867 670094 400748 17492 84292 148593 83904 5412 315383 79386
internal_count=2553132 2360937 1882997 477940 247572 1718647 1253027 192195 1239414 36650 21268 13613 164350 106748 14143 85447 569320 230368 81775 4962 137424 80798 69708 21957 8632 4996 1027 465620 135557 128221 7336 419754 210922 145149 13325 83288 10660 48835 40335 13886 149566 65274 6257 59017 32394 89256 36845 47751 29506 10150 3423 830 223162 1867 670094 400748 17492 84292 148593 83904 5412 315383 79386
cat_boundaries=0 1 2 3 4 5
cat_threshold=258 2 144 160 64
is_linear=0
shrinkage=0.05


Tree=10
num_leaves=64
num_cat=12
split_feature=8 3 6 3 3 5 3 0 0 7 3 5 11 11 3 0 7 11 8 7 16 8 11 1 3 3 0 7 11 14 0 11 12 7 7 11 4 8 0 8 3 8 16 11 7 7 11 11 11 12 13 1 0 4 14 0 4 5 0 8 0 8 12
split_gain=4.08075e+10 1.93498e+10 1.28232e+10 5.03754e+09 4.37024e+09 3.7883e+09 3.67003e+09 3.24279e+09 2.68522e+09 2.26759e+09 1.7806e+09 1.70294e+09 1.65868e+09 1.6343e+09 1.58856e+09 1.55395e+09 1.23795e+09 1.2354e+09 1.20953e+09 1.18479e+09 1.10874e+09 1.10607e+09 1.00558e+09 9.00724e+08 8.64121e+08 1.08681e+09 7.99692e+08 8.47924e+08 7.90078e+08 7.47216e+08 1.02037e+09 7.1313e+08 6.52142e+08 6.42772e+08 6.3709e+08 6.06386e+08 5.83792e+08 6.75538e+08 9.33171e+08 6.61582e+08 5.71399e+08 5.37742e+08 5.2582e+08 8.93679e+08 7.31599e+08 1.21158e+09 5.23851e+08 5.09252e+08 5.03697e+08 4.76271e+08 4.70197e+08 4.69209e+08 4.37472e+08 4.30058e+08 4.2165e+08 4.87696e+08 4.53468e+08 4.18769e+08 3.93292e+08 3.87861e+08 3.85126e+08 3.8402e+08 3.63179e+08
threshold=275.59919738769537 901.03646850585949 1473.5000000000002 452.83758544921881 858.16043090820324 5.6805555820465097 1495.845886230469 0 1 9949.8496093750018 27.141586303710941 1.875000059604645 15.500000000000002 12.500000000000002 313.61990356445318 2 4928.9621582031259 17.500000000000004 23.338887214660648 34.105047225952156 1.0000000180025095e-35 1188.421569824219 7.5000000000000009 3 229.74614715576175 233.60362243652347 4 5713.6811523437509 16.500000000000004 1.0000000180025095e-35 5 18.500000000000004 5.5000000000000009 447.14030456542974 2483.7749023437505 14.500000000000002 220.04473876953128 28.464809417724613 6 249.56349945068362 2402.801147460938 352.87358093261724 1.0000000180025095e-35 7.5000000000000009 175.99497985839847 121.33518981933595 17.500000000000004 9.5000000000000018 15.500000000000002 4.5000000000000009 1.0000000180025095e-35 7 8 36.270956039428718 1.0000000180025095e-35 9 69.910758972167983 0.56944444775581371 10 578.51733398437511 11 3338.586303710938 3.5000000000000004
decision_type=2 2 2 2 2 2 2 9 9 2 2 2 2 2 2 9 2 2 2 2 2 2 2 1 2 2 9 2 2 2 9 2 2 2 2 2 2 2 9 2 2 2 2 2 2 2 2 2 2 2 2 1 9 2 2 9 2 2 9 2 9 2 2
left_child=1 3 13 10 14 6 15 -5 22 12 -1 18 59 20 23 57 29 28 -12 21 41 31 40 -4 35 -26 -20 33 48 30 51 49 -22 -28 54 61 37 38 42 -38 -8 -2 -10 44 45 -44 -29 -39 -15 -14 -32 -9 -37 -53 55 56 -16 -3 -7 -6 -17 -25 -30
right_child=2 5 4 7 9 58 8 16 36 -11 11 -13 19 17 34 60 -18 -19 26 -21 32 -23 -24 24 25 -27 27 46 62 -31 50 -33 -34 -35 -36 52 39 47 -40 -41 -42 -43 43 -45 -46 -47 -48 -49 -50 -51 -52 53 -54 -55 -56 -57 -58 -59 -60 -61 -62 -63 -64
leaf_value=-9.9972951287469467 25.329912646559183 20.609484012866414 -5.5703099198296604 -5.3206752746116699 9.2016706886304469 11.547323209822819 34.71077760702957 13.554895544609369 11.395169839773011 72.002116470767717 -3.0536528551360886 -6.1682047407142484 56.367120271143385 84.746615090304175 18.112625082829243 1.4334420804889512 6.8491067215972166 40.153629478781298 -3.6928296565315692 3.2188245307625665 78.865489770599524 102.17922436507068 18.252662347003085 6.992407263760402 93.778675684365851 26.934887826297661 35.641028275201535 16.42451220489232 94.633314757631894 -0.40299680551356776 70.452597417940936 17.941899898424687 33.169023302254992 3.1932706771270141 -5.3594570104470973 31.507739495215322 9.8107439307186937 13.966382044048949 2.1107145789468964 26.759387940306667 58.787864614309051 46.373717083426044 24.936733051992931 14.674119630360346 34.517396862150143 142.86395778505764 45.641376590027903 31.370136904537386 58.337593850549837 23.43418238529993 4.1799975078096265 16.49084869273365 -3.7794697942771509 73.508162226183302 5.1104732551107377 15.888483940882271 105.43933558872455 9.6629501039494912 -1.5256830643144352 24.639155544467947 5.9910419402508266 28.941686882415407 146.41026662621556
leaf_weight=187416 4377 17176 3936 191752 6307 6072 6995 1284 9635 3408 357949 732775 6628 4026 259 99849 119213 2554 14290 1635 3443 893 6458 16575 641 11819 1659 4716 961 236598 269 2067 1010 19062 14670 6287 95045 6566 12119 6129 3805 9910 423 5711 3525 449 2274 11682 3276 1316 49357 493 1026 1005 8115 1955 349 17783 106383 11466 86539 2265 524
leaf_count=187416 4377 17176 3936 191752 6307 6072 6995 1284 9635 3408 357949 732775 6628 4026 259 99849 119213 2554 14290 1635 3443 893 6458 16575 641 11819 1659 4716 961 236598 269 2067 1010 19062 14670 6287 95045 6566 12119 6129 3805 9910 423 5711 3525 449 2274 11682 3276 1316 49357 493 1026 1005 8115 1955 349 17783 106383 11466 86539 2265 524
internal_value=0.002934 -1.47066 27.1082 -3.75636 18.6195 7.26596 9.59786 0.0425737 15.1571 33.3331 -5.48287 -4.73593 28.9853 55.7841 11.3121 5.36483 2.56191 70.7656 -2.11178 42.9102 46.7172 48.8617 33.8414 17.2152 19.5378 30.3744 5.91526 10.8674 79.6627 0.79356 6.19545 44.1047 68.5019 5.79132 1.40336 14.3749 13.0226 17.4368 13.0433 10.8375 43.194 39.9269 19.7431 27.7197 44.6631 85.6679 25.9299 25.108 72.8993 50.9118 4.53846 35.6078 26.5949 54.7458 10.6944 28.3736 67.1442 15.0369 -0.818906 19.161 3.54972 9.63135 112.912
internal_weight=2.55415e+06 2.42246e+06 131698 1.92011e+06 101617 502344 389889 599971 168542 33720 1.32014e+06 1.13272e+06 30312 30081 67897 221347 408219 11341 399950 12539 18740 10904 17258 42549 38613 12460 42001 27711 8787 289006 52408 10011 4453 20721 25348 26153 151284 50110 31862 101174 10800 14287 19743 10108 4397 872 6990 18248 7302 7944 49626 2782 7313 1498 10678 2563 608 34959 112455 17773 186388 18840 1485
internal_count=2554154 2422456 131698 1920112 101617 502344 389889 599971 168542 33720 1320141 1132725 30312 30081 67897 221347 408219 11341 399950 12539 18740 10904 17258 42549 38613 12460 42001 27711 8787 289006 52408 10011 4453 20721 25348 26153 151284 50110 31862 101174 10800 14287 19743 10108 4397 872 6990 18248 7302 7944 49626 2782 7313 1498 10678 2563 608 34959 112455 17773 186388 18840 1485
cat_boundaries=0 1 2 3 4 5 6 7 8 9 10 11 12
cat_threshold=2 225 160 4 2 64 20 2 144 2 196 262
is_linear=0
shrinkage=0.05


Tree=11
num_leaves=64
num_cat=17
split_feature=8 3 2 2 2 2 8 2 3 3 5 4 7 3 5 6 5 8 2 5 2 2 16 7 2 16 8 8 10 8 3 2 2 2 8 5 10 9 7 3 3 4 4 4 7 3 5 4 3 2 8 8 2 8 2 4 8 14 2 2 4 3 12
split_gain=3.65495e+10 1.7518e+10 1.20568e+10 5.85727e+09 5.11146e+09 3.93101e+09 2.87136e+09 2.73375e+09 2.41797e+09 2.25614e+09 2.10704e+09 1.59032e+09 1.54252e+09 1.51206e+09 1.31148e+09 1.15349e+09 1.09652e+09 1.09398e+09 1.26545e+09 1.08992e+09 8.28719e+08 8.22984e+08 7.74426e+08 9.99888e+08 7.05667e+08 7.03791e+08 1.2073e+09 6.94567e+08 6.26208e+08 5.82594e+08 5.82587e+08 5.76175e+08 5.73807e+08 5.52449e+08 1.30489e+09 5.26851e+08 5.25842e+08 5.02508e+08 5.00585e+08 4.73113e+08 7.8263e+08 6.45575e+08 4.4403e+08 4.33293e+08 4.22973e+08 4.21342e+08 4.03667e+08 4.02358e+08 4.00868e+08 3.91991e+08 3.88618e+08 3.82578e+08 3.74343e+08 3.68796e+08 3.65653e+08 3.65287e+08 3.70217e+08 3.65065e+08 3.62959e+08 3.59874e+08 3.47271e+08 3.37898e+08 3.29067e+08
threshold=275.59919738769537 901.03646850585949 0 1 2 3 990.18386840820324 4 322.16873168945318 436.59367370605474 7.2361114025115976 427.29031372070318 2711.1457519531255 858.16043090820324 2.736111164093018 1456.5000000000002 3.9027780294418339 19.631528854370121 5 1.0000000180025095e-35 6 7 1.0000000180025095e-35 6437.6140136718759 8 1.0000000180025095e-35 1188.421569824219 1460.3316040039065 58.500000000000007 241.47621154785159 30.269681930541996 9 10 11 21.786786079406742 1.1250000000000002 98.500000000000014 51.500000000000007 4445.8991699218759 1772.9551391601565 1930.9599609375002 42.146820068359382 136.29774475097659 110.70878982543947 144.87094879150393 1654.267272949219 5.6805555820465097 34.750286102294929 557.38903808593761 12 62.133354187011726 3338.586303710938 13 303.70957946777349 14 227.32582855224612 263.12913513183599 1.0000000180025095e-35 15 16 542.01428222656261 19.201362609863285 4.5000000000000009
decision_type=2 2 9 9 9 9 2 9 2 2 2 2 2 2 2 2 2 2 9 2 9 9 2 2 9 2 2 2 2 2 2 9 9 9 2 2 2 2 2 2 2 2 2 2 2 2 2 2 2 9 2 2 9 2 9 2 2 2 9 9 2 2 2
left_child=1 3 11 9 6 32 16 12 30 17 19 27 46 15 20 -8 22 21 29 24 48 38 -4 28 39 -15 -27 53 62 -19 -5 51 -3 34 35 47 52 -13 57 50 41 44 -26 -36 -41 -21 -7 -11 58 -16 -9 -6 -32 -2 -12 -44 -57 -1 -10 -38 -14 -23 -24
right_child=2 5 4 8 31 7 13 10 14 33 54 37 60 25 49 -17 -18 18 -20 45 -22 61 23 -25 42 26 -28 -29 -30 -31 36 -33 -34 -35 43 -37 59 -39 -40 40 -42 -43 55 -45 -46 -47 -48 -49 -50 -51 -52 -53 -54 -55 -56 56 -58 -59 -60 -61 -62 -63 -64
leaf_value=36.60673619895627 35.034094896019077 -2.898335436060715 12.469687183881154 -9.3715209000542874 7.5643064103989737 43.184823716833861 51.732141844023772 11.517805729599749 23.373611503070666 10.283238850035019 9.3328842339386622 101.71845708551645 75.761869903200804 38.472518020513732 -3.0324526783313934 23.09317669044378 3.7645324237556768 16.430176330125587 -0.22293590165942107 4.9494477696935277 -3.0837864898101044 -11.032751834837764 34.889702638320138 -8.9866283839502117 7.3412424830476866 42.649970756936966 88.055985315431229 96.70589915865007 61.645206123835209 52.689514942987628 -4.2989803500630295 -3.2498890450905664 3.0901059446448436 6.3532890021042787 5.6221091033294552 0.64810461768947614 18.723247761707096 62.324700880296724 0.50241184493488955 41.930944422128498 20.097912804431896 38.334492936867129 24.558530011374927 85.786404034067729 123.51239068143497 10.060109873268015 16.621860869340285 77.444898643684667 4.7274488389547376 -6.1995489375559343 25.829664562907073 37.780555180480881 -7.0286019323730873 53.04681074924261 -3.5994578351791677 12.204755900042386 41.713745422754499 9.3886187815000124 -0.52216919699848718 -1.8102290425962704 14.574076820177304 -3.4955729375508109 10.122257590651058
leaf_weight=1435 3410 69814 10974 173560 12535 9562 4268 10699 1604 444 6417 2318 235 6946 173756 19953 12558 10985 20674 75331 170192 16850 7223 1400 31804 3462 2537 830 1941 1232 173418 19858 93648 140197 207 3255 3380 1245 32215 236 3549 1349 8198 908 487 86798 1682 448 70577 223418 8521 1143 456883 17074 36549 39765 1092 8704 102653 5760 17010 126533 1647
leaf_count=1435 3410 69814 10974 173560 12535 9562 4268 10699 1604 444 6417 2318 235 6946 173756 19953 12558 10985 20674 75331 170192 16850 7223 1400 31804 3462 2537 830 1941 1232 173418 19858 93648 140197 207 3255 3380 1245 32215 236 3549 1349 8198 908 487 86798 1682 448 70577 223418 8521 1143 456883 17074 36549 39765 1092 8704 102653 5760 17010 126533 1647
internal_value=-0.0129378 -1.40588 25.6778 -3.58222 18.3476 6.90253 25.7787 9.97124 -4.91867 2.12649 8.61172 57.0121 24.7943 35.5129 -2.85528 28.1399 15.664 -1.08392 7.32097 10.2609 -0.600237 -2.57229 22.1092 30.7721 14.2112 49.3082 61.8535 51.8658 35.9208 20.0707 -6.80242 2.18914 0.532444 6.95194 22.846 9.97794 -6.10511 87.9554 3.5511 21.586 34.3544 58.7712 11.9414 70.9057 96.8923 7.68552 39.2114 44.0196 1.81744 -4.81424 17.8629 10.0822 -6.27777 50.0484 -1.66665 14.9263 12.9936 13.2412 -0.152317 5.80174 15.4083 -4.38102 30.291
internal_weight=2.55336e+06 2.42203e+06 131322 1.91929e+06 106445 502746 72909 339284 1.5552e+06 364087 310795 24877 28489 37166 742200 24221 35743 218628 32891 267829 345026 185737 23185 12211 105700 12945 5999 21314 10811 12217 813001 33536 163462 145459 5262 4147 639441 3563 42354 24841 5621 2072 80859 1115 723 162129 11244 892 174834 397174 19220 13678 630301 20484 42966 49055 40857 10139 104257 9140 17245 143383 8870
internal_count=2553356 2422034 131322 1919288 106445 502746 72909 339284 1555201 364087 310795 24877 28489 37166 742200 24221 35743 218628 32891 267829 345026 185737 23185 12211 105700 12945 5999 21314 10811 12217 813001 33536 163462 145459 5262 4147 639441 3563 42354 24841 5621 2072 80859 1115 723 162129 11244 892 174834 397174 19220 13678 630301 20484 42966 49055 40857 10139 104257 9140 17245 143383 8870
cat_boundaries=0 4 7 10 14 17 20 24 27 31 35 39 42 46 50 54 58 62
cat_threshold=536870912 25167872 262144 4 1124 1246339 537657350 1048576 0 33554466 2426601472 2216698392 1083330656 192 64 8388738 128 0 1152 786434 17842320 2493562960 2252493296 325 1088 0 536870912 16384 2048 33554436 256 268976208 66 2214592516 17 2156068864 2105360 8392704 64 0 1048576 524288 956326800 3489677392 2496659633 23 1207959680 1375785024 306184368 135 24704 0 10 20 0 2147483648 33554432 4 3490185216 3430944800 167772672 291
is_linear=0
shrinkage=0.05


Tree=12
num_leaves=64
num_cat=13
split_feature=7 2 4 3 3 6 3 2 11 3 11 2 2 11 16 11 2 3 11 11 11 2 3 7 4 15 11 5 15 2 3 10 10 4 2 4 3 4 4 3 2 11 3 10 15 7 2 10 11 7 3 5 4 4 4 2 16 3 10 11 2 2 10
split_gain=2.85546e+10 1.33975e+10 1.26039e+10 6.27546e+09 3.47952e+09 3.78272e+09 2.95911e+09 1.99975e+09 1.88108e+09 1.59318e+09 1.57373e+09 1.67912e+09 1.50796e+09 1.4414e+09 1.17613e+09 1.02277e+09 1.0351e+09 1.00778e+09 9.70288e+08 9.56877e+08 1.01286e+09 8.17314e+08 9.81175e+08 4.36022e+09 8.62616e+08 7.80508e+08 8.96847e+08 7.49449e+08 7.47949e+08 7.3233e+08 6.64948e+08 6.16006e+08 6.12405e+08 6.06395e+08 5.72954e+08 5.59246e+08 6.99493e+08 5.56081e+08 4.73185e+08 4.7085e+08 4.6624e+08 8.86954e+08 4.53081e+08 4.79009e+08 4.50226e+08 4.42865e+08 4.29797e+08 4.19809e+08 4.04837e+08 4.73146e+08 7.43945e+08 4.02932e+08 4.22743e+08 3.97899e+08 3.8061e+08 3.76952e+08 3.67284e+08 3.58093e+08 6.26233e+08 4.39702e+08 4.76551e+08 4.17421e+08 3.43161e+08
threshold=1.0000000180025095e-35 0 334.58482360839849 1791.4627685546877 473.52133178710943 1462.5000000000002 345.65171813964849 1 8.5000000000000018 88.924678802490249 11.500000000000002 2 3 12.500000000000002 1.0000000180025095e-35 17.500000000000004 4 284.98310852050787 17.500000000000004 10.500000000000002 4.5000000000000009 5 812.89074707031261 9949.8496093750018 28.436245918273929 1.0000000180025095e-35 5.5000000000000009 2.5138889551162724 1.0000000180025095e-35 6 812.89074707031261 53.500000000000007 113.50000000000001 427.29031372070318 7 67.725940704345717 901.03646850585949 427.29031372070318 314.00379943847662 19.201362609863285 8 8.5000000000000018 62.696157455444343 57.500000000000007 1.0000000180025095e-35 10511.834960937502 9 59.500000000000007 7.5000000000000009 2138.517456054688 1930.9599609375002 3.0138889551162724 133.13844299316409 83.036762237548842 204.18066406250003 10 1.0000000180025095e-35 564.35427856445324 113.50000000000001 15.500000000000002 11 12 58.500000000000007
decision_type=2 9 2 2 2 2 2 9 2 2 2 9 9 2 2 2 9 2 2 2 2 9 2 2 2 2 2 2 2 9 2 2 2 2 9 2 2 2 2 2 9 2 2 2 2 2 9 2 2 2 2 2 2 2 2 9 2 2 2 2 9 9 2
left_child=2 3 10 4 5 40 42 9 25 39 29 14 27 19 62 31 53 -9 37 20 -4 24 32 34 -6 26 -5 57 47 35 51 54 -23 -22 44 -1 -37 -15 -13 -7 41 -2 -3 -44 56 -19 -45 -16 49 50 -28 52 -26 -17 -11 -14 -24 -8 59 -59 -61 -60 -12
right_child=1 6 13 8 21 7 12 17 -10 15 11 38 55 18 28 16 -18 45 -20 -21 33 22 23 -25 30 -27 48 -29 -30 -31 -32 -33 -34 -35 -36 36 -38 -39 -40 -41 -42 -43 43 46 -46 -47 -48 -49 -50 -51 -52 -53 -54 -55 -56 -57 -58 58 61 60 -62 -63 -64
leaf_value=-1.0898313677060187 35.790297362024852 -8.1959800525518265 14.135919698272691 19.52909873393498 7.0233085433639317 -11.011627719062631 0.42743746733275789 -5.9702066817450765 11.581153258043763 3.7491052913419818 13.544539000907267 13.293261910120666 -2.5450195458992977 70.140623664552095 39.799250878216682 55.643452780810883 -2.2532685172150941 -1.7139329254027573 39.081757370751063 25.025191415379524 55.39299584273008 1.7343815532827209 7.5281931922121306 63.397845083535117 21.370946722323168 3.6103070802986146 117.99687935177722 -2.2062450083350638 13.191369793844281 6.9740299886706483 69.276949264822591 18.415418228619163 30.813350069287011 98.244308847819525 4.4074853908955225 88.593714676559671 22.547914452506458 104.56898493516184 33.411437055936915 0.097201909352608695 2.2635757507420906 88.278598784356262 -5.8684546961583841 41.069907705447946 2.8960680174580773 4.8916008626585317 1.1279252882438184 64.903507376574382 29.57788072674904 44.364343439158546 56.201651782226911 3.188306131852281 56.437997679658977 27.628696796356721 16.567987346243498 -5.3279344236757957 15.131188329587353 1.4455523529265464 6.8308389273937768 17.50754085546567 4.2317967529450629 40.963294529897354 45.574072422525859
leaf_weight=2510 3657 248693 1332 3772 21113 11566 96776 145446 12201 62094 8985 59767 252422 6221 10010 1745 2593 90118 2218 4764 5189 109272 26959 3507 12119 1560 607 147403 2361 70241 719 9687 1841 982 93325 418 9752 1446 3073 54415 669 1032 485257 694 17086 35319 15547 1998 2464 6122 2466 2878 925 4633 6386 235061 38669 58799 1691 10439 19208 1931 922
leaf_count=2510 3657 248693 1332 3772 21113 11566 96776 145446 12201 62094 8985 59767 252422 6221 10010 1745 2593 90118 2218 4764 5189 109272 26959 3507 12119 1560 607 147403 2361 70241 719 9687 1841 982 93325 418 9752 1446 3073 54415 669 1032 485257 694 17086 35319 15547 1998 2464 6122 2466 2878 925 4633 6386 235061 38669 58799 1691 10439 19208 1931 922
internal_value=-0.00720164 -1.5159 18.526 3.81078 2.93448 -0.028713 -4.17926 -0.556286 26.5593 4.01077 13.9043 18.5973 -2.11032 54.001 29.7679 8.4491 24.439 -3.13789 68.2094 42.5511 53.6786 6.80848 5.90882 8.19434 13.7296 37.3148 40.7221 0.46558 38.9185 8.97393 22.2462 6.61396 2.21621 62.2135 7.09455 20.031 25.2633 76.6351 14.2749 -1.85011 41.7197 47.2433 -6.45106 -5.58575 10.1246 0.145974 2.86093 43.9768 47.5783 52.4016 68.4113 20.122 23.8581 35.2389 4.94453 -3.887 12.008 2.55111 4.78337 3.94887 8.91369 25.1605 16.5258
internal_weight=2.55308e+06 2.36089e+06 192189 786965 757773 429360 1.57392e+06 424002 29192 153119 170037 87116 823730 22152 24276 87138 8971 270883 9885 12267 7503 328413 290659 179546 37754 16991 15431 336247 14369 82921 16641 78167 111113 6171 176039 12680 10170 7667 62840 65981 5358 4689 750191 501498 82714 125437 16241 12008 11659 9195 3073 15922 13044 6378 68480 487483 65628 188844 92068 88446 29647 3622 9907
internal_count=2553075 2360886 192189 786965 757773 429360 1573921 424002 29192 153119 170037 87116 823730 22152 24276 87138 8971 270883 9885 12267 7503 328413 290659 179546 37754 16991 15431 336247 14369 82921 16641 78167 111113 6171 176039 12680 10170 7667 62840 65981 5358 4689 750191 501498 82714 125437 16241 12008 11659 9195 3073 15922 13044 6378 68480 487483 65628 188844 92068 88446 29647 3622 9907
cat_boundaries=0 4 8 10 14 17 20 23 26 30 34 38 41 45
cat_threshold=17476 1182850 2685141030 260 1088 1049600 537133058 4 1048576 2048 420487344 2491433305 106054104 145 0 1048576 2 0 1179778 524288 524288 65536 34078720 16448 0 6 0 0 2 4 0 2214592512 33554432 33 537264385 1778422272 1367445505 66 17825792 2147483648 16 16 8388608 67108864 144
is_linear=0
shrinkage=0.05


Tree=13
num_leaves=64
num_cat=2
split_feature=8 3 3 5 3 4 8 1 10 7 3 11 10 3 11 7 11 11 4 11 11 3 5 8 8 7 8 11 7 3 8 11 11 11 6 7 3 7 12 3 14 4 7 3 8 5 8 6 11 7 7 4 11 11 9 12 12 6 7 1 6 11 4
split_gain=3.05097e+10 1.31491e+10 7.36991e+09 5.44838e+09 4.5181e+09 4.04023e+09 3.50888e+09 1.99386e+09 1.68558e+09 1.58273e+09 1.42304e+09 1.33456e+09 1.26487e+09 1.12739e+09 1.12387e+09 1.02814e+09 9.71673e+08 8.9405e+08 8.63803e+08 8.44618e+08 7.77753e+08 7.5229e+08 7.03855e+08 6.98522e+08 6.94734e+08 6.9198e+08 1.39357e+09 6.77831e+08 6.17887e+08 5.87055e+08 5.61619e+08 5.42303e+08 7.41177e+08 5.29206e+08 6.87134e+08 5.10373e+08 4.84576e+08 4.6849e+08 4.4956e+08 4.45399e+08 4.39348e+08 4.04681e+08 3.9807e+08 4.62725e+08 3.97722e+08 3.96077e+08 3.94104e+08 7.56017e+08 8.697e+08 5.76056e+08 1.18551e+09 3.81695e+08 3.72162e+08 5.66464e+08 3.54532e+08 3.52257e+08 5.31848e+08 3.45496e+08 3.43384e+08 5.0739e+08 3.38951e+08 3.28614e+08 3.90186e+08
threshold=241.47621154785159 457.29470825195318 858.16043090820324 4.4305555820465097 1495.845886230469 354.80218505859381 3338.586303710938 0 57.500000000000007 9949.8496093750018 313.61990356445318 13.500000000000002 58.500000000000007 59.363071441650398 12.500000000000002 5713.6811523437509 5.5000000000000009 18.500000000000004 35.525606155395515 10.500000000000002 4.5000000000000009 1030.5405883789065 2.2083333730697636 23.338887214660648 164.53254699707034 34.105047225952156 1188.421569824219 7.5000000000000009 6292.7395019531259 50.360469818115241 334.08279418945318 18.500000000000004 16.500000000000004 8.5000000000000018 1456.5000000000002 175.99497985839847 2250.8679199218755 1800.781677246094 4.5000000000000009 965.18878173828136 1.0000000180025095e-35 427.29031372070318 230.14119720458987 901.03646850585949 263.12913513183599 9.3194441795349139 32.290582656860359 1466.5000000000002 8.5000000000000018 199.55206298828128 144.87094879150393 427.29031372070318 14.500000000000002 19.500000000000004 37.500000000000007 3.5000000000000004 2.5000000000000004 1414.5000000000002 4758.6291503906259 1 1436.5000000000002 9.5000000000000018 212.14192199707034
decision_type=2 2 2 2 2 2 2 1 2 2 2 2 2 2 2 2 2 2 2 2 2 2 2 2 2 2 2 2 2 2 2 2 2 2 2 2 2 2 2 2 2 2 2 2 2 2 2 2 2 2 2 2 2 2 2 2 2 2 2 1 2 2 2
left_child=1 8 6 4 12 9 10 24 13 11 15 -4 39 -1 19 -2 -17 35 -14 20 -7 -5 -15 -10 46 26 31 36 33 -18 -22 32 -13 -8 55 41 -9 40 52 58 -12 57 43 -20 -34 -23 47 -6 49 50 -49 -32 -31 -54 -43 56 -35 -16 -3 -60 -53 -48 -63
right_child=2 3 5 21 7 14 28 27 23 -11 37 25 18 22 17 16 29 -19 42 -21 30 45 -24 -25 -26 -27 -28 -29 -30 38 51 -33 44 34 -36 -37 -38 -39 -40 -41 -42 54 -44 -45 -46 -47 61 48 -50 -51 -52 60 53 -55 -56 -57 -58 -59 59 -61 -62 62 -64
leaf_value=-7.9621512402957393 -3.6915176209134808 0.22618850951292382 15.304535813865087 -3.9047889409808207 1.5404285102222124 13.2542007563826 31.314558715876672 28.058603569963118 -0.020776567341886827 58.748514001811309 25.95593444329705 26.247681750186317 5.4046879635592937 -2.4949304028505748 47.050161163576725 6.8176964023610811 -3.6385697966714816 14.213138709312165 58.643398231248995 24.095221032380785 23.951369192355767 3.9764493616047036 -5.3971419860369974 12.631684067934801 7.419534670662447 2.3988765010551334 95.146936659161938 16.590397369284499 111.16754439393901 21.638728255981459 57.790698035546818 11.682108190438388 19.572309208778911 70.850524949521684 33.41726924084309 17.584472691080943 50.355691069350435 -4.4962944298070875 11.046710103797714 4.5010702422830526 2.7704164032706271 108.70977046763478 12.711831480859155 21.448703593644943 51.717153735875058 -1.8602529348599632 11.882196132102905 21.312861839450587 8.5215603214878435 21.317862543052009 109.14310027619193 103.69876085754419 42.730761765915624 9.115405134213022 62.211895557266658 34.7768180385821 155.01768847023627 72.969810632839668 5.1785152934817971 -5.8267874255698038 32.569203919007407 31.120528065030953 10.008681606709731
leaf_weight=293116 7135 242896 26484 243677 12150 1133 6366 5611 82574 3304 2617 10568 55757 317359 1798 14054 1808 827 972 4646 998 56660 611369 12569 66721 1866 897 6127 303 7488 4076 2962 1135 443 1122 463 4308 21526 3979 149277 9318 1173 19469 5983 6329 59682 6481 1091 17887 14208 593 918 7165 1519 631 220 326 4519 82403 11998 205 8857 2907
leaf_count=293116 7135 242896 26484 243677 12150 1133 6366 5611 82574 3304 2617 10568 55757 317359 1798 14054 1808 827 972 4646 998 56660 611369 12569 66721 1866 897 6127 303 7488 4076 2962 1135 443 1122 463 4308 21526 3979 149277 9318 1173 19469 5983 6329 59682 6481 1091 17887 14208 593 918 7165 1519 631 220 326 4519 82403 11998 205 8857 2907
internal_value=0.00524712 -1.40961 21.1212 2.69164 5.21543 32.5651 11.0788 13.0313 -4.75951 25.2274 7.64741 23.0228 3.19617 -5.25867 50.9357 13.6484 17.0839 63.8658 8.93362 40.7745 51.3459 -2.3255 -4.40542 1.65071 10.992 31.6269 34.1183 29.6663 41.0182 23.6543 58.3099 31.5103 34.7673 38.5095 60.2042 68.6492 37.743 -0.0909528 26.1031 2.22713 7.8545 71.5603 16.3799 26.6476 46.8294 0.982295 14.7062 12.2366 16.0839 24.5955 52.2459 64.9048 29.8075 36.851 92.4502 90.5869 106.547 65.5932 1.22075 3.77978 90.7184 20.9231 25.9037
internal_weight=2.55302e+06 2.3927e+06 160321 1.07572e+06 715696 74932 85389 146941 1.31699e+06 53545 76609 50241 568755 1.22184e+06 21387 43148 36013 9411 82181 11976 7330 360019 928728 95143 130895 23757 21891 16046 8780 21959 6197 20994 18032 8477 2111 8584 9919 33461 20151 486574 11935 8121 26424 6955 7464 116342 64174 45929 33779 15892 1684 5199 16172 8684 1804 989 769 6317 337297 94401 1123 18245 11764
internal_count=2553023 2392702 160321 1075715 715696 74932 85389 146941 1316987 53545 76609 50241 568755 1221844 21387 43148 36013 9411 82181 11976 7330 360019 928728 95143 130895 23757 21891 16046 8780 21959 6197 20994 18032 8477 2111 8584 9919 33461 20151 486574 11935 8121 26424 6955 7464 116342 64174 45929 33779 15892 1684 5199 16172 8684 1804 989 769 6317 337297 94401 1123 18245 11764
cat_boundaries=0 1 2
cat_threshold=2 2
is_linear=0
shrinkage=0.05


Tree=14
num_leaves=64
num_cat=0
split_feature=8 3 3 5 3 4 8 4 10 7 3 11 10 3 11 7 11 11 4 11 11 3 4 11 7 8 5 7 8 3 4 4 3 8 8 6 11 6 12 11 7 7 7 12 11 11 3 10 14 9 5 16 12 16 5 7 7 11 11 8 4 7 3
split_gain=2.74615e+10 1.18522e+10 6.58364e+09 4.91188e+09 4.11814e+09 3.53777e+09 3.16058e+09 1.63209e+09 1.43989e+09 1.4315e+09 1.30913e+09 1.1476e+09 1.1333e+09 1.00264e+09 9.65999e+08 9.39986e+08 9.20372e+08 8.37114e+08 7.89491e+08 7.85004e+08 6.76101e+08 6.74363e+08 6.69596e+08 6.57676e+08 6.19511e+08 1.27241e+09 6.14642e+08 5.6825e+08 5.67952e+08 5.467e+08 5.04961e+08 5.94638e+08 4.6763e+08 4.56062e+08 4.55963e+08 7.02859e+08 4.51645e+08 6.74015e+08 4.42326e+08 4.38126e+08 5.59686e+08 1.0516e+09 4.37043e+08 4.29233e+08 4.17661e+08 4.15826e+08 3.99309e+08 3.81106e+08 3.7238e+08 3.71902e+08 6.74482e+08 3.70543e+08 3.71538e+08 3.64171e+08 3.63837e+08 3.4346e+08 3.29856e+08 3.22753e+08 3.13961e+08 2.97129e+08 3.32454e+08 2.93267e+08 2.81638e+08
threshold=241.47621154785159 452.83758544921881 858.16043090820324 4.4305555820465097 1444.6098632812502 354.80218505859381 3338.586303710938 750.76654052734386 57.500000000000007 9949.8496093750018 313.61990356445318 13.500000000000002 58.500000000000007 72.461162567138686 12.500000000000002 5713.6811523437509 5.5000000000000009 17.500000000000004 33.329809188842781 10.500000000000002 5.5000000000000009 1016.344207763672 222.24517822265628 7.5000000000000009 34.105047225952156 1188.421569824219 2.4583333730697636 6292.7395019531259 21.786786079406742 50.360469818115241 165.66604614257815 37.056526184082038 2402.801147460938 334.08279418945318 32.290582656860359 1466.5000000000002 8.5000000000000018 1457.5000000000002 5.5000000000000009 7.5000000000000009 230.14119720458987 121.33518981933595 1800.781677246094 4.5000000000000009 9.5000000000000018 16.500000000000004 2507.7624511718755 46.500000000000007 1.0000000180025095e-35 52.500000000000007 0.56944444775581371 1.0000000180025095e-35 4.5000000000000009 1.0000000180025095e-35 8.9027776718139666 230.14119720458987 447.14030456542974 10.500000000000002 17.500000000000004 334.08279418945318 89.112049102783217 175.99497985839847 965.18878173828136
decision_type=2 2 2 2 2 2 2 2 2 2 2 2 2 2 2 2 2 2 2 2 2 2 2 2 2 2 2 2 2 2 2 2 2 2 2 2 2 2 2 2 2 2 2 2 2 2 2 2 2 2 2 2 2 2 2 2 2 2 2 2 2 2 2
left_child=1 8 6 4 12 9 10 22 13 11 15 -4 51 -1 19 -2 -17 45 -14 20 -7 -5 34 32 25 30 -15 36 -10 -18 31 -13 -9 -22 35 -6 -8 57 49 40 41 -37 48 53 -36 -16 -24 -33 61 50 -35 -3 62 -31 -23 -20 -30 -38 -27 60 -55 -12 -53
right_child=2 3 5 21 7 14 27 23 28 -11 42 24 18 26 17 16 29 -19 55 -21 33 54 46 -25 -26 58 -28 -29 56 43 -32 47 -34 38 44 39 37 -39 -40 -41 -42 -43 -44 -45 -46 -47 -48 -49 -50 -51 -52 52 -54 59 -56 -57 -58 -59 -60 -61 -62 -63 -64
leaf_value=-7.3865916952526751 -3.516449095065969 0.53562711857234813 14.730813251215714 -3.7397404612948435 1.135531791084565 19.177081752366558 29.959340288637762 27.594373841801197 -0.11887038230007932 55.616977781454409 11.763765810957427 20.66630933549315 4.7752774069572945 -2.4743612988667762 62.611297266244847 6.3694369788963563 -3.9205119679948726 33.410153051413921 24.528780027897493 22.702652368976146 24.312459266116697 3.7836055361037313 7.5097543050450817 13.849300728050947 2.1752351174139135 133.05602580400043 -5.1761185137006738 106.98187301121992 38.508016742684703 19.759812810077978 23.86539854315108 43.704127885123434 50.553090115288626 147.83388007867413 11.095190444366601 16.497339138398797 123.97072769573943 30.153919667734336 30.752414423851782 10.814630795907782 20.144637292818203 106.16043659258801 -4.3375926239302904 10.329914548180229 27.617077679142682 92.985410225998237 40.477056583183213 79.953143681286278 2.8781488003116182 54.624278405777176 71.604666109629008 3.0400876669816603 -0.62398001978254625 76.237524334746681 -1.7454585403584368 11.883886411947536 8.8784341274797782 64.788965529906065 70.010603765137589 30.675558608223806 33.525285692534986 46.571107584310411 7.0646371450175272
leaf_weight=324625 7129 226114 26458 242949 10601 1516 6344 7085 81635 3358 1702 2617 54454 341321 5621 14045 1764 2208 7120 4658 919 56047 88922 5898 1863 289 549269 297 1022 6669 13432 4123 3229 352 5897 753 367 1122 889 11935 7194 578 21647 3949 10888 1410 928 880 9346 2030 1654 148012 48753 840 63424 21852 11600 620 625 7669 996 939 61547
leaf_count=324625 7129 226114 26458 242949 10601 1516 6344 7085 81635 3358 1702 2617 54454 341321 5621 14045 1764 2208 7120 4658 919 56047 88922 5898 1863 289 549269 297 1022 6669 13432 4123 3229 352 5897 753 367 1122 889 11935 7194 578 21647 3949 10888 1410 928 880 9346 2030 1654 148012 48753 840 63424 21852 11600 620 625 7669 996 939 61547
internal_value=-0.00269006 -1.34459 20.0292 2.52206 4.90686 30.8502 10.5433 12.1614 -4.546 24.0099 7.29519 21.8991 2.94062 -5.00776 48.1127 13.0685 16.359 60.2695 8.32316 38.7665 48.9325 -2.22728 10.3947 27.167 29.8582 32.2061 -4.14066 39.0133 1.40728 22.7693 29.6983 39.9797 34.7825 56.651 15.1727 11.5846 36.624 56.6692 62.6847 16.9985 25.6558 55.4395 -0.0962947 25.1089 21.8126 68.7038 7.8503 50.0816 7.56292 69.7174 84.9876 2.01366 3.30746 28.7173 0.848372 14.9915 11.2778 86.8051 89.9575 35.0018 53.0699 24.1407 4.22209
internal_weight=2.554e+06 2.39365e+06 160347 1.08418e+06 721760 74902 85445 153908 1.30947e+06 53645 76695 50287 567852 1.21522e+06 21257 43061 35932 9239 83426 12018 7360 362420 137696 16212 23829 21966 890590 8750 94257 21887 21052 7620 10314 5844 47846 31061 8453 2109 4925 20460 8525 1331 33634 20123 16785 7031 89850 5003 11987 4036 2006 484426 258312 16174 119471 28972 12622 987 914 9505 1836 2641 209559
internal_count=2553999 2393652 160347 1084180 721760 74902 85445 153908 1309472 53645 76695 50287 567852 1215215 21257 43061 35932 9239 83426 12018 7360 362420 137696 16212 23829 21966 890590 8750 94257 21887 21052 7620 10314 5844 47846 31061 8453 2109 4925 20460 8525 1331 33634 20123 16785 7031 89850 5003 11987 4036 2006 484426 258312 16174 119471 28972 12622 987 914 9505 1836 2641 209559
is_linear=0
shrinkage=0.05


Tree=15
num_leaves=64
num_cat=7
split_feature=8 3 6 10 3 3 0 3 0 11 7 10 5 11 3 5 11 8 3 16 4 11 8 3 11 0 5 7 11 0 4 11 0 8 8 7 11 4 15 16 15 8 9 7 3 15 11 0 11 8 8 7 8 7 4 3 5 7 3 3 14 0 4
split_gain=2.5203e+10 1.18701e+10 7.96742e+09 3.23082e+09 2.7938e+09 2.62175e+09 2.30438e+09 1.98863e+09 1.78464e+09 1.63441e+09 1.3601e+09 1.10302e+09 1.07444e+09 1.05836e+09 9.63607e+08 9.62517e+08 8.81398e+08 7.52822e+08 7.34579e+08 7.30817e+08 7.21474e+08 6.87342e+08 6.61348e+08 6.76086e+08 6.58599e+08 6.4369e+08 6.41067e+08 6.31646e+08 6.07666e+08 5.54148e+08 5.46047e+08 5.12776e+08 5.1056e+08 4.80848e+08 4.74598e+08 8.71423e+08 5.79338e+08 4.65332e+08 4.63504e+08 4.26464e+08 4.19209e+08 4.44366e+08 4.13784e+08 4.06476e+08 3.92274e+08 3.91387e+08 3.93467e+08 3.87052e+08 3.79899e+08 3.63902e+08 3.60192e+08 3.50494e+08 3.43872e+08 3.98104e+08 3.32037e+08 6.36866e+08 3.18751e+08 2.968e+08 4.33043e+08 2.92529e+08 2.828e+08 3.67083e+08 4.01016e+08
threshold=275.59919738769537 787.62802124023449 1477.5000000000002 57.500000000000007 1818.196960449219 858.16043090820324 0 364.86228942871099 1 7.5000000000000009 9949.8496093750018 58.500000000000007 5.847222328186036 12.500000000000002 313.61990356445318 4.9861111640930185 17.500000000000004 32.290582656860359 20.762838363647464 1.0000000180025095e-35 218.00901794433597 15.500000000000002 19.631528854370121 485.19685363769537 18.500000000000004 2 2.0972223281860356 10511.834960937502 16.500000000000004 3 55.101787567138679 15.500000000000002 4 249.56349945068362 1460.3316040039065 6292.7395019531259 14.500000000000002 47.940219879150398 1.0000000180025095e-35 1.0000000180025095e-35 1.0000000180025095e-35 352.87358093261724 298.50000000000006 2483.7749023437505 1070.673522949219 1.0000000180025095e-35 5.5000000000000009 5 9.5000000000000018 352.87358093261724 21.786786079406742 5713.6811523437509 990.18386840820324 1702.4719848632815 46.381137847900398 1930.9599609375002 5.8194446563720712 5713.6811523437509 485.19685363769537 47.751071929931648 1.0000000180025095e-35 6 69.910758972167983
decision_type=2 2 2 2 2 2 9 2 9 2 2 2 2 2 2 2 2 2 2 2 2 2 2 2 2 9 2 2 2 9 2 2 9 2 2 2 2 2 2 2 2 2 2 2 2 2 2 9 2 2 2 2 2 2 2 2 2 2 2 2 2 9 2
left_child=1 3 13 7 6 14 44 18 9 12 11 21 45 19 27 47 28 -10 -1 49 48 -7 23 59 38 -24 30 32 31 -25 -8 -15 34 -22 36 -36 -4 -13 52 -32 41 -21 50 60 -3 46 -6 57 -19 -2 -20 -38 -23 -54 55 -48 -50 -9 -59 -5 61 62 -16
right_child=2 4 5 22 8 10 26 15 17 -11 -12 37 -14 16 43 -17 -18 20 42 40 33 24 25 29 -26 -27 -28 -29 -30 -31 39 -33 -34 -35 35 -37 51 -39 -40 -41 -42 -43 -44 -45 -46 -47 54 -49 56 -51 -52 -53 53 -55 -56 -57 -58 58 -60 -61 -62 -63 -64
leaf_value=-8.4004639181763547 18.976210090163711 -4.1450010479678019 3.5679414830193963 -4.3630125299051148 24.442448178649009 12.607153501806021 4.6978248554547299 1.1377689633387715 1.5722136003906817 10.78823074886672 55.856306652473748 31.553020335342694 6.895870264240493 69.214281395164434 11.509405961868099 -4.2752110271252048 30.159576669370352 9.5854250440814717 -5.0003545392461346 41.88663494053705 7.0813992689350371 35.893909045827158 3.9189937585701444 0.79284433244868024 8.5174268094606784 22.477323120168897 3.6544935230946138 24.082484753419859 92.877004503616831 13.284972003916151 6.0926808559315866 42.667256156820855 -8.9049899686046512 21.223418779710219 19.880013457187644 99.648623671032837 -4.3620053404953856 67.375610773729363 10.762466649645347 14.61525846874977 33.183086443765212 81.101273842683383 15.48559939094725 -4.3182270088515535 0.55820123187206605 -0.92458190333632118 114.37890452306156 -1.0459167209681643 27.377385851036266 36.219930019545636 -1.6095737182497165 25.842190869352915 76.319732388029777 12.944591382003601 44.02062594270879 33.909372095675778 1.5212365066177673 1.6728455178382089 16.789265912497616 1.934642256441141 3.9578359529969962 12.271596538759475 93.926211400470663
leaf_weight=148887 4380 69194 15819 24250 2344 16242 44023 74007 33869 17164 3413 1930 2989 4111 262 228645 2600 6731 774631 1227 76800 4683 10089 14750 2843 8717 111068 10513 1450 22321 21679 3264 3225 6521 5286 366 1150 1710 1402 45457 1588 1758 2557 14572 123401 542 501 346608 10538 10152 87130 5827 1205 312 7615 483 1344 11167 8229 76957 7940 1930 338
leaf_count=148887 4380 69194 15819 24250 2344 16242 44023 74007 33869 17164 3413 1930 2989 4111 262 228645 2600 6731 774631 1227 76800 4683 10089 14750 2843 8717 111068 10513 1450 22321 21679 3264 3225 6521 5286 366 1150 1710 1402 45457 1588 1758 2557 14572 123401 542 501 346608 10538 10152 87130 5827 1205 312 7615 483 1344 11167 8229 76957 7940 1930 338
internal_value=0.00826706 -1.14955 21.3265 -3.11951 5.07211 14.5588 2.87168 -3.76 10.5235 21.2176 25.9318 22.564 33.5997 43.7084 8.85096 -1.64359 55.7471 8.02995 -5.1567 36.509 10.1764 19.0422 3.73807 2.54163 29.0484 12.5353 6.3408 13.463 63.2852 8.31835 9.02548 57.4659 9.9381 8.18823 12.0732 25.0472 8.8616 48.3832 36.7264 11.8632 53.9418 64.9838 -4.59793 1.08143 -1.13147 40.5493 42.6035 -0.276105 19.0764 31.0228 -4.65752 20.8637 42.5973 63.2871 47.5536 74.8876 24.4528 2.58041 8.08623 0.425671 8.59656 23.1537 56.9957
