tree
version=v4
num_class=1
num_tree_per_iteration=1
label_index=0
max_feature_idx=16
objective=regression
feature_names=LINEA DIR proxima_est_teorica dist_a_prox_m dist_estacion_m vel_mps Altitud s_m dist_m time_diff dwell_same_xy_s hour dow is_no_progress progress_event is_weekend is_peak
feature_infos=-1:1:7:4:0:2:6:5:8 -1:1:2:0 -1:56:65:69:20:28:33:14:6:17:104:64:90:55:95:91:29:102:60:18:31:47:89:92:8:45:24:96:62:71:53:98:70:39:32:12:80:50:40:59:87:21:4:37:2:11:46:74:26:3:75:7:97:73:51:19:30:57:88:63:83:25:72:44:34:54:101:58:99:100:67:66:13:94:41:43:38:42:84:68:48:10:93:82:49:61:52:86:5:0:78:79:103:16:1:36:105:27:81:85:23:76:9:106:22:35:77 [0:2999.033203125] [0.13056746125221252:6182.35791015625] [0:23.888889312744141] [-62:7036] [0:13700.7861328125] [4.1484854591544718e-05:10484.603515625] [0:22844] [0:25807] [0:22] [0:6] [0:1] [0:1] [0:1] [0:1]
tree_sizes=6172 6291 6167 6293 6274 6199 6169 6209 6336 6109 5997 6337 6229 6077 6082 6046 6118 6171 6235 6036 6254 6181 6033 6231 6205 6241 6217 6073 6227 6210 6221 6183 6287 6187 6260 6289 6174 6267 6159 6212 6267 5986 6206 6037 6268 6271 6227 6313 6113 6239 6274 6159 6213 6165 6263 6203 6224 5945 6247 6156 5995 6035 6227 6082 6199 6219 6149 6033 6039 6255 6276 6276 6042 6286 5970 6222 6197 6221 6203 6250 6273 6254 6148 6392 6299 6145 6282 6337 5909 6172 5991 6216 6166 6286 6160 6260 6188 6273 5958 6089 6154 6053 6200 6235 6254 6063 5946 5963

Tree=0
num_leaves=64
num_cat=16
split_feature=8 2 2 4 7 11 4 6 8 2 2 5 11 4 16 7 8 7 2 7 7 8 7 0 2 11 11 2 7 7 11 2 8 11 11 7 11 8 4 11 2 2 10 4 4 4 0 8 16 11 8 2 11 11 11 11 5 8 0 2 2 11 6
split_gain=1.25297e+11 4.29111e+10 3.77187e+10 1.89912e+10 1.47087e+10 8.44029e+09 8.38939e+09 7.9123e+09 7.38036e+09 6.50749e+09 6.37406e+09 4.41863e+09 3.94724e+09 3.59873e+09 3.40666e+09 3.10561e+09 3.09442e+09 3.08919e+09 3.99076e+09 2.29888e+09 2.27936e+09 2.24567e+09 3.75795e+09 3.83531e+09 2.09821e+09 2.08019e+09 2.03149e+09 2.01544e+09 3.04404e+09 2.54222e+09 1.85019e+09 1.80896e+09 1.76826e+09 1.68364e+09 1.66645e+09 1.54855e+09 1.5295e+09 1.4814e+09 1.47232e+09 1.38033e+09 1.82783e+09 1.27512e+09 1.25078e+09 1.1803e+09 1.15998e+09 2.09803e+09 1.67692e+09 1.11325e+09 1.47237e+09 1.05056e+09 1.01762e+09 9.7546e+08 9.50641e+08 9.17772e+08 2.17282e+09 8.90018e+08 8.36025e+08 9.22569e+08 8.22544e+08 7.9879e+08 7.91499e+08 7.87602e+08 7.78042e+08
threshold=240.48252105712893 0 1 367.68180847167974 258.75454711914068 13.500000000000002 895.93588256835949 1476.5000000000002 2402.5507812500005 2 3 3.9027780294418339 12.500000000000002 689.88583374023449 1.0000000180025095e-35 6264.8330078125009 557.75527954101574 5937.7563476562509 4 4497.6098632812509 485.33111572265631 8.7428808212280291 144.81372070312503 5 6 16.500000000000004 17.500000000000004 7 761.58056640625011 3776.648315429688 5.5000000000000009 8 988.75662231445324 4.5000000000000009 7.5000000000000009 3232.671752929688 7.5000000000000009 29.116169929504398 330.00148010253912 15.500000000000002 9 10 58.500000000000007 28.038772583007816 225.31766510009768 96.16003799438478 11 2402.5507812500005 1.0000000180025095e-35 16.500000000000004 1215.562927246094 12 8.5000000000000018 10.500000000000002 9.5000000000000018 17.500000000000004 3.1805555820465092 248.15621185302737 13 14 15 16.500000000000004 1486.5000000000002
decision_type=2 9 9 2 2 2 2 2 2 9 9 2 2 2 2 2 2 2 9 2 2 2 2 9 9 2 2 9 2 2 2 9 2 2 2 2 2 2 2 2 9 9 2 2 2 2 9 2 2 2 2 9 2 2 2 2 2 2 9 9 9 2 2
left_child=1 4 3 5 21 8 10 12 30 20 -6 34 14 17 53 62 24 18 39 27 25 60 44 36 38 -3 61 29 -29 52 -2 -4 -32 -31 -8 -15 -24 -19 49 40 43 55 -22 -12 45 -23 -47 48 -18 -7 51 -9 -20 54 -5 -39 57 -51 -42 -11 -1 -14 -10
right_child=2 9 31 7 6 16 11 50 15 59 13 -13 26 35 -16 -17 47 37 19 -21 42 22 23 -25 -26 -27 -28 28 -30 33 32 -33 -34 -35 -36 -37 -38 41 -40 -41 58 -43 -44 -45 -46 46 -48 -49 -50 56 -52 -53 -54 -55 -56 -57 -58 -59 -60 -61 -62 -63 -64
leaf_value=333.5438865309128 321.23906793955246 308.99565645880477 323.85516943744022 367.93827212710903 299.84214614908518 343.33009517131649 370.74775710880687 411.39958445353966 380.62398833977483 300.37113339421074 321.38767784297164 312.89691122413529 436.07991470943449 376.01018317310644 429.5637821882508 423.30019348911162 358.24597760668502 305.02431522207849 334.06105658246287 302.85864733380555 303.72465479266617 321.12516534439521 503.44741884287095 334.17862007862885 307.20332495177928 330.37380834150031 389.47206625079343 319.72468261248707 304.34569894543557 372.32515193398234 333.09290626833939 303.18494384055373 358.4373030585038 311.10652107748649 336.48432701704189 330.86331001265336 402.79837024897097 331.24519599941067 393.83487204831351 330.74022704473322 320.44740370893879 301.72840503739684 312.40160374462977 341.00034291300818 325.71327541251276 433.18811070494058 341.52771070948586 419.64300642925565 390.003023562436 336.61172619442107 364.62696417242154 309.57626211092941 320.74616987464293 362.23116103425684 428.68918800698884 381.67213377952771 340.34451384467678 378.23865365658122 310.15606490712378 297.71223568135781 310.26056654934388 477.13764144683546 347.94168432300796
leaf_weight=4426 21603 44141 15466 4003 114030 9033 9161 248 3167 581967 21101 8848 6104 2561 4258 2837 5485 152090 20526 65864 630691 16742 544 2227 1973 15331 2214 46682 103548 1138 25944 33480 9367 85271 5793 7352 1234 3786 2987 29882 33786 3056 44460 12053 84977 500 30952 1918 10913 1569 2042 2667 38644 5410 2328 1138 2627 8783 45658 549815 20630 1446 4286
leaf_count=4426 21603 44141 15466 4003 114030 9033 9161 248 3167 581967 21101 8848 6104 2561 4258 2837 5485 152090 20526 65864 630691 16742 544 2227 1973 15331 2214 46682 103548 1138 25944 33480 9367 85271 5793 7352 1234 3786 2987 29882 33786 3056 44460 12053 84977 500 30952 1918 10913 1569 2042 2667 38644 5410 2328 1138 2627 8783 45658 549815 20630 1446 4286
internal_value=308.541 305.898 347.616 360.565 314.404 351.053 311.658 395.411 339.81 301.458 310.775 340.904 406.541 312.624 391.251 378.779 367.737 312.178 314.099 311.307 305.123 328.149 330.663 378.383 356.967 314.507 431.595 313.188 309.124 317.38 332.765 309.718 339.816 311.913 357.475 342.527 432.903 306.126 360.874 321.186 318.652 327.125 304.296 328.512 329.228 335.424 343.035 383.598 379.381 356.424 337.561 318.599 325.365 377.356 390.279 342.831 365.537 371.93 314.534 299.079 314.384 443.946 361.83
internal_weight=3.03276e+06 2.8406e+06 192158 143212 974200 112492 811968 30720 67204 1.8664e+06 788166 23802 25763 674136 15999 10290 45288 664223 504153 361673 734623 162232 137176 4005 26972 59472 9764 295809 150230 145579 56914 48946 35311 86409 14954 9913 1778 160070 24999 142480 112598 7980 675151 33154 133171 48194 31452 18316 16398 22012 4957 2915 59170 11741 6331 4924 12979 10352 79444 1.13178e+06 25056 7550 7453
internal_count=3032763 2840605 192158 143212 974200 112492 811968 30720 67204 1866405 788166 23802 25763 674136 15999 10290 45288 664223 504153 361673 734623 162232 137176 4005 26972 59472 9764 295809 150230 145579 56914 48946 35311 86409 14954 9913 1778 160070 24999 142480 112598 7980 675151 33154 133171 48194 31452 18316 16398 22012 4957 2915 59170 11741 6331 4924 12979 10352 79444 1131782 25056 7550 7453
cat_boundaries=0 4 8 12 15 18 19 22 26 30 32 35 36 39 40 44 48
cat_threshold=17476 18025602 2718695430 260 537919488 25167872 33816610 4 1360003504 343933017 13762680 146 4 16844800 34078720 0 1048578 2 80 537919488 16779264 2 16448 0 4 4 268451920 64 2214592772 17 0 1048578 0 1024 262146 64 0 16777216 262144 128 671293449 3925905920 1428246657 1 0 0 524292 256
is_linear=0
shrinkage=1


Tree=1
num_leaves=64
num_cat=15
split_feature=8 3 2 2 2 6 8 11 5 3 3 2 7 8 11 8 16 2 2 3 2 2 11 0 8 2 3 8 3 16 11 2 8 3 8 7 3 11 0 8 11 3 16 12 12 8 8 2 3 7 11 2 7 5 10 11 3 11 11 5 2 7 6
split_gain=1.12854e+11 4.54527e+10 3.39207e+10 1.46324e+10 1.39787e+10 1.06742e+10 1.66401e+10 7.26771e+09 6.88942e+09 6.25721e+09 5.0744e+09 4.85552e+09 4.9948e+09 4.36919e+09 4.29427e+09 3.55466e+09 3.04727e+09 2.76316e+09 2.11111e+09 2.05373e+09 2.05091e+09 2.04104e+09 2.03597e+09 2.0036e+09 2.27076e+09 1.88467e+09 1.83182e+09 1.79732e+09 1.75478e+09 1.70863e+09 1.66877e+09 1.61394e+09 1.54038e+09 1.45304e+09 2.04559e+09 1.43788e+09 1.36409e+09 2.00911e+09 1.59701e+09 1.23629e+09 1.47295e+09 1.09191e+09 9.9299e+08 1.17095e+09 9.70153e+08 9.18614e+08 1.14351e+09 1.32799e+09 1.10627e+09 2.05154e+09 1.08333e+09 9.13982e+08 8.95953e+08 8.74614e+08 8.02173e+08 7.64147e+08 8.39037e+08 7.56081e+08 2.31648e+09 7.37288e+08 7.32691e+08 1.00466e+09 1.06753e+09
threshold=240.48252105712893 803.56478881835949 0 1 2 1481.5000000000002 302.43742370605474 11.500000000000002 5.5694446563720712 434.10281372070318 241.07399749755862 3 2904.2297363281255 1215.562927246094 12.500000000000002 557.75527954101574 1.0000000180025095e-35 4 5 1658.5501708984377 6 7 18.500000000000004 8 23.896688461303714 9 21.217695236206058 118.67041397094728 540.21200561523449 1.0000000180025095e-35 7.5000000000000009 10 262.59442138671881 394.22056579589849 1215.562927246094 1676.198669433594 355.52334594726568 5.5000000000000009 11 19.898343086242679 17.500000000000004 21.217695236206058 1.0000000180025095e-35 4.5000000000000009 5.5000000000000009 165.35868835449222 15.16599225997925 12 1928.8721313476565 228.81329345703128 8.5000000000000018 13 34.596418380737312 2.9305557012557988 87.500000000000014 9.5000000000000018 2507.461303710938 10.500000000000002 9.5000000000000018 2.2083333730697636 14 4447.3005371093759 1542.5000000000002
decision_type=2 2 9 9 9 2 2 2 2 2 2 9 2 2 2 2 2 9 9 2 9 9 2 9 2 9 2 2 2 2 2 9 2 2 2 2 2 2 9 2 2 2 2 2 2 2 2 9 2 2 2 9 2 2 2 2 2 2 2 2 9 2 2
left_child=1 3 5 9 8 6 32 13 11 20 41 12 30 52 16 18 57 28 -9 27 -1 -10 -16 24 -11 -6 -22 51 59 -20 -3 -4 -2 -17 42 -26 38 -38 -15 60 -41 -5 -35 -44 -18 46 47 -21 49 -48 -49 -13 -7 -31 -43 -50 -57 58 -8 -12 61 62 -28
right_child=2 4 31 10 25 7 14 15 21 23 17 19 -14 36 22 33 44 -19 29 45 26 -23 -24 -25 35 -27 39 -29 -30 53 -32 -33 -34 34 -36 -37 37 -39 -40 40 -42 54 43 -45 -46 -47 48 50 55 -51 -52 -53 -54 -55 -56 56 -58 -59 -60 -61 -62 -63 -64
leaf_value=-9.0036141799773635 24.700686542397968 73.150011742788138 14.462150388574655 -14.90424168870855 -5.9378297818357915 25.330088202804433 58.919546837408625 -8.9412276679425968 -4.2235057534161973 14.670031153772223 -2.3012490692282697 -0.10386866096376089 20.658758239219178 143.62911881783924 120.39816793057126 50.980878711361783 122.49741677625535 -8.2822079295000872 22.52219076259707 4.2928319609239614 -14.630110448841808 14.164199153464077 40.880622365783708 4.8752861831629168 107.8203887494065 3.1117546687372828 15.365677078156786 29.617704933792112 1.3217149510153583 63.738711848670953 35.682749984874633 -5.0765814216778216 52.93391708658126 48.5592766320772 112.59266471262191 17.373688709727805 34.901506931997631 107.76169067931392 34.956934050380873 7.9853742559565193 46.043349311331433 -10.420991149122203 89.645273259739724 38.710078942633864 69.147553206267403 15.930380953099013 136.02513339911181 35.128719078256459 19.088169088027392 18.077569619636545 15.631178515386152 11.490609619970151 7.6996836232718877 30.466154645433065 3.5700864629921245 13.287227794237282 41.010566206751811 51.229995619984834 113.54582227632075 -6.9799020949295487 -2.5185253517762636 0.9797159019605991 130.92365185699109
leaf_weight=81452 15201 8313 15460 154067 100705 11417 7051 2161 55191 73676 142952 19606 22162 341 10641 8986 3813 517174 6117 12036 17930 20760 871 86226 1084 134177 12527 12611 156239 8113 4626 33351 7082 4513 3099 739 1819 1972 11338 23964 2844 570915 5325 1432 1098 79920 692 12559 11810 789 16464 128133 19538 2611 10432 3394 13935 5868 2678 204898 86369 37995 203
leaf_count=81452 15201 8313 15460 154067 100705 11417 7051 2161 55191 73676 142952 19606 22162 341 10641 8986 3813 517174 6117 12036 17930 20760 871 86226 1084 134177 12527 12611 156239 8113 4626 33351 7082 4513 3099 739 1819 1972 11338 23964 2844 570915 5325 1432 1098 79920 692 12559 11810 789 16464 128133 19538 2611 10432 3394 13935 5868 2678 204898 86369 37995 203
internal_value=0.000842713 -2.50705 37.1112 -5.98083 9.01276 49.3876 66.853 38.7106 14.4436 2.34409 -7.99492 17.4291 35.0606 25.046 89.9424 53.6874 76.2227 -5.71455 37.6288 15.4435 -2.41072 0.803802 114.382 10.0849 16.032 -0.768318 0.54305 11.4993 -3.08002 43.5841 59.755 1.11367 33.674 66.7527 76.6155 71.1585 46.7437 72.8037 38.284 2.20295 12.023 -11.1618 66.7216 78.8514 110.571 19.6164 23.7262 18.2724 31.0393 73.1943 24.0601 9.95271 14.2023 55.6381 -10.1699 28.8965 35.5809 65.4069 73.957 -5.05717 0.282685 5.05178 17.2094
internal_weight=3.03146e+06 2.83957e+06 191896 2.18169e+06 657883 143085 54303 88782 423001 425009 1.75668e+06 347050 35101 46425 32020 42357 20508 1.02126e+06 19002 311949 263284 75951 11512 161725 75499 234882 181832 160350 504089 16841 12939 48811 22283 23355 14369 1823 15470 3791 11679 163902 26808 735414 11270 6757 4911 151599 71679 41059 30620 1481 29023 147739 30955 10724 581347 29139 17329 15597 9729 347850 137094 50725 12730
internal_count=3031465 2839569 191896 2181686 657883 143085 54303 88782 423001 425009 1756677 347050 35101 46425 32020 42357 20508 1021263 19002 311949 263284 75951 11512 161725 75499 234882 181832 160350 504089 16841 12939 48811 22283 23355 14369 1823 15470 3791 11679 163902 26808 735414 11270 6757 4911 151599 71679 41059 30620 1481 29023 147739 30955 10724 581347 29139 17329 15597 9729 347850 137094 50725 12730
cat_boundaries=0 4 7 11 13 17 21 24 28 29 33 37 38 41 45 48
cat_threshold=537919488 25167872 33816610 4 1108 1246339 537657350 1860040 285345922 2248146974 276 64 130 152322465 3598745680 2252357872 279 0 8388608 262176 4 20 196610 524292 1048576 285214720 2181038100 256 80 2156075024 2105344 134486272 64 1342193744 64 2214592836 17 4 8 16777216 8 532608 16777216 33554440 20 1088 1049600 536870912
is_linear=0
shrinkage=0.05


Tree=2
num_leaves=64
num_cat=15
split_feature=8 2 2 4 7 11 4 6 8 2 2 5 11 16 4 7 7 2 8 7 8 7 0 12 7 11 2 2 7 7 11 11 8 11 2 11 11 16 7 11 2 4 4 8 2 10 8 11 4 4 0 12 11 8 2 2 4 10 11 11 0 7 5
split_gain=1.02141e+11 3.509e+10 3.07721e+10 1.60896e+10 1.20638e+10 7.08396e+09 6.87368e+09 6.53781e+09 6.18131e+09 5.31534e+09 5.28234e+09 3.63652e+09 3.15497e+09 2.96793e+09 2.95847e+09 2.62423e+09 2.45869e+09 3.392e+09 2.44694e+09 1.88497e+09 1.85823e+09 3.14342e+09 3.21467e+09 1.7869e+09 1.77839e+09 1.8362e+09 1.73429e+09 1.69049e+09 2.39896e+09 2.22295e+09 1.66015e+09 1.53861e+09 1.51472e+09 1.46101e+09 1.45348e+09 1.44954e+09 1.38151e+09 1.33996e+09 1.28913e+09 1.27089e+09 1.6482e+09 1.21867e+09 1.21091e+09 1.20381e+09 1.10832e+09 1.01151e+09 9.46692e+08 9.38123e+08 9.24618e+08 1.70743e+09 1.39701e+09 9.15284e+08 8.8172e+08 8.39627e+08 8.69793e+08 8.26544e+08 8.1908e+08 8.04177e+08 7.77466e+08 1.84846e+09 7.58373e+08 8.60206e+08 7.364e+08
threshold=240.48252105712893 0 1 367.68180847167974 258.75454711914068 13.500000000000002 895.93588256835949 1479.5000000000002 2402.5507812500005 2 3 3.9027780294418339 12.500000000000002 1.0000000180025095e-35 689.88583374023449 6264.8330078125009 5937.7563476562509 4 557.75527954101574 4497.6098632812509 8.3372449874877947 144.81372070312503 5 4.5000000000000009 485.33111572265631 16.500000000000004 6 7 761.58056640625011 3776.648315429688 17.500000000000004 5.5000000000000009 988.75662231445324 7.5000000000000009 8 4.5000000000000009 7.5000000000000009 1.0000000180025095e-35 3232.671752929688 17.500000000000004 9 27.48615646362305 330.00148010253912 29.116169929504398 10 58.500000000000007 2402.5507812500005 8.5000000000000018 228.16278076171878 96.16003799438478 11 5.5000000000000009 16.500000000000004 1215.562927246094 12 13 430.09164428710943 64.500000000000014 10.500000000000002 9.5000000000000018 14 5312.9819335937509 1.3194444775581362
decision_type=2 9 9 2 2 2 2 2 2 9 9 2 2 2 2 2 2 9 2 2 2 2 9 2 2 2 9 9 2 2 2 2 2 2 9 2 2 2 2 2 9 2 2 2 9 2 2 2 2 2 9 2 2 2 9 9 2 2 2 2 9 2 2
left_child=1 4 3 5 20 8 9 12 31 57 24 36 13 58 16 -10 17 39 26 27 -1 48 33 37 25 -3 -7 29 -29 47 56 -2 -33 -23 -4 -31 -8 46 -16 40 41 -11 52 -18 -45 -26 -20 -19 49 -22 -51 -15 -28 54 -9 -12 -14 -6 59 -5 -42 -62 -54
right_child=2 10 34 7 6 18 11 53 15 14 55 -13 30 51 38 -17 43 19 23 -21 21 22 -24 -25 45 -27 42 28 -30 35 -32 32 -34 -35 -36 -37 -38 -39 -40 -41 60 -43 -44 44 -46 -47 -48 -49 -50 50 -52 -53 62 -55 -56 -57 -58 -59 -60 -61 61 -63 -64
leaf_value=5.0600364125213542 11.04473550600064 0.23892122676793581 13.357387021686273 53.566052835522186 -8.3030275635150375 -9.023269823019195 56.469207202813585 102.45557931657916 48.11949566154118 11.837094109627508 -6.9874446845068823 3.8200687996426916 113.67751322719845 124.08699989070702 61.32187562231119 104.76930082217866 -3.0914563447357537 24.622962253747882 45.943922802373635 -5.2086653471335103 11.235534167709089 180.38134178923042 23.641107567360621 38.696225810539921 -4.2149639030456774 20.332502050752765 31.222614972476947 9.965303831641263 -3.5617377807335657 59.475327090927991 72.840144614051511 21.735302160993339 45.108852798776105 83.287341673101238 -4.9512110014832853 2.2986575246558161 25.28765021312795 87.217090538359685 20.141528991742462 27.296963835476966 11.7765782449206 30.078761303084811 77.162182192888878 31.297773626515092 -6.5923605819381486 3.8168973729309905 109.42758851925221 11.075514900335364 15.442998395899853 112.83607858401027 29.379466872082574 68.621816166482986 63.725561952393527 50.885087891394654 0.2676156946295184 -9.6282815592856714 153.52262498014412 43.916525289861681 48.405735173422599 109.2628035819135 10.427448514103155 -2.5987791736789032 40.074088279443401
leaf_weight=24419 21644 44469 16163 4020 113275 1465 9132 216 7412 24064 553116 8796 6059 3240 2579 2823 152158 19674 4189 65760 17129 553 2380 4125 569230 15275 9253 47015 108222 1123 2192 26024 9448 1295 32866 85224 5814 9301 7223 11763 38990 14779 2944 4981 3147 42098 683 36461 83010 502 32491 966 6293 1949 2647 639048 1640 742 5379 2367 21052 31845 6901
leaf_count=24419 21644 44469 16163 4020 113275 1465 9132 216 7412 24064 553116 8796 6059 3240 2579 2823 152158 19674 4189 65760 17129 553 2380 4125 569230 15275 9253 47015 108222 1123 2192 26024 9448 1295 32866 85224 5814 9301 7223 11763 38990 14779 2944 4981 3147 42098 683 36461 83010 502 32491 966 6293 1949 2647 639048 1640 742 5379 2367 21052 31845 6901
internal_value=0.00508634 -2.38323 35.2793 46.9847 5.29903 38.2359 2.8201 79.0873 27.9629 2.02352 -6.40568 29.328 89.044 75.3004 3.70772 63.7454 3.30658 5.01614 53.559 2.45261 17.7695 20.0289 62.4723 67.6603 -2.85717 5.37636 43.9511 4.14491 0.535025 8.07735 111.236 21.5506 27.961 111.746 1.08595 3.04235 44.3398 76.0898 30.977 11.5544 10.1387 18.7729 46.9927 -2.08997 16.658 -3.66186 54.8457 15.8236 18.6809 24.0433 30.6927 111.35 43.0565 25.5723 8.33932 -8.40311 122.167 -7.96246 62.4129 74.2085 6.48605 2.58493 51.3553
internal_weight=3.03104e+06 2.83883e+06 192209 143180 975598 112505 813819 30675 67351 790077 1.86324e+06 23742 25863 15972 676060 10235 666258 505972 45154 363479 161779 137360 4228 18298 671072 59744 26856 297719 155237 142482 9891 57116 35472 1848 49029 86347 14946 14173 9802 142493 130730 38843 25391 160286 8128 611328 4872 56135 133132 50122 32993 4206 22447 4812 2863 1.19216e+06 7699 114017 11766 6387 91887 52897 13194
internal_count=3031043 2838834 192209 143180 975598 112505 813819 30675 67351 790077 1863236 23742 25863 15972 676060 10235 666258 505972 45154 363479 161779 137360 4228 18298 671072 59744 26856 297719 155237 142482 9891 57116 35472 1848 49029 86347 14946 14173 9802 142493 130730 38843 25391 160286 8128 611328 4872 56135 133132 50122 32993 4206 22447 4812 2863 1192164 7699 114017 11766 6387 91887 52897 13194
cat_boundaries=0 4 8 11 15 18 19 23 27 31 33 36 37 40 44 45
cat_threshold=17476 18025602 2718695446 260 537919488 25167872 33816610 4 4 16844800 34078720 1360003248 343933017 5374056 146 0 1048578 2 80 0 0 32 4 16448 0 0 4 268451904 66 2214592836 1 0 1048578 0 1024 262146 64 0 16777216 262144 671293697 3791684096 1417695361 1 128
is_linear=0
shrinkage=0.05


Tree=3
num_leaves=64
num_cat=17
split_feature=8 3 2 2 2 6 8 11 5 3 3 8 11 3 16 0 2 8 3 2 11 8 2 11 2 3 2 2 3 12 8 2 8 16 7 2 8 8 2 3 5 7 16 3 2 12 11 3 8 11 5 0 11 7 7 11 2 10 11 10 2 3 7
split_gain=9.26384e+10 3.81763e+10 2.77738e+10 1.21599e+10 1.11546e+10 9.1247e+09 1.34811e+10 6.0115e+09 5.68821e+09 5.52959e+09 4.16277e+09 4.08446e+09 3.69283e+09 3.56169e+09 2.62568e+09 2.49431e+09 2.18153e+09 2.18045e+09 2.07513e+09 2.58859e+09 1.93335e+09 1.92478e+09 1.84756e+09 1.81009e+09 1.79313e+09 1.79299e+09 1.77845e+09 1.60408e+09 1.51384e+09 1.47882e+09 1.47139e+09 1.35259e+09 1.32253e+09 1.28915e+09 1.28865e+09 1.24746e+09 1.18911e+09 1.04366e+09 1.34422e+09 1.0291e+09 9.65309e+08 8.7371e+08 8.54553e+08 8.51985e+08 8.49052e+08 7.95669e+08 7.79482e+08 7.65128e+08 1.05646e+09 7.28199e+08 7.27576e+08 1.06019e+09 8.41502e+08 1.19627e+09 1.39254e+09 7.36655e+08 7.21961e+08 6.64821e+08 6.63494e+08 6.43198e+08 6.39843e+08 6.35685e+08 1.40725e+09
threshold=240.48252105712893 803.56478881835949 0 1 2 1481.5000000000002 302.43742370605474 13.500000000000002 5.0138890743255624 423.96304321289068 2507.7592773437505 988.75662231445324 12.500000000000002 236.72138214111331 1.0000000180025095e-35 3 4 557.75527954101574 1489.0447998046877 5 5.5000000000000009 23.896688461303714 6 17.500000000000004 7 21.217695236206058 8 9 355.52334594726568 4.5000000000000009 262.59442138671881 10 72.25049209594728 1.0000000180025095e-35 1760.8392333984377 11 1215.562927246094 19.075641632080082 12 523.10607910156261 2.62500011920929 6384.8662109375009 1.0000000180025095e-35 21.217695236206058 13 5.5000000000000009 16.500000000000004 394.22056579589849 1215.562927246094 7.5000000000000009 1.0000000180025095e-35 14 7.5000000000000009 198.93647003173831 121.26333236694337 8.5000000000000018 15 100.50000000000001 16.500000000000004 55.500000000000007 16 84.61417388916017 1324.1456298828127
decision_type=2 2 9 9 9 2 2 2 2 2 2 2 2 2 2 9 9 2 2 9 2 2 9 2 9 2 9 9 2 2 2 9 2 2 2 9 2 2 9 2 2 2 2 2 9 2 2 2 2 2 2 9 2 2 2 2 9 2 2 2 9 2 2
left_child=1 3 5 9 8 6 30 11 10 16 18 41 14 43 -8 21 -1 22 32 49 -13 -11 -9 -14 -10 -18 39 -6 -22 33 -2 -4 35 -19 -23 44 -30 61 58 -15 46 56 -12 -5 -3 -16 -24 -35 -49 -20 51 52 53 54 -21 -53 -7 -45 -39 -41 -61 62 -27
right_child=2 4 31 13 27 7 12 17 24 15 42 20 23 26 45 -17 25 29 19 50 28 34 40 -25 -26 37 -28 -29 36 -31 -32 -33 -34 47 -36 -37 -38 38 -40 59 -42 -43 -44 57 -46 -47 -48 48 -50 -51 -52 55 -54 -55 -56 -57 -58 -59 -60 60 -62 -63 -64
leaf_value=-8.0311751091347912 22.079368590159881 86.145645901335001 13.502669603045513 -13.788744720327703 -4.9363404456882458 12.14461980466087 58.753089774566106 -8.4162480223991967 -3.2276031572282053 12.976848562589101 33.019483306584526 24.003855046873753 114.39122802441562 -5.0878952496955945 110.88065751150535 3.1709561225476581 -13.787660441957147 49.630648168443265 50.343513056287343 38.830684070795641 39.379134661088045 99.639354544594582 28.534282260516104 66.297943029640564 12.664848197744911 128.13771620282793 -8.0897678364832721 3.3724681488168091 48.934091738051812 36.734470816183112 49.652356596243379 -4.4843607103109999 24.768521097481525 59.489346341633876 14.997956649659745 -0.028332063705089169 98.160227349923275 15.595187859350686 1.1715811511682523 -0.90455742861005806 24.788130237389556 -9.5103785827269505 70.082306593066221 -9.6861217107459758 11.635678440542087 62.820700708300798 60.765984950824304 80.688059562481556 131.75439957679058 26.033392532721834 14.55986945002541 10.227890020554295 23.964701339746313 40.412387588121334 172.39223124785906 22.725986916278348 37.574878968914504 4.3383430643427783 41.213867102570475 47.878597665618088 7.7380299348923351 3.0644002852273031 -4.0113011049357228
leaf_weight=137998 15181 374 15118 144133 108114 22420 15743 1934 59255 74904 2557 10743 9086 374148 3911 152672 20507 5018 7746 375 8103 1085 2521 2494 25327 202 410604 125515 2358 4300 7102 33802 16084 2884 768 27054 2558 8202 15720 140935 4605 4108 3971 534459 117367 1105 7332 5344 1250 5115 95522 17794 6405 3775 407 34944 3187 8586 3653 1185 5946 82206 63440
leaf_count=137998 15181 374 15118 144133 108114 22420 15743 1934 59255 74904 2557 10743 9086 374148 3911 152672 20507 5018 7746 375 8103 1085 2521 2494 25327 202 410604 125515 2358 4300 7102 33802 16084 2884 768 27054 2558 8202 15720 140935 4605 4108 3971 534459 117367 1105 7332 5344 1250 5115 95522 17794 6405 3775 407 34944 3187 8586 3653 1185 5946 82206 63440
internal_value=0.0156842 -2.25864 33.6092 -5.44233 8.30051 44.7133 60.7921 34.813 13.1335 0.899458 16.0242 24.2521 81.4113 -7.63983 68.7912 6.86838 -3.22624 50.8629 15.2489 19.0655 39.7046 14.2204 37.5345 104.034 1.53231 0.193294 -5.62765 -0.472558 52.6602 62.4863 30.8676 1.0759 11.1665 70.1248 64.5613 9.6556 74.55 1.84654 10.767 -3.69152 43.6569 11.8952 55.5656 -10.3714 11.8797 100.295 52.5195 80.9745 90.3704 40.6437 17.3189 21.459 35.6179 52.0741 108.357 18.5056 15.3292 -9.46438 23.4698 -0.163276 14.487 0.159973 -3.59166
internal_weight=3.03126e+06 2.83905e+06 192207 2.18135e+06 657701 143287 54622 88665 424072 561357 339490 53477 32339 1.62e+06 20759 229429 331928 35188 332962 172083 23762 76757 16392 11580 84582 193930 932818 233629 13019 18796 22283 48920 160879 14496 1853 144795 4916 173423 27575 522214 14458 29715 6528 687178 117741 5016 9853 9478 6594 12861 159222 63700 10962 4557 782 52738 25607 543045 11855 148066 7131 145848 63642
internal_count=3031261 2839054 192207 2181353 657701 143287 54622 88665 424072 561357 339490 53477 32339 1619996 20759 229429 331928 35188 332962 172083 23762 76757 16392 11580 84582 193930 932818 233629 13019 18796 22283 48920 160879 14496 1853 144795 4916 173423 27575 522214 14458 29715 6528 687178 117741 5016 9853 9478 6594 12861 159222 63700 10962 4557 782 52738 25607 543045 11855 148066 7131 145848 63642
cat_boundaries=0 4 8 12 13 16 19 23 27 31 35 39 42 45 47 48 51 54
cat_threshold=537919488 25167872 33816610 4 1140 278070403 537657350 4 1860040 2432829570 2248146974 276 80 52 277020674 524292 64 2178 18 0 8388608 262176 4 1048576 2432698368 2181038100 256 957628801 3858792528 2520793328 275 2156075024 2106368 142874880 64 1342193728 64 2214592516 17 1065024 2416050306 2214592518 0 1049728 262146 0 128 16 537919488 8388608 2 285212672 0 33554560
is_linear=0
shrinkage=0.05


Tree=4
num_leaves=64
num_cat=17
split_feature=8 3 2 4 2 2 11 3 2 8 6 3 5 11 7 2 2 16 8 3 8 11 11 12 5 2 5 11 2 2 8 3 11 2 8 11 2 2 3 3 4 4 6 4 3 2 11 8 12 11 2 3 8 2 11 7 4 8 2 11 2 11 11
split_gain=8.2862e+10 3.44274e+10 2.5045e+10 1.29628e+10 1.26219e+10 8.36609e+09 5.81771e+09 5.49613e+09 5.36194e+09 5.17721e+09 5.13619e+09 4.81156e+09 4.22123e+09 2.70149e+09 2.65899e+09 2.61105e+09 2.2497e+09 2.19887e+09 1.94824e+09 1.6308e+09 2.16505e+09 1.54345e+09 1.44765e+09 1.44581e+09 1.43883e+09 1.42621e+09 1.38065e+09 1.27873e+09 1.23311e+09 1.21339e+09 1.55169e+09 1.20865e+09 1.20812e+09 1.17566e+09 1.13407e+09 1.13337e+09 1.10024e+09 1.03716e+09 9.89905e+08 1.25542e+09 1.12929e+09 9.80084e+08 9.00083e+08 8.89602e+08 8.62695e+08 8.34991e+08 8.0455e+08 8.01687e+08 7.97816e+08 7.86045e+08 7.78314e+08 7.25326e+08 7.1035e+08 7.09198e+08 6.99714e+08 6.8583e+08 6.76262e+08 6.76195e+08 8.07962e+08 6.60971e+08 6.39902e+08 6.38074e+08 1.70019e+09
threshold=240.48252105712893 900.67916870117199 0 367.68180847167974 1 2 13.500000000000002 469.47677612304693 3 2402.5507812500005 1484.5000000000002 320.15390014648443 8.2083334922790545 12.500000000000002 2785.6469726562505 4 5 1.0000000180025095e-35 557.75527954101574 19.514798164367679 23.896688461303714 7.5000000000000009 18.500000000000004 4.5000000000000009 1.0000000180025095e-35 6 2.2083333730697636 5.5000000000000009 7 8 26.053916931152347 26.095101356506351 18.500000000000004 9 988.75662231445324 17.500000000000004 10 11 1773.2047119140627 1928.8721313476565 46.557868957519538 330.00148010253912 1546.5000000000002 25.27452373504639 1658.5501708984377 12 15.500000000000002 39.620975494384773 4.5000000000000009 4.5000000000000009 13 236.72138214111331 2402.5507812500005 14 16.500000000000004 144.81372070312503 430.09164428710943 1215.562927246094 15 15.500000000000002 16 10.500000000000002 9.5000000000000018
decision_type=2 2 9 2 9 9 2 2 9 2 2 2 2 2 2 9 9 2 2 2 2 2 2 2 2 9 2 2 9 9 2 2 2 9 2 2 9 9 2 2 2 2 2 2 2 9 2 2 2 2 9 2 2 9 2 2 2 2 9 2 9 2 2
left_child=1 4 3 6 7 28 9 19 14 27 13 31 24 17 21 26 -11 61 25 -1 37 -7 56 32 36 41 -13 -2 -3 30 43 -6 46 -4 -29 -31 38 42 -10 40 55 54 49 -9 -26 -33 52 -38 -19 -21 -37 -18 -20 -22 -8 -40 -15 58 -12 -43 -14 62 -5
right_child=2 5 33 10 11 8 18 29 12 16 57 15 60 22 -16 -17 51 48 23 20 53 -23 -24 -25 44 -27 -28 34 -30 35 -32 45 -34 -35 -36 50 47 -39 39 -41 -42 59 -44 -45 -46 -47 -48 -49 -50 -51 -52 -53 -54 -55 -56 -57 -58 -59 -60 -61 -62 -63 -64
leaf_value=-13.848000902435295 9.7216131614903212 -4.1968881308382464 11.78748768101773 47.246093096046856 -12.757603736854225 63.0617486986743 28.619581538332557 9.4270501482773419 21.507672978132121 42.890715165922444 99.287189741489442 1.6749799245691712 -5.2030622684355574 98.472602660809358 20.366926887934738 -6.6003781924100515 154.14044106217133 114.66797057254969 46.385418532246184 47.205336305825469 -1.6912391370084565 28.102081430222725 31.163824730435113 35.001296794425663 7.2853695144157218 -1.2944019432735991 -4.0307631054471846 19.766979971688855 3.8030291866035797 5.6729592185092663 76.060873144883075 -5.4725303054482435 40.85302671013303 -4.6351147935714136 40.079442284827735 33.717885252257936 9.9463457973372886 -3.0829095501408958 54.016599823245897 27.917482623460582 48.49397009817671 107.61154070295089 92.511590460953926 22.732432835410521 14.03832168594908 -9.2163753752357458 85.574310321408376 19.592672727150159 69.96654957446664 3.59973375668085 1.3632835898558375 84.795721015198978 106.34420079624044 25.437345344585449 46.824458616028167 156.10435225611945 131.03248129840853 46.261539779300023 0.16005186388986048 55.178070887865488 12.639624434054959 43.344098679069631 100.46850499091083
leaf_weight=23467 21663 83589 16408 4106 184379 8302 8891 26375 19523 7308 213 211742 39443 7128 18057 467378 445 2679 2910 1055 3126 5095 700 4131 91085 1964 212350 25894 113649 84365 1090 200354 3062 32402 9354 6390 39280 171781 240 4018 1403 841 292 23989 98374 581662 7523 47689 1592 50444 2632 2476 595 10573 12992 524 2056 1938 2626 2108 5749 5338 2365
leaf_count=23467 21663 83589 16408 4106 184379 8302 8891 26375 19523 7308 213 211742 39443 7128 18057 467378 445 2679 2910 1055 3126 5095 700 4131 91085 1964 212350 25894 113649 84365 1090 200354 3062 32402 9354 6390 39280 171781 240 4018 1403 841 292 23989 98374 581662 7523 47689 1592 50444 2632 2476 595 10573 12992 524 2056 1938 2626 2108 5749 5338 2365
internal_value=-0.00210522 -2.15016 31.8135 42.3742 -4.92755 8.76349 34.493 3.06372 13.1116 25.1683 71.1419 -6.67206 11.3206 79.9083 32.8786 -4.0228 57.918 67.2627 48.4001 -1.27435 -0.0307666 49.7666 100.48 61.0142 13.4527 39.8224 -1.18195 19.2819 0.412642 10.8732 17.0388 -9.11598 68.6405 0.886814 25.1575 7.47346 17.9269 -1.21304 27.0198 44.4618 75.1352 43.0576 4.98859 15.7646 10.7918 -8.25738 76.3555 15.2341 98.0077 4.49312 24.318 95.0396 56.5666 19.2642 39.428 124.046 105.763 23.4938 7.95072 70.1343 -2.93158 56.1423 66.6989
internal_weight=3.03117e+06 2.83946e+06 191708 142898 2.26344e+06 576020 112157 405579 378782 67140 30741 1.85786e+06 347328 25964 31454 891470 10229 16080 45017 260738 237271 13397 9884 18221 302136 26796 424092 56911 197238 144841 51454 966395 14090 48810 35248 93387 112677 223572 25708 6185 2167 24832 51791 50364 189459 782016 11028 86969 4271 51499 9022 2921 3505 13699 21883 764 9184 4777 2839 2949 45192 11809 6471
internal_count=3031172 2839464 191708 142898 2263444 576020 112157 405579 378782 67140 30741 1857865 347328 25964 31454 891470 10229 16080 45017 260738 237271 13397 9884 18221 302136 26796 424092 56911 197238 144841 51454 966395 14090 48810 35248 93387 112677 223572 25708 6185 2167 24832 51791 50364 189459 782016 11028 86969 4271 51499 9022 2921 3505 13699 21883 764 9184 4777 2839 2949 45192 11809 6471
cat_boundaries=0 4 7 11 14 18 21 24 28 31 35 39 42 46 49 52 55 59
cat_threshold=537919488 25167872 33816610 4 1092 1246338 537657350 2426601472 2216698392 1087524960 192 64 130 128 152322480 2491465809 2218811888 263 1048576 0 2 537919488 16779264 2 2156068864 2105360 8392704 64 0 1179778 524288 268451920 66 2214592772 17 16384 2048 33554432 256 1088 1049600 536870912 1207959712 1375752256 301990064 7 4 0 6 1092 2 536870912 0 16777216 262144 0 16779264 33554448 256
is_linear=0
shrinkage=0.05


Tree=5
num_leaves=64
num_cat=10
split_feature=7 2 4 3 3 2 4 3 2 11 11 2 3 11 16 16 11 3 11 2 2 3 3 7 5 11 12 12 0 7 3 4 4 0 11 7 7 3 10 3 4 4 3 10 10 10 11 7 3 4 4 10 4 3 10 3 11 2 3 11 2 4 4
split_gain=6.74807e+10 2.99868e+10 2.8415e+10 1.19844e+10 6.73912e+09 6.0903e+09 6.6333e+09 5.83849e+09 3.13383e+09 2.97079e+09 2.91584e+09 2.91372e+09 2.51593e+09 2.48221e+09 2.41623e+09 2.06699e+09 2.04245e+09 2.00838e+09 1.65776e+09 1.53696e+09 1.42356e+09 1.56772e+09 8.80608e+09 1.48059e+09 1.33161e+09 1.22007e+09 1.31596e+09 1.18457e+09 1.15756e+09 1.14164e+09 1.13785e+09 1.13742e+09 1.09389e+09 1.07456e+09 1.49966e+09 9.29526e+08 1.4136e+09 9.21895e+08 8.88979e+08 8.7324e+08 9.03923e+08 8.5065e+08 7.79816e+08 8.33684e+08 7.72799e+08 7.62168e+08 7.09472e+08 7.66671e+08 1.30982e+09 6.91895e+08 6.87289e+08 6.82718e+08 6.7629e+08 9.40807e+08 6.45012e+08 6.33709e+08 6.14968e+08 6.13262e+08 6.10082e+08 5.93021e+08 7.04375e+08 5.92121e+08 1.32789e+09
threshold=1.0000000180025095e-35 0 337.15948486328131 1791.4313964843752 469.47677612304693 1 280.15249633789068 348.03004455566412 2 11.500000000000002 8.5000000000000018 3 90.305469512939467 12.500000000000002 1.0000000180025095e-35 1.0000000180025095e-35 17.500000000000004 288.24061584472662 17.500000000000004 4 5 858.09448242187511 870.55749511718761 9807.3745117187518 2.9305557012557988 5.5000000000000009 4.5000000000000009 4.5000000000000009 6 1324.1456298828127 316.28817749023443 311.11146545410162 430.09164428710943 7 7.5000000000000009 1760.8392333984377 176.09584045410159 21.217695236206058 8.5000000000000018 19.514798164367679 133.56339263916018 430.09164428710943 564.16186523437511 114.50000000000001 117.50000000000001 53.500000000000007 7.5000000000000009 2186.963500976563 1928.8721313476565 203.28167724609378 83.250450134277358 102.50000000000001 67.057518005371108 900.67916870117199 59.500000000000007 1433.669860839844 16.500000000000004 8 989.49786376953136 15.500000000000002 9 90.436611175537124 217.02270507812503
decision_type=2 9 2 2 2 9 2 2 9 2 2 9 2 2 2 2 2 2 2 9 9 2 2 2 2 2 2 2 9 2 2 2 2 9 2 2 2 2 2 2 2 2 2 2 2 2 2 2 2 2 2 2 2 2 2 2 2 9 2 2 9 2 2
left_child=2 3 9 4 5 6 12 37 24 28 25 14 29 15 -11 -4 45 -7 41 50 35 44 23 -23 42 -5 46 54 52 -2 -19 61 -17 34 -8 36 38 -3 -6 -31 -41 56 -9 59 -22 49 47 48 -27 -14 -18 -39 -1 -54 -16 -24 -15 -10 -26 -44 -61 -13 -63
right_child=1 7 13 10 20 17 33 8 57 11 -12 31 16 18 27 32 19 30 -20 -21 21 22 55 -25 58 26 -28 -29 -30 39 -32 -33 -34 -35 -36 -37 -38 51 -40 40 -42 -43 43 -45 -46 -47 -48 -49 -50 -51 -52 -53 53 -55 -56 -57 -58 -59 -60 60 -62 62 -64
leaf_value=7.8497647459473372 113.38110837640043 -12.481802205621612 48.828230259084229 25.68038794738759 -1.3289018287489991 -7.5695255630082663 45.285598710182114 -0.15999237454807799 -3.587920437847369 21.889701115112928 17.438377756762346 2.2992378073747601 5.2930134785700993 89.306430920295384 52.753108189890909 80.318274296365601 68.011415147674882 7.2005561106202016 57.277554314662638 -0.3076017004920652 0.079794451934078636 3.5820143287450672 5.3512804254108142 87.072209967656619 -4.7233596050451849 149.94110788734881 8.3242062879961516 20.602831463859445 10.965523427487398 -13.136183680338441 -2.5602758089094015 43.829430249868629 155.34020093580932 20.752811775617872 99.400933894266501 11.783404704238258 65.674595040805329 -8.2208328091916023 57.139251405859561 -1.0812939625373592 19.979149491051423 137.11026396939539 2.2068889703632046 27.466697863268866 31.430535050253265 20.78418912654746 38.124280536988337 55.759084385718111 70.607165897471234 25.981510451874421 34.127077439801141 4.2283438270370635 98.689737619072503 27.93161908627388 82.484356039060842 12.855327575845127 127.64398895047512 -6.885179244846511 3.179138922140794 19.441515651348173 4.9921491157332492 34.631490170993594 16.719887441885927
leaf_weight=4366 216 137922 10045 4821 2607 176054 4983 119008 246488 11652 14108 4973 74204 6155 11898 4008 2082 43222 2582 2736 80136 609 110438 4147 129068 633 1377 2605 80462 13799 96559 4906 553 2560 1723 159327 2042 745197 866 60420 5564 1501 75117 4198 2015 10466 2929 6382 2923 4274 5323 11178 487 13221 2155 37752 1261 329849 30123 12762 24905 12832 53443
leaf_count=4366 216 137922 10045 4821 2607 176054 4983 119008 246488 11652 14108 4973 74204 6155 11898 4008 2082 43222 2582 2736 80136 609 110438 4147 129068 633 1377 2605 80462 13799 96559 4906 553 2560 1723 159327 2042 745197 866 60420 5564 1501 75117 4198 2015 10466 2929 6382 2923 4274 5323 11178 487 13221 2155 37752 1261 329849 30123 12762 24905 12832 53443
internal_value=-0.00932587 -2.14177 26.0812 5.15463 4.07171 0.227037 7.3429 -5.80713 -3.12366 19.7666 34.6709 25.6412 5.20891 75.1846 39.3416 61.5035 10.534 -4.01665 92.5615 31.7938 8.91852 6.41967 9.41233 76.3817 0.305832 47.4228 54.7815 51.5723 13.5387 -1.38666 0.457896 20.5402 89.4175 48.594 59.1028 12.4812 32.6627 -8.72237 13.2515 -1.69752 0.694623 102.778 2.68965 5.58865 0.848803 8.11004 59.7531 66.1273 84.7331 6.41976 43.596 -8.03685 24.9739 30.4461 57.3129 7.26297 95.8269 -5.47509 -3.228 4.77429 9.89428 18.9393 20.1879
internal_weight=3.03222e+06 2.80311e+06 229105 937297 904124 504185 188350 1.86582e+06 971518 203000 33173 104464 179084 26105 28310 14606 99085 315835 11499 10141 399939 235097 152946 4756 395181 19065 14244 16658 98536 79999 139781 76154 4561 9266 6706 164842 5515 894297 3473 79783 65984 8917 235990 116982 82151 88944 12867 9938 3556 78478 7405 756375 18074 13708 14053 148190 7416 576337 159191 112784 37667 71248 66275
internal_count=3032217 2803112 229105 937297 904124 504185 188350 1865815 971518 203000 33173 104464 179084 26105 28310 14606 99085 315835 11499 10141 399939 235097 152946 4756 395181 19065 14244 16658 98536 79999 139781 76154 4561 9266 6706 164842 5515 894297 3473 79783 65984 8917 235990 116982 82151 88944 12867 9938 3556 78478 7405 756375 18074 13708 14053 148190 7416 576337 159191 112784 37667 71248 66275
cat_boundaries=0 4 8 12 14 17 20 21 22 26 29
cat_threshold=17476 1182850 2685141030 260 1088 1049600 537133058 4 420487344 2491433305 105923032 145 1048576 2048 0 0 2 64 1179778 524290 224 20 537264385 1644200448 1367539712 66 17825792 2147483648 16
is_linear=0
shrinkage=0.05


Tree=6
num_leaves=64
num_cat=12
split_feature=8 2 2 4 7 11 4 8 6 2 2 5 11 4 8 7 7 2 11 11 8 7 0 7 12 11 11 7 11 2 4 11 8 2 11 11 11 2 7 7 8 11 7 10 4 4 0 4 4 2 7 2 7 11 11 10 10 11 9 4 7 8 8
split_gain=6.9028e+10 2.32841e+10 2.06001e+10 1.03726e+10 8.06071e+09 4.73005e+09 4.58225e+09 4.33834e+09 4.30221e+09 3.79079e+09 3.49933e+09 2.63295e+09 2.19098e+09 2.13001e+09 1.80993e+09 1.7737e+09 1.69418e+09 2.04121e+09 1.57151e+09 2.24345e+09 1.37503e+09 2.49477e+09 2.25529e+09 1.31779e+09 1.25592e+09 1.23165e+09 1.22854e+09 1.2221e+09 1.49212e+09 1.1564e+09 1.14265e+09 1.13642e+09 1.10764e+09 1.07178e+09 1.05469e+09 1.04548e+09 1.03797e+09 1.00892e+09 1.61655e+09 1.48103e+09 9.70845e+08 9.63524e+08 9.1186e+08 8.04743e+08 7.93911e+08 1.50512e+09 9.80751e+08 7.91533e+08 8.67612e+08 7.61656e+08 1.12738e+09 7.52878e+08 7.10311e+08 6.96102e+08 6.62832e+08 6.5814e+08 6.31822e+08 6.29057e+08 6.12672e+08 5.9893e+08 5.87711e+08 5.85752e+08 5.7053e+08
threshold=240.48252105712893 0 1 367.68180847167974 258.75454711914068 13.500000000000002 895.93588256835949 2402.5507812500005 1484.5000000000002 2 3 3.62500011920929 12.500000000000002 689.88583374023449 557.75527954101574 6264.8330078125009 6081.3684082031259 4 10.500000000000002 5.5000000000000009 8.3372449874877947 144.81372070312503 5 4497.6098632812509 4.5000000000000009 4.5000000000000009 18.500000000000004 485.33111572265631 16.500000000000004 6 430.09164428710943 5.5000000000000009 988.75662231445324 7 15.500000000000002 18.500000000000004 7.5000000000000009 8 750.57739257812511 3868.8591308593755 29.116169929504398 7.5000000000000009 3232.671752929688 58.500000000000007 222.93254089355472 96.16003799438478 9 319.03498840332037 196.383415222168 10 5917.9570312500009 11 9807.3745117187518 16.500000000000004 17.500000000000004 64.500000000000014 57.500000000000007 8.5000000000000018 20.500000000000004 37.47290229797364 6400.9545898437509 2402.5507812500005 1215.562927246094
decision_type=2 9 9 2 2 2 2 2 2 9 9 2 2 2 2 2 2 9 2 2 2 2 9 2 2 2 2 2 2 9 2 2 2 9 2 2 2 9 2 2 2 2 2 2 2 2 9 2 2 9 2 9 2 2 2 2 2 2 2 2 2 2 2
left_child=1 4 3 5 20 7 9 31 12 55 27 41 18 16 29 -9 17 34 19 -5 -1 44 36 25 35 -19 58 28 -3 47 -21 -2 60 -4 49 53 -23 38 -27 57 -18 -8 -15 -29 45 -22 -47 48 -7 50 -11 54 -17 61 -42 -6 -12 -39 -14 -41 -33 -16 -10
right_child=2 10 33 8 6 14 11 15 62 13 56 -13 26 42 24 52 40 23 -20 30 21 22 -24 -25 -26 37 -28 43 -30 -31 -32 32 -34 -35 -36 -37 -38 39 -40 59 51 -43 -44 -45 -46 46 -48 -49 -50 -51 -52 -53 -54 -55 -56 -57 -58 -59 -60 -61 -62 -63 -64
leaf_value=3.518959222506636 8.7543623789896952 -0.2199489502687412 12.90195354316532 43.032792112217443 -7.1210830692861995 47.100142271357271 47.235799111800901 40.338613003777105 6.3234536793438263 21.857528883211497 -7.132328118764196 2.9313453170564494 110.76960613946983 51.76913515370623 51.862588053298261 144.91827159188242 -3.0872681776234718 45.291385716156697 39.155452101157351 80.341160614278394 8.5487274322196125 153.41826872294655 21.766009876105954 -4.2687798338581358 31.994862952915835 8.0622919565138247 27.657223001639736 -3.5499470026679152 17.9032335190279 -1.7391076614407102 133.99895885925483 19.936761364791383 38.045448756775187 -3.5743856565056085 16.776671255022773 37.240485247156414 71.535625163507547 17.863889648268572 -3.1480866289900944 13.791962281460222 16.913472416642502 20.7659879332633 17.101496132660895 3.5669270123077386 12.351440409675531 97.226260441975626 25.918152788401621 56.81759942871328 25.856123095424632 3.9713895387447078 4.8521210151270111 -5.0778647819080822 76.052725633198477 84.147194752258301 60.470849282907025 40.119448249793017 -0.82909306717573006 7.9194944936799008 84.578465473963163 -0.30489449117782552 -11.117570599120814 92.880084212165499 41.51548202227314
leaf_weight=24328 21610 44441 13690 4069 113416 7998 9001 7443 2813 17545 1128654 9177 3974 2558 5001 445 136427 1746 5416 5377 17109 554 2380 68508 4128 46491 708 591144 15256 1910 1217 24392 9371 35298 32863 3016 1285 24365 104308 8490 3823 5563 7338 42582 85980 483 29864 4865 12044 83092 21926 2952 2365 5050 1132 742 41208 45789 5103 66964 1625 1054 1950
leaf_count=24328 21610 44441 13690 4069 113416 7998 9001 7443 2813 17545 1128654 9177 3974 2558 5001 445 136427 1746 5416 5377 17109 554 2380 68508 4128 46491 708 591144 15256 1910 1217 24392 9371 35298 32863 3016 1285 24365 104308 8490 3823 5563 7338 42582 85980 483 29864 4865 12044 83092 21926 2952 2365 5050 1132 742 41208 45789 5103 66964 1625 1054 1950
internal_value=-0.00314581 -1.96476 29.0174 38.6055 4.29055 31.5749 2.26406 23.1753 64.4012 1.61402 -5.24199 23.9079 72.443 3.03657 44.1093 53.1176 2.69468 4.0202 61.0897 72.2302 14.477 16.4137 54.2681 1.98448 56.2562 3.42139 91.0983 -2.42746 4.41158 35.8432 90.2462 17.7891 23.3061 1.03174 8.82192 63.3483 95.6895 3.17474 0.308031 6.14319 -2.10004 37.1254 26.0631 -3.07174 15.2167 20.408 27.094 38.7103 34.334 6.68971 12.408 14.9334 86.9633 70.4385 26.8113 -6.8134 -6.91024 11.3733 96.0463 1.28128 17.9971 59.004 20.7318
internal_weight=3.03142e+06 2.83948e+06 191932 142944 976199 112317 814216 67251 30627 790475 1.86328e+06 23741 25864 676317 45066 10253 666421 522087 16079 10663 161983 137655 4219 366661 18249 298153 9785 693423 59697 26817 6594 56998 35388 48988 155426 14121 1839 296407 150799 145608 144334 14564 9896 633726 133436 47456 30347 24907 20042 122563 39471 7907 2810 11105 4955 114158 1.16986e+06 70154 9077 75454 26017 6055 4763
internal_count=3031416 2839484 191932 142944 976199 112317 814216 67251 30627 790475 1863285 23741 25864 676317 45066 10253 666421 522087 16079 10663 161983 137655 4219 366661 18249 298153 9785 693423 59697 26817 6594 56998 35388 48988 155426 14121 1839 296407 150799 145608 144334 14564 9896 633726 133436 47456 30347 24907 20042 122563 39471 7907 2810 11105 4955 114158 1169862 70154 9077 75454 26017 6055 4763
cat_boundaries=0 4 8 11 15 18 19 22 26 30 31 33 36
cat_threshold=17476 18025602 2718695446 260 537919488 25167872 33816610 4 4 16844800 34078720 1360003248 343933017 13762664 146 0 1048578 2 80 537919488 16779264 2 1342177344 64 2214592516 1 0 128 2147483664 256 64 0 1048578 0 1024 262146
is_linear=0
shrinkage=0.05


Tree=7
num_leaves=64
num_cat=20
split_feature=8 2 2 4 5 4 8 11 8 6 2 2 2 11 8 16 2 8 0 12 2 11 5 11 8 11 2 2 4 11 10 2 4 4 2 2 11 4 11 8 12 5 2 10 11 11 10 8 8 2 11 11 4 2 6 12 0 2 4 6 2 2 11
split_gain=6.24178e+10 2.11595e+10 1.85574e+10 9.20477e+09 5.24416e+09 5.69888e+09 5.01975e+09 4.42185e+09 3.96944e+09 3.7847e+09 3.16743e+09 2.254e+09 2.00993e+09 1.74596e+09 1.72581e+09 1.70071e+09 1.62776e+09 1.60833e+09 1.40422e+09 1.1709e+09 1.13476e+09 1.0646e+09 1.02622e+09 1.00401e+09 1.01059e+09 9.83102e+08 9.7462e+08 9.60908e+08 1.07845e+09 9.12153e+08 7.98966e+08 9.64864e+08 7.91935e+08 7.55374e+08 7.51812e+08 7.31336e+08 7.18942e+08 6.8858e+08 9.48214e+08 7.54316e+08 6.81131e+08 6.23652e+08 7.55501e+08 6.15184e+08 6.0425e+08 5.78616e+08 5.65834e+08 5.60514e+08 5.42849e+08 6.74254e+08 5.39303e+08 1.34883e+09 5.9468e+08 5.32264e+08 5.27722e+08 5.10981e+08 5.08183e+08 5.03463e+08 4.91675e+08 4.68482e+08 4.61416e+08 4.57701e+08 4.52065e+08
threshold=240.48252105712893 0 1 367.68180847167974 2.5138889551162724 752.93331909179699 19.075641632080082 13.500000000000002 2402.5507812500005 1478.5000000000002 2 3 4 12.500000000000002 46.429647445678718 1.0000000180025095e-35 5 557.75527954101574 6 4.5000000000000009 7 17.500000000000004 3.1805555820465092 5.5000000000000009 988.75662231445324 18.500000000000004 8 9 225.31766510009768 7.5000000000000009 58.500000000000007 10 330.00148010253912 233.44059753417972 11 12 16.500000000000004 161.1885681152344 4.5000000000000009 22.247979164123539 4.5000000000000009 0.15277778357267383 13 58.500000000000007 15.500000000000002 15.500000000000002 110.50000000000001 2402.5507812500005 1215.562927246094 14 10.500000000000002 9.5000000000000018 430.09164428710943 15 1467.5000000000002 2.5000000000000004 16 17 148.68642425537112 1409.5000000000002 18 19 11.500000000000002
decision_type=2 9 9 2 2 2 2 2 2 2 9 9 9 2 2 2 9 2 9 2 9 2 2 2 2 2 9 9 2 2 2 9 2 2 9 9 2 2 2 2 2 2 9 2 2 2 2 2 2 9 2 2 2 9 2 2 9 9 2 2 9 9 2
left_child=1 4 3 7 5 6 18 8 23 13 22 -8 37 15 -14 50 54 20 35 25 -9 36 43 -2 53 44 -4 -13 62 -7 33 -32 41 61 58 -1 -15 -6 -39 -40 59 42 -22 -3 47 55 57 -19 49 -11 51 -5 -53 -25 -10 -34 -18 -12 -16 -17 -46 -20 -29
right_child=2 10 26 9 12 29 11 17 16 48 46 27 14 21 34 40 56 19 30 -21 32 -23 -24 24 -26 -27 -28 28 -30 -31 31 -33 45 -35 -36 -37 -38 38 39 -41 -42 -43 -44 -45 60 -47 -48 -49 -50 -51 -52 52 -54 -55 -56 -57 -58 -59 -60 -61 -62 -63 -64
leaf_value=3.6574153305198296 8.2944176208505791 -1.5690401857942928 11.39776794842542 40.830995375153542 0.33876304133460611 43.044261845065158 81.544752683057027 -7.8108954594449758 56.749654307877101 88.886987269346207 -7.977345568481951 0.11789478053346084 -5.2915655673600002 86.522772186423296 24.716847385955887 66.976252672831308 134.10993203430243 41.536808644442075 5.781210032758695 30.301699800704725 62.429994676788084 54.520369497747346 -4.7459055121964751 -10.549718615193198 36.017329782451213 35.332724260528124 -3.7539018797549342 17.312517877985169 12.164857426717338 19.228013495823546 31.48247073640584 9.2114957231506214 125.38235301621053 11.180947717770024 -3.9361473070952311 -2.4211930840639999 125.39654320540747 69.879985102981479 7.9017422811083566 -8.5372632857827568 59.566151951464064 26.054916046789568 33.138177810266434 4.3759136189785135 32.650716892899979 47.071334689931405 4.118780583194618 94.642753892730695 40.473791911801968 -0.53830043181834841 36.852177568128141 74.930835900658678 135.15382797035372 18.752958608847127 28.346710883081514 45.707204986517027 72.89389182061295 -5.8341833488683914 7.8440893066875521 113.87511280937302 79.206854558786546 0.23691321594133022 28.021136542111602
leaf_weight=97975 21574 396005 15532 4030 75147 11749 1253 1507 2476 219 481818 10783 191930 6156 5754 736 433 2963 74677 4157 3329 2195 288157 1653 9411 3045 33459 20710 73452 6112 5304 58013 540 35001 10795 99954 1475 593 78599 7658 1588 12191 6834 48888 629 2118 12087 597 2018 2644 5333 1824 529 24246 4818 321 2453 636464 17296 1931 6882 74226 18805
leaf_count=97975 21574 396005 15532 4030 75147 11749 1253 1507 2476 219 481818 10783 191930 6156 5754 736 433 2963 74677 4157 3329 2195 288157 1653 9411 3045 33459 20710 73452 6112 5304 58013 540 35001 10795 99954 1475 593 78599 7658 1588 12191 6834 48888 629 2118 12087 597 2018 2644 5333 1824 529 24246 4818 321 2453 636464 17296 1931 6882 74226 18805
internal_value=0.00738093 -1.85773 27.6099 36.7154 4.10714 7.08381 6.21259 30.0807 21.9387 60.9879 -4.98126 15.0659 -0.406559 68.6269 -3.4557 58.4232 50.6934 42.1843 3.72646 53.6262 34.3943 85.2111 -2.42134 16.7927 21.985 60.4947 1.05111 14.385 15.7467 34.8945 6.23908 11.0836 36.8935 4.57148 6.95418 0.587756 94.0382 3.843 6.87548 6.44226 85.498 33.6806 42.8276 -0.915766 67.4149 61.125 -6.64134 50.4449 20.6133 6.61357 48.5896 58.3955 88.4753 16.8859 37.9369 95.6864 82.5141 -6.7577 12.0509 100.936 75.4575 3.01786 22.4088
internal_weight=3.03105e+06 2.8392e+06 191846 142855 975786 588014 570153 112177 67064 30678 1.86342e+06 125003 387772 25797 225775 15971 10180 45113 445150 18273 26840 9826 733050 56884 35310 14116 48991 123750 112967 17861 247221 63317 25333 183904 33845 197929 7631 161997 86850 86257 4255 22354 10163 444893 11071 2979 1.13037e+06 3560 4881 2863 11716 6383 2353 25899 7294 861 2886 1.11828e+06 23050 2667 7511 148903 39515
internal_count=3031051 2839205 191846 142855 975786 588014 570153 112177 67064 30678 1863419 125003 387772 25797 225775 15971 10180 45113 445150 18273 26840 9826 733050 56884 35310 14116 48991 123750 112967 17861 247221 63317 25333 183904 33845 197929 7631 161997 86850 86257 4255 22354 10163 444893 11071 2979 1130369 3560 4881 2863 11716 6383 2353 25899 7294 861 2886 1118282 23050 2667 7511 148903 39515
cat_boundaries=0 4 8 12 15 18 21 22 26 30 34 38 41 44 47 50 53 54 58 61 65
cat_threshold=17476 18025602 2718695446 260 537919488 25167872 33816610 4 1494221233 343933009 13762664 146 0 0 524288 16448 128 2 1048576 0 2 194 0 8388608 32 4 1342718032 64 3288334596 1 17476 65538 2684354576 4 1024 1180672 536870916 256 0 16780288 524288 0 0 2148007938 536870912 2048 2 0 16777216 262144 0 0 32 4 2254969346 7102500 134262528 1128 0 0 2 64 1181698 536870916 256
is_linear=0
shrinkage=0.05


Tree=8
num_leaves=64
num_cat=22
split_feature=8 3 6 2 2 2 3 3 2 8 16 4 7 8 2 2 10 10 15 2 3 3 2 4 4 2 3 8 7 16 2 2 8 2 3 7 14 0 10 3 3 3 2 2 2 8 10 9 3 2 2 16 4 0 4 10 8 16 0 8 2 4 2
split_gain=5.62989e+10 2.76754e+10 1.86199e+10 9.0142e+09 7.52786e+09 5.97174e+09 3.93321e+09 3.82628e+09 3.52707e+09 3.02331e+09 2.56776e+09 2.46815e+09 2.05785e+09 1.89138e+09 1.87485e+09 1.86223e+09 1.6041e+09 1.46128e+09 1.42903e+09 1.16906e+09 9.92504e+08 9.86625e+08 9.41113e+08 1.15549e+09 1.92389e+09 9.2929e+08 9.22908e+08 1.42759e+09 8.95434e+08 9.10308e+08 8.91567e+08 7.91748e+08 7.79784e+08 1.39157e+09 9.32209e+08 7.56811e+08 7.39821e+08 7.21777e+08 6.5354e+08 6.50885e+08 8.38467e+08 6.33798e+08 6.31346e+08 6.25734e+08 5.60901e+08 1.41952e+09 8.29449e+08 5.57094e+08 5.40787e+08 5.22006e+08 4.83065e+08 4.82584e+08 4.81459e+08 5.32856e+08 4.60062e+08 5.36534e+08 4.53052e+08 4.5298e+08 4.5235e+08 4.26093e+08 4.20916e+08 3.99609e+08 6.65577e+08
threshold=275.03569030761724 900.67916870117199 1473.5000000000002 0 1 2 457.29470825195318 320.15390014648443 3 557.75527954101574 1.0000000180025095e-35 614.06881713867199 2742.3537597656255 23.896688461303714 4 5 58.500000000000007 58.500000000000007 1.0000000180025095e-35 6 26.095101356506351 547.77328491210949 7 430.09164428710943 472.08653259277349 8 355.52334594726568 1215.562927246094 6400.9545898437509 1.0000000180025095e-35 9 10 46.429647445678718 11 1791.4313964843752 4447.3005371093759 1.0000000180025095e-35 12 117.50000000000001 858.09448242187511 870.55749511718761 117.599666595459 13 14 15 23.896688461303714 8.5000000000000018 51.500000000000007 19.514798164367679 16 17 1.0000000180025095e-35 217.02270507812503 18 35.932426452636726 45.500000000000007 248.15621185302737 1.0000000180025095e-35 19 333.05245971679693 20 40.691768646240241 21
decision_type=2 2 2 9 9 9 2 2 9 2 2 2 2 2 9 9 2 2 2 9 2 2 9 2 2 9 2 2 2 2 9 9 2 9 2 2 2 9 2 2 2 2 9 9 9 2 2 2 2 9 9 2 2 9 2 2 2 2 9 2 9 2 9
left_child=1 3 22 6 9 30 13 20 12 16 25 17 -7 19 21 -15 28 32 26 35 -5 50 23 57 47 -11 -12 54 29 -4 -3 61 33 -10 60 36 -1 38 -8 -27 -41 -17 -6 -22 45 46 -39 -25 -21 -16 -9 -36 53 -34 -28 -56 -54 -2 -31 -59 -35 62 -19
right_child=2 5 4 7 42 8 37 14 11 10 18 -13 -14 15 49 41 -18 31 -20 48 43 -23 -24 24 -26 39 27 -29 -30 58 -32 -33 52 34 51 -37 -38 44 -40 40 -42 -43 -44 -45 -46 -47 -48 -49 -50 -51 -52 -53 56 -55 55 -57 -58 59 -60 -61 -62 -63 -64
leaf_value=42.299864111438183 53.308436151030321 3.7341995496316431 6.4579414379562117 -11.032534586882624 8.7331727499216942 42.976318772385952 -0.45630096891304045 5.6007413312989556 2.1985460782283339 123.7177463681199 42.391424531480062 -2.5441579965974928 16.922004222242364 -7.0377109083952298 -7.6047400210477925 16.707122047170664 51.187875426377929 84.406756697230932 27.480527568863188 -12.684241308429716 -4.5590036888199945 2.1973558347614301 31.312668858641263 117.21546896395367 41.919039851022674 20.334276486336918 32.964092799951338 99.99517607782856 -9.974478932553918 79.702822864695506 -3.0852208716765883 15.300302959297751 23.956323945383375 12.198568320719026 15.258878874070573 0.30578035996711889 9.2113985075377265 3.6540771134119967 31.2389943939116 64.808506296387378 28.959130364761876 40.250712810700833 -4.1173985883781015 -7.7927355332806059 9.4763251853504737 80.662322903201016 55.201475779986701 76.907612032621458 -3.6866040858443498 -4.1415672515934032 -3.3505521152244064 33.530351216130974 9.723799413002455 10.58134573996983 56.027400297124316 102.45197248050873 23.616116675908266 53.125881244460722 24.615631888688252 73.247434260643544 4.8566012908707119 25.993418548054105 13.537813467569151
leaf_weight=1977 16499 112929 12284 185186 17145 12839 27129 16120 68367 235 6375 34860 18498 6956 165576 7795 2831 780 5613 18739 201361 168831 2631 2541 1885 20044 1724 2431 4073 383 83256 53377 18103 52020 8451 38614 11607 3785 1730 1995 8941 4514 21574 583243 129578 969 983 1295 153450 317733 230227 6314 65315 12746 4128 733 6448 4047 9459 7528 31319 12133 596
leaf_count=1977 16499 112929 12284 185186 17145 12839 27129 16120 68367 235 6375 34860 18498 6956 165576 7795 2831 780 5613 18739 201361 168831 2631 2541 1885 20044 1724 2431 4073 383 83256 53377 18103 52020 8451 38614 11607 3785 1730 1995 8941 4514 21574 583243 129578 969 983 1295 153450 317733 230227 6314 65315 12746 4128 733 6448 4047 9459 7528 31319 12133 596
internal_value=0.0130504 -1.57649 29.228 -4.09197 19.7215 7.9923 2.64277 -5.56208 11.4809 28.366 35.5609 10.1191 27.5879 -1.3878 -3.21128 13.6466 15.4336 11.4333 49.0774 -2.67861 -7.74009 -0.746888 60.5374 62.7847 83.2848 26.4658 56.9534 67.2492 11.5699 15.5359 0.840198 18.0473 9.7893 7.67607 11.4919 3.87595 14.0273 8.62472 1.44333 25.6794 35.4995 25.3208 1.5737 -6.96299 10.1555 25.451 14.2823 103.61 -4.66554 -5.32814 -2.76472 23.0725 13.2176 18.4414 55.159 63.0298 10.9721 58.6292 26.8661 66.2128 9.44149 28.8685 54.4256
internal_weight=3.03085e+06 2.87445e+06 156394 2.2761e+06 119968 598351 407826 1.86828e+06 402166 81249 52219 370829 31337 243652 898487 19265 29030 335969 21004 224387 969790 415178 36426 33795 5721 31215 15391 9016 26199 22126 196185 66886 269083 166471 98104 52198 13584 164174 28859 30980 10936 12309 38719 784604 135315 5737 4768 3836 172189 483309 246347 14765 102612 30849 6585 4861 71763 28074 9842 11575 83339 13509 1376
internal_count=3030848 2874454 156394 2276103 119968 598351 407826 1868277 402166 81249 52219 370829 31337 243652 898487 19265 29030 335969 21004 224387 969790 415178 36426 33795 5721 31215 15391 9016 26199 22126 196185 66886 269083 166471 98104 52198 13584 164174 28859 30980 10936 12309 38719 784604 135315 5737 4768 3836 172189 483309 246347 14765 102612 30849 6585 4861 71763 28074 9842 11575 83339 13509 1376
cat_boundaries=0 3 7 11 14 18 21 24 28 32 36 40 43 44 48 52 55 59 63 64 65 68 72
cat_threshold=1092 1246338 537657350 537919488 25167872 33816610 4 2426601472 69214744 1087524960 192 64 8388738 128 152322481 3598762321 2218803632 6 1092 2 536870912 1088 1049600 536870912 0 16777218 2 4 536870912 8388608 0 4 268435456 67109384 1079132256 128 16384 2147485696 33554436 256 1048576 2164262912 2181038096 292 268976208 68 3288334404 81 1207959712 1375752256 301990064 7 0 0 524288 2160265216 23601160 134220808 1120 0 2147483729 0 4 386 258 16384 131072 67108866 0 0 0 256
is_linear=0
shrinkage=0.05


Tree=9
num_leaves=64
num_cat=6
split_feature=7 3 0 3 10 11 3 5 11 5 6 5 7 7 0 6 5 7 3 0 6 11 3 3 11 0 11 6 3 10 7 3 7 11 3 7 11 3 3 3 3 7 11 0 11 3 12 10 7 7 3 3 7 7 3 11 7 7 3 5 6 3 0
split_gain=4.54937e+10 1.32622e+10 6.99707e+09 6.53969e+09 3.99901e+09 3.34871e+09 3.12613e+09 2.50693e+09 2.20176e+09 1.99829e+09 1.68809e+09 1.6319e+09 1.43228e+09 1.71755e+09 1.18892e+09 1.17851e+09 1.12849e+09 1.04653e+09 1.03663e+09 8.70731e+08 1.8836e+09 1.25998e+09 8.56976e+08 4.33689e+09 8.42429e+08 8.14042e+08 8.40677e+08 8.26846e+08 8.03441e+08 9.01411e+08 8.33083e+08 7.89312e+08 6.39432e+08 6.38453e+08 6.32894e+08 5.4802e+08 5.41918e+08 5.26961e+08 5.25493e+08 5.17653e+08 8.77924e+08 1.26381e+09 5.04845e+08 7.10514e+08 5.02601e+08 8.57064e+08 6.46422e+08 4.99211e+08 5.70603e+08 4.85432e+08 8.79306e+08 4.84727e+08 4.84581e+08 4.77657e+08 7.14406e+08 8.25447e+08 4.76472e+08 4.72116e+08 4.56814e+08 4.47211e+08 4.45073e+08 4.42906e+08 4.27873e+08
threshold=1.0000000180025095e-35 457.29470825195318 0 1791.4313964843752 58.500000000000007 12.500000000000002 70.793144226074233 2.7916668653488164 7.5000000000000009 3.1805555820465092 1426.5000000000002 6.3750000000000009 5731.7502441406259 5758.9528808593759 1 1418.5000000000002 2.2083333730697636 9507.2504882812518 1040.8699951171877 2 1451.5000000000002 4.5000000000000009 870.55749511718761 858.09448242187511 17.500000000000004 3 18.500000000000004 1419.5000000000002 1187.0635986328127 58.500000000000007 4719.5407714843759 489.15802001953131 6433.8747558593759 8.5000000000000018 766.24462890625011 5244.2502441406259 6.5000000000000009 671.92321777343761 1213.7110595703127 858.09448242187511 870.55749511718761 9807.3745117187518 7.5000000000000009 4 16.500000000000004 2006.1086425781252 4.5000000000000009 114.50000000000001 2061.474731445313 2326.9023437500005 1928.8721313476565 51.178995132446296 4120.7121582031259 6312.3891601562509 168.9408874511719 17.500000000000004 1778.898620605469 176.09584045410159 2409.0056152343755 9.0694446563720721 1478.5000000000002 19.514798164367679 5
decision_type=2 2 9 2 2 2 2 2 2 2 2 2 2 2 9 2 2 2 2 9 2 2 2 2 2 9 2 2 2 2 2 2 2 2 2 2 2 2 2 2 2 2 2 9 2 2 2 2 2 2 2 2 2 2 2 2 2 2 2 2 2 2 9
left_child=5 4 11 9 6 15 61 8 49 28 14 17 51 -14 -8 36 35 38 -7 20 -18 -22 23 -19 -15 -20 27 -27 29 30 37 -31 -26 -30 -11 -12 -1 62 47 -13 41 -41 43 -17 -29 46 -46 -3 56 50 57 -6 -23 54 55 60 -49 -5 -52 -54 -37 -2 -4
right_child=1 2 3 7 12 18 10 -9 -10 34 16 39 13 24 -16 42 19 22 25 -21 21 52 -24 -25 32 26 -28 44 33 31 -32 -33 -34 -35 -36 53 -38 -39 -40 40 -42 -43 -44 -45 45 -47 -48 48 -50 -51 58 -53 59 -55 -56 -57 -58 -59 -60 -61 -62 -63 -64
leaf_value=13.862039281345929 -11.12630478425236 -2.0061555061308147 14.171348769359732 136.26320667266845 -5.2983172670518632 7.2862732818842266 53.883324553017047 11.230614214687296 21.335828783933366 -2.3857992122644101 -3.0781264728686839 -6.7003359281300963 70.360145926755848 7.0252952825633237 -7.1376130927860322 22.190416563838742 45.636149249336938 2.0052289705398465 44.875691510881936 -5.8753398380089878 20.158335375971077 -7.7529334168777568 3.6757718983424357 72.518177248924005 41.628702934043901 40.970629602195459 15.485383347004868 24.613975352126687 19.060813921057669 5.5016922260951961 9.3994879221030061 17.310983636434383 4.6869458429546063 7.5019974637349423 3.6785085617553044 59.611302254301961 31.702402771031956 5.3599037717751736 4.1979497241733981 -5.8518714618598136 -2.8300292574217658 55.088250964568694 16.779406976211146 6.5932786014084401 54.767402672454956 26.466773091196242 5.4910029612023541 21.244323959025195 2.7313031763731352 43.203223767794583 25.982714724271144 3.0208203851300888 -1.2901484938975534 -1.0376230164077753 1.2146232762602904 50.035546976499347 87.187290591068574 53.313279569935276 64.093459578491036 18.536522666214278 8.2543965209709587 -7.716400398506174 -1.2089083569549213
leaf_weight=5899 170555 235644 4826 579 23566 5642 2128 15298 10544 89427 280218 133663 1264 24836 1277 9182 2150 9402 7796 661112 6102 35658 52783 2839 3456 13763 11714 45161 23295 26426 70961 30458 1772 24523 82914 446 15291 98874 48447 1799 97765 1614 60993 35682 5732 11944 753 2294 9588 5751 1017 68133 41374 73898 21439 1626 311 244 3469 3054 7767 215621 69607
leaf_count=5899 170555 235644 4826 579 23566 5642 2128 15298 10544 89427 280218 133663 1264 24836 1277 9182 2150 9402 7796 661112 6102 35658 52783 2839 3456 13763 11714 45161 23295 26426 70961 30458 1772 24523 82914 446 15291 98874 48447 1799 97765 1614 60993 35682 5732 11944 753 2294 9588 5751 1017 68133 41374 73898 21439 1626 311 244 3469 3054 7767 215621 69607
internal_value=-0.00248666 -1.75575 2.35379 6.37658 -4.63529 21.3971 -5.33511 26.7177 37.6841 4.93681 -4.01626 -1.41309 4.03618 13.2661 31.136 15.9726 -4.12173 0.695934 28.1203 -5.25239 -0.589608 -1.74285 6.44005 18.3594 10.8654 29.3339 27.9653 29.8587 7.11227 6.15627 4.83619 11.8249 29.1078 13.133 0.531766 -1.92301 26.736 2.96773 -0.5647 -4.65794 -1.95979 22.9673 13.818 9.79189 27.4537 34.4124 49.0459 -1.4957 8.36937 53.2693 64.1724 0.882857 -3.41159 1.15454 6.33378 17.4882 29.12 111.68 55.4543 0.072784 11.044 -9.22239 -0.209942
internal_weight=3.03137e+06 2.80181e+06 1.15436e+06 558213 1.64745e+06 229552 1.52442e+06 36902 21604 521311 1.13825e+06 596149 123027 31328 3405 127047 1.13484e+06 361308 102505 749450 88338 86188 65024 12241 30064 96863 89067 77353 348970 301152 244268 56884 5228 47818 172341 385394 21190 173307 296284 234841 101178 3413 105857 44864 63590 18429 6485 247837 12193 11060 5309 91699 80086 105176 31278 9839 2605 823 4486 44428 8213 386176 74433
internal_count=3031366 2801814 1154362 558213 1647452 229552 1524425 36902 21604 521311 1138249 596149 123027 31328 3405 127047 1134844 361308 102505 749450 88338 86188 65024 12241 30064 96863 89067 77353 348970 301152 244268 56884 5228 47818 172341 385394 21190 173307 296284 234841 101178 3413 105857 44864 63590 18429 6485 247837 12193 11060 5309 91699 80086 105176 31278 9839 2605 823 4486 44428 8213 386176 74433
cat_boundaries=0 1 2 3 4 5 6
cat_threshold=263 17 16 384 160 64
is_linear=0
shrinkage=0.05


Tree=10
num_leaves=64
num_cat=13
split_feature=8 3 6 3 3 5 3 0 0 7 3 3 5 11 11 0 7 11 16 7 8 1 11 11 8 0 11 14 0 11 7 7 11 12 8 7 7 8 4 8 0 7 4 7 11 1 3 8 13 0 12 11 8 12 0 14 0 5 11 0 11 0 4
split_gain=4.82023e+10 2.21666e+10 1.59591e+10 5.83044e+09 4.3901e+09 4.24636e+09 4.03359e+09 3.80344e+09 2.71372e+09 2.43561e+09 2.08086e+09 2.0138e+09 1.92151e+09 1.86302e+09 1.75662e+09 1.71156e+09 1.67824e+09 1.48627e+09 1.41579e+09 1.25488e+09 1.2219e+09 1.1411e+09 1.08022e+09 9.79398e+08 9.76675e+08 9.20583e+08 9.09983e+08 8.79086e+08 1.30466e+09 8.0541e+08 7.65905e+08 7.38833e+08 7.38126e+08 6.90146e+08 6.72719e+08 6.65562e+08 6.42036e+08 6.14773e+08 7.0051e+08 8.00943e+08 1.20434e+09 6.14294e+08 1.5489e+09 9.45466e+08 6.09643e+08 6.03216e+08 5.98369e+08 5.80607e+08 5.49781e+08 5.33779e+08 5.26347e+08 5.16628e+08 4.97182e+08 4.80544e+08 4.78785e+08 4.78362e+08 4.67591e+08 4.53838e+08 4.53305e+08 4.50706e+08 4.50257e+08 4.49184e+08 4.28084e+08
threshold=275.03569030761724 900.67916870117199 1474.5000000000002 452.43869018554693 858.09448242187511 5.4583337306976327 1489.0447998046877 0 1 9807.3745117187518 29.147031784057621 316.28817749023443 1.3194444775581362 15.500000000000002 12.500000000000002 2 4945.4492187500009 17.500000000000004 1.0000000180025095e-35 34.596418380737312 23.896688461303714 3 7.5000000000000009 5.5000000000000009 1215.562927246094 4 16.500000000000004 1.0000000180025095e-35 5 18.500000000000004 448.75233459472662 5731.7502441406259 15.500000000000002 5.5000000000000009 351.56259155273443 2479.630737304688 5353.4367675781259 262.59442138671881 222.93254089355472 29.116169929504398 6 258.75454711914068 39.855720520019538 144.81372070312503 11.500000000000002 7 2409.0056152343755 1496.5925903320315 1.0000000180025095e-35 8 4.5000000000000009 16.500000000000004 20.945630073547367 4.5000000000000009 9 1.0000000180025095e-35 10 3.0416666269302373 19.500000000000004 11 9.5000000000000018 12 143.58115386962893
decision_type=2 2 2 2 2 2 2 9 9 2 2 2 2 2 2 9 2 2 2 2 2 1 2 2 2 9 2 2 9 2 2 2 2 2 2 2 2 2 2 2 9 2 2 2 2 1 2 2 2 9 2 2 2 2 9 2 9 2 2 9 2 9 2
left_child=1 3 14 10 11 6 15 -5 22 13 -1 21 20 -6 18 -3 27 26 34 24 49 -4 46 47 29 30 32 28 45 50 -22 -25 -16 -20 -2 55 -27 38 39 40 41 42 43 -10 -41 -9 -8 -23 -30 -12 62 -38 -14 58 -7 56 -13 -29 -33 -17 -47 -49 -15
right_child=2 5 4 7 9 54 8 16 37 -11 12 35 52 19 17 59 -18 -19 33 -21 25 23 -24 31 -26 36 -28 57 48 -31 -32 53 -34 -35 -36 -37 51 -39 -40 44 -42 -43 -44 -45 -46 60 -48 61 -50 -51 -52 -53 -54 -55 -56 -57 -58 -59 -60 -61 -62 -63 -64
leaf_value=-9.7558619464294409 25.483794546010209 14.923746488094849 -5.4197982742022663 -5.266723143711725 18.037402526632576 11.505387121784677 34.235087152398059 13.605310759587198 37.595922388129289 68.509215220321963 -3.7103483147263248 63.452462556524928 -6.2412294287271264 66.593739662156352 84.828384487699012 1.4740513193037947 7.0641090934739799 38.965917865154033 79.501586573600363 3.7978977879642111 38.851197853678563 6.4614202171109163 18.122320592108117 1.020480080927213 99.347155188670101 5.9743017380724188 111.17856397240317 1.1734651458138652 69.868183512373946 17.378044185860908 -0.24899892745280328 34.926715179059528 55.976746802689185 36.722645876641529 46.976646885123763 -5.0767258318467379 17.267069483430777 36.256624700649127 10.275161563825129 15.343841589900959 1.5148213961114698 15.081062362125671 20.246120631080672 126.08842447907026 31.933457413976438 90.227917634527842 58.388578200702526 76.63949414470855 3.9547743682473353 0.90301522797001033 22.244955341103626 46.600802109690811 -2.4979017659709797 15.030652407130635 -1.2663902270357354 4.6122962631202586 16.418513170055757 -2.9017806566812649 7.5755305003080267 6.0020534485866817 37.600134905691299 21.77274494562889 43.438141493758977
leaf_weight=235879 5234 39340 4849 230350 20619 7762 7398 1493 573 4082 254063 686 853541 3988 5080 116886 143922 3005 4165 1926 1320 14405 7480 2615 836 5221 1800 159969 318 2372 24436 17557 3935 1219 11963 17304 3504 2771 117356 10128 15079 17094 4323 638 12220 641 3925 404 57872 83243 1449 2626 98991 4904 131383 9736 2306 119242 1658 103753 1111 4296 3998
leaf_count=235879 5234 39340 4849 230350 20619 7762 7398 1493 573 4082 254063 686 853541 3988 5080 116886 143922 3005 4165 1926 1320 14405 7480 2615 836 5221 1800 159969 318 2372 24436 17557 3935 1219 11963 17304 3504 2771 117356 10128 15079 17094 4323 638 12220 641 3925 404 57872 83243 1449 2626 98991 4904 131383 9736 2306 119242 1658 103753 1111 4296 3998
internal_value=0.00195233 -1.46814 27.0353 -3.71758 18.2378 7.09826 9.41796 0.0226252 14.7757 31.9496 -5.42855 11.5671 -4.65932 27.7084 56.0343 5.31717 2.53709 70.0747 47.4411 41.3951 -1.62452 17.646 32.8501 20.086 47.1225 6.98732 78.718 0.624509 6.03943 43.4239 1.75436 26.2643 72.2356 69.8168 40.4354 1.30706 18.8429 12.887 12.5227 16.9148 12.4694 19.7599 34.2475 84.2236 24.4152 36.8458 42.6081 11.4404 4.31436 -2.57191 49.9717 29.8338 -5.85221 29.0013 -0.553192 9.98593 27.4711 -0.566941 32.5667 3.60347 56.859 26.6999 55.0021
internal_weight=3.03224e+06 2.87585e+06 156391 2.27774e+06 119990 598109 458964 714918 198985 39270 1.56282e+06 80720 1.32694e+06 35188 36401 259979 484568 13820 22581 14569 374413 50688 18803 45839 12643 37107 10815 340646 61435 11807 25756 26734 9015 5384 17197 30032 11351 180182 177411 60055 37707 22628 5534 1211 22348 3245 11323 19105 58190 337306 9435 6130 952532 24119 139145 12728 2992 279211 19215 220639 1752 4700 7986
internal_count=3032242 2875851 156391 2277742 119990 598109 458964 714918 198985 39270 1562824 80720 1326945 35188 36401 259979 484568 13820 22581 14569 374413 50688 18803 45839 12643 37107 10815 340646 61435 11807 25756 26734 9015 5384 17197 30032 11351 180182 177411 60055 37707 22628 5534 1211 22348 3245 11323 19105 58190 337306 9435 6130 952532 24119 139145 12728 2992 279211 19215 220639 1752 4700 7986
cat_boundaries=0 1 2 3 4 5 6 7 8 9 10 11 12 13
cat_threshold=2 225 160 4 39 64 20 2 195 196 2 258 5
is_linear=0
shrinkage=0.05


Tree=11
num_leaves=64
num_cat=19
split_feature=8 3 2 2 2 2 8 5 3 3 4 3 5 3 6 5 2 3 2 4 2 16 7 8 16 8 2 7 2 10 10 5 2 8 2 2 8 16 2 2 9 7 6 2 10 12 4 2 16 3 7 8 2 3 8 2 16 12 7 7 12 2 3
split_gain=4.3285e+10 2.01514e+10 1.44843e+10 6.19095e+09 6.09787e+09 5.32186e+09 3.66739e+09 3.13718e+09 2.54086e+09 2.44599e+09 2.28662e+09 2.2236e+09 1.54246e+09 1.43219e+09 1.41407e+09 1.36439e+09 1.24891e+09 1.13784e+09 1.08467e+09 1.04619e+09 9.90992e+08 9.1378e+08 1.05099e+09 8.76415e+08 8.5532e+08 9.97695e+08 8.50974e+08 8.09234e+08 7.97036e+08 7.79906e+08 7.33255e+08 6.63958e+08 1.79642e+09 6.54772e+08 6.47165e+08 6.40949e+08 6.30854e+08 1.67006e+09 7.40212e+08 6.0393e+08 5.55027e+08 5.31026e+08 6.6163e+08 5.20464e+08 5.0172e+08 4.88724e+08 4.69905e+08 4.35782e+08 4.35643e+08 4.30577e+08 4.21153e+08 4.08041e+08 3.92405e+08 3.89773e+08 3.88904e+08 3.50809e+08 3.46465e+08 3.45493e+08 3.42614e+08 3.30661e+08 3.26508e+08 3.23193e+08 3.22405e+08
threshold=275.03569030761724 803.56478881835949 0 1 2 3 988.75662231445324 3.3472224473953252 232.76158142089847 423.96304321289068 430.09164428710943 2507.7592773437505 2.736111164093018 355.52334594726568 1456.5000000000002 4.1527779102325448 4 46.201017379760749 5 895.93588256835949 6 1.0000000180025095e-35 6461.0800781250009 1496.5925903320315 1.0000000180025095e-35 1215.562927246094 7 34.596418380737312 8 58.500000000000007 58.500000000000007 0.29166668653488165 9 3665.6276855468755 10 11 19.898343086242679 1.0000000180025095e-35 12 13 51.500000000000007 4486.7238769531259 1545.5000000000002 14 108.50000000000001 4.5000000000000009 37.47290229797364 15 1.0000000180025095e-35 19.514798164367679 8524.4233398437518 302.43742370605474 16 551.23083496093761 46.429647445678718 17 1.0000000180025095e-35 3.5000000000000004 2440.1057128906255 10545.757324218752 4.5000000000000009 18 489.15802001953131
decision_type=2 2 9 9 9 9 2 2 2 2 2 2 2 2 2 2 9 2 9 2 9 2 2 2 2 2 9 2 9 2 2 2 9 2 9 9 2 2 9 9 2 2 2 9 2 2 2 9 2 2 2 2 9 2 2 9 2 2 2 2 2 9 2
left_child=1 4 10 6 9 7 15 11 44 16 23 19 20 14 57 21 -1 -18 27 29 -10 -4 30 51 58 -26 -7 -9 -20 39 60 32 46 47 53 -31 41 -38 45 -3 -12 42 55 -14 49 54 -11 -5 -13 -6 -41 -2 -46 -22 -39 -19 -53 -8 -15 -16 -23 -33 -34
right_child=2 5 3 33 8 26 13 18 12 31 40 48 43 24 59 -17 17 36 28 -21 34 22 -24 -25 25 -27 -28 -29 -30 35 -32 61 62 -35 -36 -37 37 38 -40 50 -42 -43 -44 -45 52 -47 -48 -49 -50 -51 -52 56 -54 -55 -56 -57 -58 -59 -60 -61 -62 -63 -64
leaf_value=-6.5856823804132452 35.941028650495774 77.936017426138747 12.298991281517127 6.1797562524479037 -9.906348101593661 3.0085318905869363 62.638605256544338 8.3500612691702418 27.174673464939829 20.903533552572515 106.47390570399847 24.636890609946587 -3.6190221944062921 31.537627325128309 21.419820441664918 3.1690078596893176 -5.3544061772776841 -8.0985482805743114 80.730156387855857 26.033974291812498 -1.1144218668546368 33.47280614668648 -8.5015369317088219 104.89460850145413 44.840013052930793 83.872893876089648 -3.0252078364084585 -3.2232501437552572 8.2928446811894414 25.10222277035049 60.240608231542609 5.2916516709241836 5.1888538981554788 37.657875052889686 -3.3400424016424197 13.100709885284113 3.2994782321980347 18.253433264652625 13.282753448373562 9.6759628519094143 66.945321295397889 -0.59384138462207647 96.705508954091414 -6.6231394394976952 22.931164571152149 8.3135055040260237 71.745084410371646 -4.4417915983494973 53.218044813212181 -6.8495271281007293 -6.3633417507100249 46.853100216982881 -1.3743156547112507 3.2284999340701845 66.541504753608208 8.5459057927229232 59.790063012246094 35.737516966582334 54.988465178028108 36.128801536474832 10.353644364733256 -1.428047789947418 11.686512369840015
leaf_weight=80219 4241 312 13109 19021 144827 117445 3363 19679 3019 667 2549 2096 276039 5951 19158 14972 52141 3579 373 11853 149805 8915 1548 751 3747 2908 116286 64972 47687 14026 2369 62694 38066 1243 238341 54420 19378 510 2625 223402 1364 74974 205 302061 2127 609 1427 19595 3665 563137 4169 10964 7449 78861 2288 27055 9808 1851 2110 4773 1843 25039 38299
leaf_count=80219 4241 312 13109 19021 144827 117445 3363 19679 3019 667 2549 2096 276039 5951 19158 14972 52141 3579 373 11853 149805 8915 1548 751 3747 2908 116286 64972 47687 14026 2369 62694 38066 1243 238341 54420 19378 510 2625 223402 1364 74974 205 302061 2127 609 1427 19595 3665 563137 4169 10964 7449 78861 2288 27055 9808 1851 2110 4773 1843 25039 38299
internal_value=-0.00651115 -1.39861 25.6313 18.2497 -3.72862 6.11978 25.754 9.31855 -5.02866 1.61251 57.0644 12.0432 -3.45933 35.9149 29.4946 15.3364 -1.38264 0.893931 2.87371 11.4679 -1.33212 21.8931 30.4632 51.6744 48.6301 61.897 0.00662073 -0.532708 8.87188 10.8852 35.0582 6.36295 9.70486 1.93981 -1.51696 15.5657 3.37676 10.4513 33.4261 9.47944 92.697 1.67787 7.20072 -5.18887 -7.32109 48.7631 55.2883 0.790494 42.8201 -7.47486 9.38171 50.0761 4.04706 0.383324 57.7409 6.60144 52.9619 53.0894 37.6766 24.3536 29.5123 3.37429 8.4465
internal_weight=3.03198e+06 2.87583e+06 156153 126476 2.19544e+06 680385 86617 446654 1.76567e+06 429775 29677 313943 1.04813e+06 43861 29145 42756 263583 183364 132711 308182 470026 27784 14675 25764 14716 6655 233731 84651 48060 296329 13127 166192 78459 39859 467007 68446 131223 25410 6032 227883 3913 105813 30839 578100 717540 3407 2094 38616 5761 707964 227571 25013 9576 228666 2798 30634 20772 5214 8061 23931 10758 87733 76365
internal_count=3031979 2875826 156153 126476 2195441 680385 86617 446654 1765666 429775 29677 313943 1048126 43861 29145 42756 263583 183364 132711 308182 470026 27784 14675 25764 14716 6655 233731 84651 48060 296329 13127 166192 78459 39859 467007 68446 131223 25410 6032 227883 3913 105813 30839 578100 717540 3407 2094 38616 5761 707964 227571 25013 9576 228666 2798 30634 20772 5214 8061 23931 10758 87733 76365
cat_boundaries=0 4 7 10 14 17 21 24 27 29 32 36 40 43 45 49 53 57 59 62
cat_threshold=536870912 16779264 262144 4 1048576 8388608 33554466 1140 1246339 537657350 1860040 2432829570 2252341278 276 52 196610 524292 1048576 2432698368 2185232400 256 0 2147483648 33554560 268436480 512 1074937952 0 128 0 1048704 524292 17973376 346062928 2218940465 327 16384 2176 33554436 256 0 0 2 0 130 956580224 4068491328 2488295601 23 268976144 2097220 3288334540 83 1342701568 2348810240 33554464 33 0 1 16 130 524290
is_linear=0
shrinkage=0.05


Tree=12
num_leaves=64
num_cat=9
split_feature=7 2 4 3 3 3 6 3 2 11 11 2 2 4 16 11 2 11 2 3 7 3 4 3 11 16 4 11 5 11 15 3 15 2 2 3 4 10 3 7 7 6 10 4 3 5 11 15 4 11 3 2 15 3 10 11 10 3 4 7 11 11 7
split_gain=3.3937e+10 1.59108e+10 1.50985e+10 6.80023e+09 4.0009e+09 3.44393e+09 3.08211e+09 2.43255e+09 3.26607e+09 1.95761e+09 1.91914e+09 1.83071e+09 1.71698e+09 1.46589e+09 1.46262e+09 1.22321e+09 1.7024e+09 1.13307e+09 1.13046e+09 1.12634e+09 3.46932e+09 1.48998e+09 1.05419e+09 1.05295e+09 1.24516e+09 1.01539e+09 9.87412e+08 9.48181e+08 8.77216e+08 8.68938e+08 9.83134e+08 8.56461e+08 7.78221e+08 7.50615e+08 7.19455e+08 6.98087e+08 6.70436e+08 6.44224e+08 6.38367e+08 6.13408e+08 5.5555e+08 8.12428e+08 5.55278e+08 5.54421e+08 6.65479e+08 5.51982e+08 5.36301e+08 5.27564e+08 5.23338e+08 5.13904e+08 5.11599e+08 5.07657e+08 5.07431e+08 5.01619e+08 4.95556e+08 4.88571e+08 4.83848e+08 4.83248e+08 4.79389e+08 4.74628e+08 4.50499e+08 4.35495e+08 5.1299e+08
threshold=1.0000000180025095e-35 0 330.00148010253912 1791.4313964843752 57.307514190673835 341.68363952636724 1446.5000000000002 473.49201965332037 1 8.5000000000000018 11.500000000000002 2 3 430.09164428710943 1.0000000180025095e-35 17.500000000000004 4 12.500000000000002 5 814.65069580078136 9807.3745117187518 870.55749511718761 378.42330932617193 128.34932708740237 8.5000000000000018 1.0000000180025095e-35 28.619206428527836 17.500000000000004 2.37500011920929 5.5000000000000009 1.0000000180025095e-35 288.24061584472662 1.0000000180025095e-35 6 7 803.56478881835949 472.08653259277349 178.50000000000003 560.19741821289074 10531.849609375002 4447.3005371093759 1540.5000000000002 117.50000000000001 70.305130004882827 900.67916870117199 3.0416666269302373 16.500000000000004 1.0000000180025095e-35 201.21038055419925 15.500000000000002 19.514798164367679 8 1.0000000180025095e-35 21.217695236206058 59.500000000000007 19.500000000000004 57.500000000000007 989.49786376953136 311.11146545410162 6312.3891601562509 5.5000000000000009 7.5000000000000009 2101.638793945313
decision_type=2 9 2 2 2 2 2 2 9 2 2 9 9 2 2 2 9 2 9 2 2 2 2 2 2 2 2 2 2 2 2 2 2 9 9 2 2 2 2 2 2 2 2 2 2 2 2 2 2 2 2 9 2 2 2 2 2 2 2 2 2 2 2
left_child=2 3 10 4 50 53 23 8 15 29 33 -7 14 17 -12 22 47 25 26 37 34 -22 40 24 -6 -4 -9 46 38 -5 61 -10 54 43 52 45 56 -20 -13 -33 41 60 -40 -1 -45 -28 49 55 -42 -19 -2 -44 -21 -3 -16 59 -15 -30 -14 -17 -8 62 -31
right_child=1 5 13 9 6 11 7 18 31 -11 12 28 58 36 32 16 -18 27 19 20 21 -23 -24 -25 -26 -27 35 -29 57 30 -32 39 -34 -35 -36 -37 -38 -39 42 -41 48 -43 51 44 -46 -47 -48 -49 -50 -51 -52 -53 -54 -55 -56 -57 -58 -59 -60 -61 -62 -63 -64
leaf_value=-0.019229730199462114 -10.527270970298401 -9.2354417838033509 28.829573156028694 18.224289155021712 37.836708621740684 -5.0139974765653097 30.054215008854072 7.6572531326311566 -5.4521511986197746 11.903643656840657 15.405511173073279 -0.52699442431043353 13.573251155946913 99.00124984206343 39.124621377886996 53.650770792985526 -2.0349016995532518 74.663647126676253 1.8197269912503817 11.987375062920666 61.821474391201868 0.12008207564303906 34.921974011901987 5.2756178594034857 100.66333228158993 58.622460123643286 24.391993351017355 30.522201393779056 -3.4648990287733996 68.648895018621275 2.4544952798134472 -1.5220087931687114 13.2597104664061 6.8990733715526353 4.2428803743197774 68.052755060752347 29.117782098585664 40.188323188859577 3.3906622077303363 6.0410802212981132 2.5786283269376291 109.8075479516578 38.687230699408445 85.515494806781589 21.900111874209529 1.8869418702736327 96.128650926516372 6.4390713767757237 15.715117888069432 47.17458869168901 -3.3172252897443659 6.2769314745018479 2.859716802829904 -5.9455294354540831 65.101249612940762 15.95444819792759 59.445000627416142 1.2295777390018447 31.267281771183566 25.102230350300246 8.367522408226268 29.84546939373762 44.251218519149518
leaf_weight=2955 43257 137448 8964 4858 3293 357195 2849 26019 114015 14083 11655 188312 71356 2652 11876 4333 5551 3775 132904 75927 4174 1278 2982 1587 1037 4200 15855 2113 243074 3148 1370 108408 2579 83772 112350 805 567 1103 123071 35618 103633 214 2149 427 10986 3290 1411 1640 8180 3095 57054 2775 19046 737804 2172 2027 1092 70783 4045 2193 15015 2870 6831
leaf_count=2955 43257 137448 8964 4858 3293 357195 2849 26019 114015 14083 11655 188312 71356 2652 11876 4333 5551 3775 132904 75927 4174 1278 2982 1587 1037 4200 15855 2113 243074 3148 1370 108408 2579 83772 112350 805 567 1103 123071 35618 103633 214 2149 427 10986 3290 1411 1640 8180 3095 57054 2775 19046 737804 2172 2027 1092 70783 4045 2193 15015 2870 6831
internal_value=0.0114741 -1.50345 18.4881 3.80419 2.98994 -4.17862 4.16284 3.89672 1.18615 26.0432 13.7244 -2.15439 18.468 52.9856 28.9765 7.0903 20.2686 48.0798 6.70327 5.72604 7.98762 47.3584 5.52933 40.1161 52.8852 38.3354 14.071 60.4205 -0.533391 36.4812 42.7186 -2.2145 38.5066 8.71288 6.95226 22.4427 79.7926 2.13557 1.32487 0.348365 4.85452 12.9868 4.04941 19.2698 24.2809 20.5246 68.0489 32.385 3.53968 62.2804 -6.42641 20.5137 10.1558 -6.46217 43.1414 37.3978 87.4659 -2.40617 14.5206 44.0578 11.8263 47.0117 51.9484
internal_weight=3.0311e+06 2.80141e+06 229692 938797 905637 1.86261e+06 805326 799409 406658 33160 201823 987359 103683 27869 28282 148617 15744 23558 392751 346782 212775 5452 132873 5917 4330 13164 45969 10394 630164 19077 14219 258041 16627 98140 207323 19950 4311 134007 316307 144026 129891 18078 127995 14368 11413 19145 8281 10193 111813 6870 100311 4924 94973 875252 14048 8553 3744 313857 75401 6526 17864 12849 9979
internal_count=3031100 2801408 229692 938797 905637 1862611 805326 799409 406658 33160 201823 987359 103683 27869 28282 148617 15744 23558 392751 346782 212775 5452 132873 5917 4330 13164 45969 10394 630164 19077 14219 258041 16627 98140 207323 19950 4311 134007 316307 144026 129891 18078 127995 14368 11413 19145 8281 10193 111813 6870 100311 4924 94973 875252 14048 8553 3744 313857 75401 6526 17864 12849 9979
cat_boundaries=0 4 8 12 14 17 20 23 26 29
cat_threshold=17476 1182850 2685141046 260 1088 1049728 537133058 4 2162759690 158150692 136351233 1608 1048576 2048 0 1048576 2 0 1179778 524288 524288 65536 34078720 16448 0 2 286392320 2483027968 33554880
is_linear=0
shrinkage=0.05


Tree=13
num_leaves=64
num_cat=2
split_feature=8 3 6 5 3 3 3 8 1 10 7 11 10 11 7 3 11 4 7 11 11 11 8 3 8 5 3 4 3 7 11 4 11 8 6 11 11 10 3 7 7 7 3 11 5 14 7 7 7 3 12 8 4 12 4 9 12 11 1 11 9 5 5
split_gain=3.60135e+10 1.54186e+10 1.06967e+10 6.4739e+09 5.0824e+09 3.61055e+09 2.13944e+09 2.13032e+09 2.01386e+09 1.93847e+09 1.88358e+09 1.48886e+09 1.48483e+09 1.38466e+09 1.31421e+09 1.29744e+09 1.1368e+09 1.04241e+09 1.01959e+09 9.98756e+08 1.82257e+09 9.76625e+08 9.15181e+08 8.91219e+08 7.79572e+08 7.76547e+08 7.68103e+08 7.37269e+08 7.16919e+08 1.2214e+09 7.14116e+08 6.94891e+08 6.77659e+08 6.29263e+08 9.82774e+08 5.97596e+08 7.04652e+08 5.75737e+08 5.47062e+08 5.30412e+08 1.38703e+09 5.11359e+08 5.06807e+08 5.04903e+08 4.84293e+08 4.51574e+08 4.50205e+08 4.48702e+08 5.97812e+08 4.17849e+08 4.05561e+08 4.6771e+08 4.04723e+08 4.03205e+08 4.50466e+08 3.92579e+08 3.61086e+08 3.58059e+08 3.52334e+08 3.64545e+08 3.51142e+08 6.58635e+08 3.62067e+08
threshold=248.15621185302737 457.29470825195318 1464.5000000000002 4.4305555820465097 1489.0447998046877 858.09448242187511 316.28817749023443 302.43742370605474 0 57.500000000000007 9807.3745117187518 12.500000000000002 58.500000000000007 15.500000000000002 5731.7502441406259 60.487010955810554 17.500000000000004 33.719757080078132 34.596418380737312 10.500000000000002 5.5000000000000009 5.5000000000000009 1215.562927246094 1030.3757324218752 23.896688461303714 2.4861110448837285 51.178995132446296 222.93254089355472 232.76158142089847 7288.3444824218759 7.5000000000000009 430.09164428710943 18.500000000000004 26.053916931152347 1466.5000000000002 7.5000000000000009 5.5000000000000009 59.500000000000007 2294.2924804687505 176.09584045410159 121.26333236694337 1832.8156738281252 963.47180175781261 9.5000000000000018 9.1805558204650897 1.0000000180025095e-35 228.81329345703128 4788.6943359375009 7791.9099121093759 900.67916870117199 5.5000000000000009 333.05245971679693 430.09164428710943 4.5000000000000009 146.89907073974612 291.50000000000006 4.5000000000000009 12.500000000000002 1 15.500000000000002 54.500000000000007 1.6527778506278994 3.87500011920929
decision_type=2 2 2 2 2 2 2 2 1 2 2 2 2 2 2 2 2 2 2 2 2 2 2 2 2 2 2 2 2 2 2 2 2 2 2 2 2 2 2 2 2 2 2 2 2 2 2 2 2 2 2 2 2 2 2 2 2 2 1 2 2 2 2
left_child=1 9 7 4 12 6 14 57 27 15 13 19 42 -7 -4 -1 52 -14 22 20 -9 28 32 -5 -11 55 -23 33 -16 -30 38 50 53 34 -6 36 -36 56 -10 40 -38 45 47 -35 -25 -8 49 -3 58 -19 51 -22 -13 54 -15 -17 -28 -2 59 -49 61 -53 -63
right_child=2 3 5 23 8 10 41 11 30 24 -12 16 17 18 21 25 -18 46 -20 -21 31 26 -24 44 -26 -27 37 -29 29 -31 -32 -33 -34 43 35 -37 39 -39 -40 -41 -42 -43 -44 -45 -46 -47 -48 48 -50 -51 -52 60 -54 -55 -56 -57 -58 -59 -60 -61 -62 62 -64
leaf_value=-7.8390727017147874 16.458365788402851 0.18924265595902068 -2.158453265821441 -3.9374324735393689 0.44093848039770889 15.752309427696261 24.510969673891346 29.983108416023914 27.496932125098027 0.025420578946416878 58.949170944610216 67.796945524384782 5.150390331066002 58.904109936239308 7.9169440868617471 -2.7942567416278643 35.096826277688642 54.341928014713453 2.4435493116733293 24.406791546871229 28.008895235183658 -4.3359408517106939 89.948997507543638 4.0138105417017558 12.48979206710556 -5.4095378573264901 27.801135520586794 8.4871243629559245 160.34885474588162 23.111459924207306 16.499229681564028 99.937579760934653 13.390049955001388 12.550751192278423 12.7311251845847 10.771310295903174 21.950038341558095 46.282420811579343 50.768867513915836 31.912937953956249 138.5453774186648 -4.3535786410972932 4.4329809916926068 28.650784863909429 -1.9205651941350141 2.8896801512792312 12.719553662732581 4.7216317819901992 -3.1570190672150016 21.660221136434664 33.360747488072469 148.3249981202087 95.321735994892094 18.619372299762841 35.751809377523642 17.772099061607538 12.001495176722948 33.567536721351374 -6.0647699499791106 12.399954710511244 58.105260115139323 62.988883812012027 124.39577438639839
leaf_weight=351688 5766 287862 8783 288756 12775 23627 3102 6682 6190 97952 4107 7310 64600 4013 17815 424416 2570 1135 2075 5824 719 2054 862 66622 14387 671463 16819 108983 205 774 7164 1248 2497 7886 4341 12569 594 3498 4266 3958 447 23896 180267 12732 71037 10902 25548 64638 23856 7071 1232 357 1635 1497 4411 2333 4607 6512 5913 20317 2289 1396 290
leaf_count=351688 5766 287862 8783 288756 12775 23627 3102 6682 6190 97952 4107 7310 64600 4013 17815 424416 2570 1135 2075 5824 719 2054 862 66622 14387 671463 16819 108983 205 774 7164 1248 2497 7886 4341 12569 594 3498 4266 3958 447 23896 180267 12732 71037 10902 25548 64638 23856 7071 1232 357 1635 1497 4411 2333 4607 6512 5913 20317 2289 1396 290
internal_value=0.00134657 -1.36551 21.7322 2.68113 5.17125 14.7889 9.21791 43.204 12.5961 -4.70574 26.7425 50.0804 3.18856 23.3492 15.5574 -5.196 64.4081 8.87122 35.0385 41.8462 48.992 18.9569 40.1314 -2.35916 1.62171 -4.34959 25.0528 10.8732 10.2064 51.8621 28.6602 65.8574 36.6726 15.5753 11.463 17.8899 27.4693 27.4747 36.9922 40.267 72.024 0.0924934 2.22963 22.4929 0.95146 7.67911 15.9923 1.24303 3.88718 26.1811 59.0865 65.3606 72.829 42.5324 46.7816 -2.68182 24.404 25.5329 5.73652 6.55792 71.5592 86.6296 73.5579
internal_weight=3.03114e+06 2.85177e+06 179374 1.28953e+06 863112 135544 92455 43830 181905 1.56224e+06 43089 31552 681207 38982 54555 1.4499e+06 11515 98354 15355 20037 14213 45772 13280 426415 112339 1.09821e+06 26978 164285 18794 979 17620 7531 12418 55302 34684 21909 9340 24924 10456 4999 1041 37900 582853 20618 137659 14004 33754 402586 114724 8206 6283 5051 8945 9921 8424 426749 21426 12278 90868 84955 4332 2043 1686
internal_count=3031140 2851766 179374 1289527 863112 135544 92455 43830 181905 1562239 43089 31552 681207 38982 54555 1449900 11515 98354 15355 20037 14213 45772 13280 426415 112339 1098212 26978 164285 18794 979 17620 7531 12418 55302 34684 21909 9340 24924 10456 4999 1041 37900 582853 20618 137659 14004 33754 402586 114724 8206 6283 5051 8945 9921 8424 426749 21426 12278 90868 84955 4332 2043 1686
cat_boundaries=0 1 2
cat_threshold=2 2
is_linear=0
shrinkage=0.05


Tree=14
num_leaves=64
num_cat=0
split_feature=8 3 6 5 3 3 8 3 7 10 4 11 10 11 3 7 11 4 16 3 7 11 8 5 3 8 11 3 7 4 8 11 10 5 3 12 7 6 4 16 3 11 7 7 8 14 11 11 9 15 7 7 9 3 3 9 11 4 8 6 4 5 14
split_gain=3.28063e+10 1.39016e+10 9.83335e+09 5.85711e+09 4.48561e+09 3.15583e+09 1.9355e+09 1.92968e+09 1.82465e+09 1.7026e+09 1.6089e+09 1.42292e+09 1.27395e+09 1.25843e+09 1.15697e+09 1.14194e+09 1.02361e+09 9.27981e+08 9.1534e+08 9.06629e+08 9.04647e+08 8.72313e+08 7.31291e+08 6.95448e+08 6.86027e+08 6.74965e+08 6.6281e+08 6.5874e+08 1.10776e+09 6.56111e+08 6.23459e+08 5.95607e+08 5.05733e+08 4.98391e+08 4.97355e+08 4.77794e+08 4.72695e+08 4.68524e+08 4.82358e+08 4.54445e+08 4.48055e+08 7.73384e+08 6.58562e+08 1.18077e+09 5.05874e+08 4.45285e+08 4.30634e+08 1.1627e+09 4.60462e+08 4.23007e+08 4.06659e+08 3.95984e+08 3.84774e+08 3.71531e+08 3.67583e+08 3.59139e+08 3.54776e+08 3.52817e+08 3.38502e+08 3.37406e+08 3.97233e+08 3.3498e+08 5.21779e+08
threshold=248.15621185302737 452.43869018554693 1465.5000000000002 4.0138888359069833 1489.0447998046877 858.09448242187511 302.43742370605474 316.28817749023443 9807.3745117187518 57.500000000000007 752.93331909179699 12.500000000000002 58.500000000000007 15.500000000000002 60.487010955810554 5731.7502441406259 18.500000000000004 33.719757080078132 1.0000000180025095e-35 1040.8699951171877 34.596418380737312 5.5000000000000009 1215.562927246094 3.0416666269302373 51.178995132446296 23.896688461303714 8.5000000000000018 232.76158142089847 7288.3444824218759 222.93254089355472 89.393909454345717 18.500000000000004 59.500000000000007 8.9027776718139666 2106.393188476563 5.5000000000000009 1832.8156738281252 1411.5000000000002 416.30088806152349 1.0000000180025095e-35 2106.393188476563 7.5000000000000009 228.81329345703128 121.26333236694337 39.620975494384773 1.0000000180025095e-35 10.500000000000002 9.5000000000000018 4.5000000000000009 1.0000000180025095e-35 448.75233459472662 228.81329345703128 29.500000000000004 2507.7592773437505 900.67916870117199 291.50000000000006 18.500000000000004 159.34306335449222 1496.5925903320315 1409.5000000000002 430.09164428710943 8.5972223281860369 1.0000000180025095e-35
decision_type=2 2 2 2 2 2 2 2 2 2 2 2 2 2 2 2 2 2 2 2 2 2 2 2 2 2 2 2 2 2 2 2 2 2 2 2 2 2 2 2 2 2 2 2 2 2 2 2 2 2 2 2 2 2 2 2 2 2 2 2 2 2 2
left_child=1 9 6 4 12 7 -2 15 13 14 29 18 39 -7 -1 -4 37 -14 46 61 22 27 31 55 -23 -11 34 58 -29 30 40 57 -26 -21 -12 59 45 -13 -39 -3 41 42 43 -6 -42 -9 47 -8 -49 -41 -27 54 -40 -31 -19 -16 -24 -15 -17 -20 -61 -5 -63
right_child=2 3 5 19 10 8 11 36 -10 25 26 16 17 20 23 21 -18 51 35 33 -22 24 56 -25 32 50 -28 28 -30 53 -32 -33 -34 -35 -36 -37 -38 38 52 49 44 -43 -44 -45 -46 -47 -48 48 -50 -51 -52 -53 -54 -55 -56 -57 -58 -59 -60 60 -62 62 -64
leaf_value=-7.4577328857126348 24.490372756822833 0.66941395505913581 -1.689461335338611 -2.025121803846631 21.621932454893486 14.652748893230276 29.225648550079121 24.33536942107094 56.744890572511707 -0.020491361723747496 22.69008925110009 47.956767320531398 4.8289596844661604 49.249343993227285 -2.8913070891432238 3.812488922324063 9.1471835501429872 50.344926116485901 43.143929002023448 4.1894600889867473 2.2609675149515116 -3.9963351133311686 121.08370600047351 -5.3311952568757537 23.249515187637815 41.494768165904283 9.9784977407573106 152.57792857311478 21.846929304370335 7.9032778623445425 26.320835069000761 12.719367369197261 43.982756265125197 -1.7005280437155581 42.834613222493516 30.080395571333522 -4.114924559014475 63.830908211720526 106.43066102254457 4.398198318404293 2.4451823109152397 10.650123120401766 23.489576906833829 113.00702656954216 17.266601825622693 2.7491402472519586 23.174960311458044 126.24841938465389 60.695089757774753 -0.44073182090261115 9.2743924466764422 11.92747818015749 66.65847611846651 37.763400597102567 20.20544065223422 16.488038148521582 55.595046003974552 30.39654981302867 20.133195005765103 68.33416474114992 120.51011359704192 72.505972286403491 -5.4248926558473594
leaf_weight=350801 12289 267801 8732 162985 817 23620 6690 3058 4156 97128 6120 2659 66065 5177 503519 13691 851 1179 1029 71099 2064 2052 352 584613 21558 1059 4309 207 745 105690 9838 2457 3406 72578 6137 1110 23773 5454 1498 244311 15645 13281 5965 623 9109 10920 5834 301 2437 55406 12997 25726 1025 1052 7126 2402 502 4768 4137 2239 436 215 147681
leaf_count=350801 12289 267801 8732 162985 817 23620 6690 3058 4156 97128 6120 2659 66065 5177 503519 13691 851 1179 1029 71099 2064 2052 352 584613 21558 1059 4309 207 745 105690 9838 2457 3406 72578 6137 1110 23773 5454 1498 244311 15645 13281 5965 623 9109 10920 5834 301 2437 55406 12997 25726 1025 1052 7126 2402 502 4768 4137 2239 436 215 147681
internal_value=-0.00221022 -1.30561 20.7478 2.50725 4.96632 14.0821 41.3253 8.86501 25.253 -4.50017 12.0049 47.8799 3.08352 21.8918 -4.96005 14.8811 61.9149 8.28425 39.8491 -2.07053 33.0527 18.0407 37.847 -4.1566 23.7941 1.46151 26.8466 9.76391 50.2857 10.4873 14.9088 34.7647 26.0785 1.21415 32.7766 58.859 0.175263 66.1368 72.1961 2.16624 12.438 17.8692 30.8166 61.1638 7.89923 7.47175 33.8525 40.4595 67.906 3.50367 11.7022 14.992 90.276 8.1976 24.4847 -2.7993 82.5991 40.211 7.59981 67.4822 76.8425 -3.58858 -5.31155
internal_weight=3.0325e+06 2.85328e+06 179227 1.30076e+06 846200 135375 43852 92279 43096 1.55252e+06 178586 31563 667614 38940 1.44134e+06 54528 11487 100096 20076 454558 15320 45796 13256 1.09053e+06 27016 111184 16566 18780 952 162020 55278 12402 24964 143677 12257 4814 37751 10636 7977 567518 45440 20686 7405 1440 24754 13978 15262 9428 2738 299717 14056 34031 2523 106742 8305 505921 854 9945 17828 3704 2675 310881 147896
internal_count=3032504 2853277 179227 1300758 846200 135375 43852 92279 43096 1552519 178586 31563 667614 38940 1441335 54528 11487 100096 20076 454558 15320 45796 13256 1090534 27016 111184 16566 18780 952 162020 55278 12402 24964 143677 12257 4814 37751 10636 7977 567518 45440 20686 7405 1440 24754 13978 15262 9428 2738 299717 14056 34031 2523 106742 8305 505921 854 9945 17828 3704 2675 310881 147896
is_linear=0
shrinkage=0.05


Tree=15
num_leaves=64
num_cat=9
split_feature=8 3 6 10 3 5 3 3 0 3 8 7 11 11 5 0 1 11 16 7 3 11 11 8 8 3 3 0 3 4 8 0 0 7 8 0 11 7 15 11 11 16 11 7 7 9 7 7 15 11 11 0 11 7 3 11 11 6 14 0 11 11 9
split_gain=2.95244e+10 1.26462e+10 8.58348e+09 3.74458e+09 2.91192e+09 2.80065e+09 2.56171e+09 2.40424e+09 1.79807e+09 1.75242e+09 1.73616e+09 1.58345e+09 1.2003e+09 1.18106e+09 1.10989e+09 1.10888e+09 1.07778e+09 9.3646e+08 8.54878e+08 8.26589e+08 7.79307e+08 7.32288e+08 7.31702e+08 7.04481e+08 6.54634e+08 6.355e+08 6.16701e+08 6.14445e+08 6.09797e+08 5.96784e+08 6.0566e+08 8.31194e+08 5.96504e+08 7.00839e+08 5.79836e+08 6.47915e+08 5.55571e+08 5.40998e+08 5.14418e+08 4.9826e+08 4.76216e+08 4.65416e+08 6.89047e+08 4.36247e+08 1.0347e+09 4.33983e+08 4.33514e+08 4.24608e+08 4.11249e+08 4.10452e+08 4.11316e+08 4.07464e+08 3.97883e+08 6.11963e+08 3.91289e+08 3.90625e+08 4.6706e+08 3.85004e+08 3.8325e+08 5.24018e+08 3.79938e+08 1.05353e+09 3.78553e+08
threshold=248.15621185302737 788.58779907226574 1465.5000000000002 58.500000000000007 858.09448242187511 4.9861111640930185 1489.0447998046877 268.43910217285162 0 316.28817749023443 302.43742370605474 9807.3745117187518 12.500000000000002 15.500000000000002 3.597222208976746 1 2 17.500000000000004 1.0000000180025095e-35 34.596418380737312 568.37600708007824 7.5000000000000009 5.5000000000000009 1215.562927246094 130.23100280761722 51.178995132446296 452.43869018554693 3 19.514798164367679 220.88758087158206 29.116169929504398 4 5 5657.2492675781259 1496.5925903320315 6 18.500000000000004 422.72283935546881 1.0000000180025095e-35 4.5000000000000009 9.5000000000000018 1.0000000180025095e-35 7.5000000000000009 176.09584045410159 121.26333236694337 291.50000000000006 1832.8156738281252 2326.9023437500005 1.0000000180025095e-35 16.500000000000004 15.500000000000002 7 15.500000000000002 2956.097045898438 1066.1321411132815 19.500000000000004 14.500000000000002 1495.5000000000002 1.0000000180025095e-35 8 10.500000000000002 9.5000000000000018 3.5000000000000004
decision_type=2 2 2 2 2 2 2 2 9 2 2 2 2 2 2 9 1 2 2 2 2 2 2 2 2 2 2 9 2 2 2 9 9 2 2 9 2 2 2 2 2 2 2 2 2 2 2 2 2 2 2 9 2 2 2 2 2 2 2 9 2 2 2
left_child=1 3 10 7 9 6 15 28 21 16 -2 13 18 -6 26 54 -4 49 60 23 27 47 34 36 52 -24 -9 37 -1 30 31 -10 -28 -34 -18 39 -15 -5 55 -36 -32 -33 43 44 -43 -30 58 -8 -20 50 -14 -7 53 -17 -3 56 57 -27 59 -11 61 -12 -63
right_child=2 5 4 20 11 51 8 14 29 46 12 -13 17 19 -16 24 22 -19 48 -21 -22 -23 25 -25 -26 38 32 -29 45 -31 40 41 33 -35 35 -37 -38 -39 -40 -41 -42 42 -44 -45 -46 -47 -48 -49 -50 -51 -52 -53 -54 -55 -56 -57 -58 -59 -60 -61 -62 62 -64
leaf_value=-8.3368721518154043 23.076751455940354 -3.6103993601426816 -5.5174528244962877 33.268035262904462 14.04601421582068 -2.2034045393878947 46.672951020619166 -2.2389298370514572 0.29191082041201921 57.687395828249407 27.581577340147703 53.695535372692248 70.258077291253358 38.645380018288371 -3.8766489913654127 0.90323269753363322 4.2834267897768905 31.426215753865975 67.032267848541025 2.4175621989989864 14.465978895205945 13.778781989732137 -4.394813899791747 79.825402959122741 17.335644395021685 54.508544636580467 -2.6251538163130772 6.1689725271632661 -5.0789043793652304 7.5214601658863547 10.809364079986103 8.4855703917384222 0.89553001052535641 7.9674260579722898 25.298998431725806 18.102791177619988 12.252725939669673 -0.31965813419463618 10.945604762598172 129.60318258961539 26.463687083812722 21.171113386114353 12.223017549394044 29.254630432200486 121.88389490912451 15.062514286210742 -3.8896158214783818 26.542510490996239 36.68030787266526 88.950583045634943 45.948074842774474 2.9090195109367332 10.008075640983236 7.8476439750321108 2.2456657488481508 6.4218720526179487 38.082998924349603 19.077998451720163 2.7586736715638205 10.556659055715143 21.848223963341027 128.87770865074819 59.227374917524344
leaf_weight=168477 12417 41699 6145 1214 23616 124649 4241 297079 13896 785 6700 4111 4459 9963 492080 66009 14667 2560 3089 2066 15388 7220 2137 873 12793 841 80239 73312 743525 111035 7751 11102 157496 45056 212 4540 2493 95623 5902 249 13018 577 6654 3998 457 2684 23923 6853 1748 1570 2855 56692 39108 61080 90288 1952 9030 8678 10951 2344 5787 212 2445
leaf_count=168477 12417 41699 6145 1214 23616 124649 4241 297079 13896 785 6700 4111 4459 9963 492080 66009 14667 2560 3089 2066 15388 7220 2137 873 12793 841 80239 73312 743525 111035 7751 11102 157496 45056 212 4540 2493 95623 5902 249 13018 577 6654 3998 457 2684 23923 6853 1748 1570 2855 56692 39108 61080 90288 1952 9030 8678 10951 2344 5787 212 2445
internal_value=-0.00294188 -1.24057 19.676 -3.10246 13.453 4.71473 6.65274 -3.73689 11.2807 8.4441 38.9059 24.1808 45.1604 21.0704 -2.13014 3.87275 14.2032 58.0727 37.7647 31.8456 3.69064 26.1583 16.7169 36.4069 6.43648 21.8306 -0.648045 2.71612 -5.61989 9.66142 13.7988 9.93602 1.02322 2.4685 9.29653 23.9986 33.3632 0.101438 23.9532 79.9195 20.6216 15.8099 22.7815 36.7429 65.6909 -5.00646 0.207286 34.2383 56.0646 65.7507 60.7695 -0.605086 5.59789 4.24078 0.395512 27.6979 29.9368 22.2088 7.16822 22.6003 31.9193 38.1476 64.7894
internal_weight=3.03061e+06 2.85129e+06 179320 2.17217e+06 135478 679120 497779 1.98664e+06 186802 92356 43842 43122 31425 39011 1.07195e+06 310977 54353 11444 19981 15395 185537 18314 48208 13329 178990 28540 579870 170149 914686 168488 57453 36684 282791 202552 19668 5001 12456 96837 26403 461 20769 22788 11686 5032 1034 746209 38003 11094 4837 8884 7314 181341 166197 127089 131987 20501 18549 9519 14080 3129 15144 9357 2657
