tree
version=v4
num_class=1
num_tree_per_iteration=1
label_index=0
max_feature_idx=16
objective=regression
feature_names=LINEA DIR proxima_est_teorica dist_a_prox_m dist_estacion_m vel_mps Altitud s_m dist_m time_diff dwell_same_xy_s hour dow is_no_progress progress_event is_weekend is_peak
feature_infos=-1:1:4:7:0:6:2:5:8 -1:1:2:0 -1:56:65:69:20:28:33:14:6:17:90:104:55:95:64:91:29:18:102:8:89:31:60:96:62:39:47:70:92:53:45:71:80:24:59:50:98:32:12:88:46:87:37:40:26:21:83:74:4:11:75:7:3:51:73:2:101:63:30:19:97:34:25:54:72:44:57:58:100:66:99:41:94:67:13:68:38:48:43:84:42:86:10:52:0:36:79:61:82:93:103:49:22:5:16:78:9:23:105:1:77:81:27:76:106:85:35 [0:2998.67138671875] [0.075106009840965271:8130.3583984375] [0:22.777778625488281] [0:6896] [0:13700.7861328125] [3.0435759981628507e-05:10497.3134765625] [0:33051] [0:24341] [4:21] [0:6] [0:1] [0:1] [0:1] [0:1]
tree_sizes=5884 5909 5864 5923 5958 5907 5900 5918 5983 5823 5794 5985 5963 5859 5839 5767 5850 5976 5947 5786 5924 5985 5781 5944 5951 5958 5957 5779 5928 5870 5979 5965 5953 6004 5895 5973 5993 5954 5880 6085 6029 5808 5999 5830 5989 5996 5967 6036 5936 6057 5908 5933 5953 6049 5983 5909 5961 5846 6042 6018 5867 5868 5929 5844 5943 6007 5990 5784 5890 5991 6027 6030 5836 6044 5830 5956 5948 6011 5985 6024 5964 6034 6014 6038 6008 5893 5957 5943 5873 5995 5887 6027 6044 5979 5983 5958 6105 5940 5991 6063 5991 5970 5977 5866 6011 6041 5958 5833 5864 5934 5955 6005 5813 6027 5973 6024 5832 5988 5871 5843 6034 5951 5843 5895 5915 5820 6062 5960 5903 5955 5963 5862 6085 6005 5824 5864 6102 6024 5967 5853 5891 5873 5956 5901 5857 5988 5953 5913 5868 5831 6006 6019 5892 5797 5833 5950 5785 6028 5899 5952 6016 5903 5958 5966 5949 6001 5820 5972 5958 5866 5873 5818 6042 5979 5914 5804 5995 5809 5843 5963 5811 5941 5830 5783 5915 5898 5925 5844 5811 5798 5929 5800 5849 5895 5823 6067 5915 5791 5929 5893 5900 5901 5743 5860 5923 5831 5998 6026 5961 5908 5839 5853 5916 5969 5788 5941 5772 5800 5981 5975 5890 5873 5934 5769 5912 5739 5804 5962 5869 5881 6030 5728 5845 5891 5889 5835 5918 5869 5875 5886 5878 5838 5953 5828 5855 5793 5794 5851 5821 6008 5800 5783 5855 6005 5903 5821 5939 5863 5870 5829 5839 5874 5882 5887 5851 5974 5888 5773 5701 5905 5838 5870 5755 5801 5802 5867 6022 5908 5793 5811 5858 5782 5927 5730 5944 5814 5819 5787 5777 5997 5895 5883 5932 5926 5817 5879 5854

Tree=0
num_leaves=64
num_cat=12
split_feature=7 8 4 2 0 2 4 11 8 7 2 8 11 2 16 11 11 5 16 8 11 4 7 2 9 7 8 6 11 7 2 7 11 10 11 0 5 4 4 4 11 11 7 7 2 4 2 2 2 7 6 7 5 5 7 7 8 7 11 7 7 9 4
split_gain=1.18616e+10 4.15273e+09 3.3942e+09 2.78859e+09 1.70381e+09 1.43954e+09 1.05399e+09 8.23837e+08 8.14906e+08 6.69806e+08 6.12759e+08 5.4501e+08 4.28464e+08 4.25328e+08 3.74542e+08 3.10202e+08 2.72806e+08 2.30347e+08 2.26682e+08 2.21982e+08 2.35383e+08 2.18868e+08 2.07805e+08 3.79374e+08 1.84431e+08 1.68522e+08 1.66735e+08 1.63768e+08 1.63315e+08 1.62972e+08 1.55626e+08 4.62197e+08 1.96997e+08 1.46777e+08 1.37744e+08 1.37294e+08 1.28457e+08 1.23616e+08 1.06497e+08 2.03023e+08 1.04666e+08 9.07222e+07 8.63776e+07 8.16513e+07 8.05177e+07 1.39112e+08 7.88879e+07 7.85104e+07 7.74479e+07 9.08842e+07 7.46661e+07 7.31263e+07 6.8763e+07 6.81547e+07 6.54495e+07 6.46129e+07 6.25776e+07 5.97469e+07 5.633e+07 1.23466e+08 5.5681e+07 7.69268e+07 5.15295e+07
threshold=1.0000000180025095e-35 814.04205322265636 330.13079833984381 0 1 2 703.14825439453136 12.500000000000002 51.287748336791999 256.14912414550787 3 2155.9570312500005 4.5000000000000009 4 1.0000000180025095e-35 6.5000000000000009 11.500000000000002 1.5972222685813906 1.0000000180025095e-35 245.5924987792969 16.500000000000004 409.01533508300787 5986.6875000000009 5 19.500000000000004 2785.7912597656255 31.958238601684574 1414.5000000000002 15.500000000000002 634.10223388671886 6 3870.1901855468755 8.5000000000000018 55.500000000000007 17.500000000000004 7 2.736111164093018 69.714672088623061 86.525878906250014 223.82183837890628 6.5000000000000009 11.500000000000002 4623.1828613281259 2276.002807617188 8 165.05727386474612 9 10 11 10401.669433593752 1487.5000000000002 5908.6154785156259 4.4305555820465097 3.0416666269302373 117.35605239868165 4496.5725097656259 17.803690910339359 3456.207641601563 16.500000000000004 497.64012145996099 56.836996078491218 13.500000000000002 420.98239135742193
decision_type=2 2 2 9 9 9 2 2 2 2 9 2 2 9 2 2 2 2 2 2 2 2 2 9 2 2 2 2 2 2 9 2 2 2 2 9 2 2 2 2 2 2 2 2 9 2 9 9 9 2 2 2 2 2 2 2 2 2 2 2 2 2 2
left_child=2 3 4 6 8 11 9 18 -1 17 -10 40 -7 33 -12 -13 35 54 62 38 -21 27 23 28 -23 36 -24 -9 42 53 31 32 57 43 -22 37 -8 -6 -18 52 -3 -28 -11 44 45 58 -15 51 49 -45 -37 -44 -40 -25 -2 -33 -30 -31 -5 -60 -19 -62 -4
right_child=1 5 7 13 16 12 25 21 10 22 14 15 -14 46 -16 -17 19 60 -20 20 34 24 26 29 -26 -27 41 -29 56 30 -32 55 -34 -35 -36 50 -38 -39 39 -41 -42 -43 47 48 -46 -47 -48 -49 -50 -51 -52 -53 -54 -55 -56 -57 -58 -59 59 -61 61 -63 -64
leaf_value=312.04861884221975 354.03358418678147 332.45543831203975 358.9396113256343 310.69717579836612 308.31136763748884 372.29116726890078 376.73760738486988 388.4790449448551 485.99903243603467 348.74410908864468 338.57141204578022 363.07024341170484 305.94097549499156 300.79015894603418 413.10072067827014 406.84969475228468 315.93327902218664 315.77647907287343 407.75762442964265 343.31460871631117 412.66820799556854 491.34101187063817 304.08035437757485 323.41135115778985 425.32205396884854 335.21176613118627 310.62866059074776 438.47685413972994 327.98114662773554 343.740836614437 305.81215037939819 310.6793867442201 316.92535007032416 314.42824800488603 360.20809529824783 326.88860817429202 338.44255731591028 346.60264323513513 356.60674428132648 332.08030343037893 352.96383400659596 344.13778601482744 335.52135359717778 309.03008895404867 303.1091223729162 303.63594912521216 298.05509071488132 313.69351178597037 299.71337755658669 300.80378247011606 315.06644812671681 318.58321374092725 329.71582749833902 306.21107090067051 389.3603205873535 303.7245545011757 351.62413896543711 327.49073775996635 334.82886740995178 309.49332753248478 363.01760739714979 322.36107489312553 383.10338050380756
leaf_weight=246 246 860 998 6156 250 272 630 344 231 213 245 891 2300 61246 541 742 628 358 392 1118 233 213 11263 3125 212 1172 399 314 2644 1114 16446 6668 3877 3758 271 5770 336 1343 1440 4651 2253 409 866 6883 12426 7605 47047 7328 14198 6555 1738 2412 285 706 282 6690 313 1150 846 1114 225 241 284
leaf_count=246 246 860 998 6156 250 272 630 344 231 213 245 891 2300 61246 541 742 628 358 392 1118 233 213 11263 3125 212 1172 399 314 2644 1114 16446 6668 3877 3758 271 5770 336 1343 1440 4651 2253 409 866 6883 12426 7605 47047 7328 14198 6555 1738 2412 285 706 282 6690 313 1150 846 1114 225 241 284
internal_value=309.245 306.094 344.63 304.948 337.103 343.191 313.401 396.471 393.048 312.298 413.463 359.467 312.945 301.468 388.863 382.967 333.056 347.133 374.48 339.44 356.109 430.453 311.581 312.917 458.444 347.96 305.654 412.354 320.064 310.438 309.393 312.414 323.769 304.865 384.476 327.03 363.422 340.398 335.58 337.515 347.299 327.593 317.226 304.219 306.115 308.495 299.601 316.592 302.289 305.02 324.132 323.017 352.165 320.242 372.913 307.196 330.485 335.488 313.048 320.43 330.608 341.999 364.298
internal_weight=266012 244265 21747 236947 18990 7318 69113 2757 1263 66975 1017 4746 2572 167834 786 1633 17727 1352 1674 8626 1622 1083 65623 53552 425 2138 12071 658 13776 39776 35945 19499 6141 59541 504 9101 966 1593 7004 6376 3113 808 10819 55783 28147 15721 108293 10606 27636 13438 7508 3278 1725 3831 528 13358 2957 2264 8116 1960 824 466 1282
internal_count=266012 244265 21747 236947 18990 7318 69113 2757 1263 66975 1017 4746 2572 167834 786 1633 17727 1352 1674 8626 1622 1083 65623 53552 425 2138 12071 658 13776 39776 35945 19499 6141 59541 504 9101 966 1593 7004 6376 3113 808 10819 55783 28147 15721 108293 10606 27636 13438 7508 3278 1725 3831 528 13358 2957 2264 8116 1960 824 466 1282
cat_boundaries=0 4 5 8 11 15 18 22 23 27 31 33 37
cat_threshold=17600 134290 2152202310 260 192 0 0 34 0 0 524288 1502674997 813695041 62005288 657 0 2 2 17600 0 4194304 4 32 269484032 8388608 16777216 16 541459210 1158713856 1946538129 1026 0 2 134283312 0 1048608 16
is_linear=0
shrinkage=1


Tree=1
num_leaves=64
num_cat=10
split_feature=7 8 2 8 3 2 2 0 3 3 3 11 2 11 11 11 6 8 11 2 8 16 2 7 3 3 16 8 3 5 11 5 3 11 6 6 3 11 11 11 12 5 7 16 6 3 12 5 3 2 7 11 12 8 3 2 8 0 5 6 7 7 6
split_gain=1.05009e+10 3.85483e+09 2.51656e+09 2.50746e+09 1.79205e+09 1.44738e+09 1.305e+09 1.13229e+09 9.39727e+08 7.65462e+08 7.08442e+08 6.92568e+08 4.1487e+08 3.66002e+08 3.25843e+08 2.92123e+08 2.70344e+08 2.69689e+08 2.57268e+08 2.43646e+08 2.49727e+08 2.29508e+08 2.08406e+08 1.86983e+08 1.73935e+08 1.68328e+08 2.03935e+08 1.54481e+08 1.52331e+08 1.49347e+08 1.28217e+08 1.2556e+08 1.20604e+08 1.18832e+08 1.17928e+08 1.17305e+08 9.87782e+07 9.63414e+07 9.63235e+07 9.48974e+07 1.30663e+08 9.41683e+07 1.85121e+08 8.38993e+07 8.1668e+07 8.13191e+07 7.87314e+07 7.61117e+07 7.42082e+07 7.32084e+07 7.01267e+07 6.94062e+07 6.69939e+07 6.67935e+07 6.60883e+07 5.65911e+07 5.60484e+07 1.31732e+08 7.663e+07 5.59528e+07 5.5635e+07 7.37408e+07 5.54604e+07
threshold=1.0000000180025095e-35 814.04205322265636 0 256.15394592285162 467.00267028808599 1 2 3 1785.9336547851565 850.09100341796886 386.84809875488287 12.500000000000002 4 4.5000000000000009 8.5000000000000018 18.500000000000004 1474.5000000000002 294.82647705078131 16.500000000000004 5 37.53722000122071 1.0000000180025095e-35 6 5908.6154785156259 815.19445800781261 20.770590782165531 1.0000000180025095e-35 351.95881652832037 903.43469238281261 6.097222328186036 8.5000000000000018 0.041666669771075256 30.594351768493656 5.5000000000000009 1409.5000000000002 1494.5000000000002 1452.3602294921877 9.5000000000000018 7.5000000000000009 10.500000000000002 4.5000000000000009 1.5972222685813906 5084.0651855468759 1.0000000180025095e-35 1490.5000000000002 357.83505249023443 2.5000000000000004 3.0416666269302373 944.90109252929699 7 4445.8198242187509 8.5000000000000018 4.5000000000000009 374.34712219238287 2076.732543945313 8 160.19058227539065 9 5.8194446563720712 1418.5000000000002 141.12906646728518 1785.9937133789065 1511.5000000000002
decision_type=2 2 9 2 2 9 9 9 2 2 2 2 9 2 2 2 2 2 2 9 2 2 9 2 2 2 2 2 2 2 2 2 2 2 2 2 2 2 2 2 2 2 2 2 2 2 2 2 2 9 2 2 2 2 2 9 2 9 2 2 2 2 2
left_child=3 2 4 5 19 -1 9 18 22 16 32 21 47 -8 29 17 46 -13 44 20 50 37 23 41 -24 -22 -27 -23 -7 33 36 -30 -4 -10 -19 59 49 -9 62 -18 43 42 -6 -41 -5 -21 -3 -12 -49 -26 -2 -33 -11 -39 -14 -34 57 -53 -59 -36 -43 -62 -35
right_child=1 6 10 7 8 28 13 11 14 52 12 15 54 -15 -16 -17 39 34 -20 45 25 27 24 -25 30 26 -28 -29 31 -31 -32 51 55 38 35 -37 -38 53 -40 40 -42 60 -44 -45 -46 -47 -48 48 -50 -51 -52 56 -54 -55 -56 -57 -58 58 -60 -61 61 -63 -64
leaf_value=131.78962283812263 10.334739463191241 94.132972839172965 -14.177419887147861 43.242013019233667 82.834023789165713 -0.79308529619496104 58.92079056700743 15.137019149457586 35.991819544891172 113.5630747571483 2.0481952155440371 70.733667875377975 -7.6124737760969072 -3.0920826014651799 19.640131685355758 53.999099265433898 27.234431085055707 93.899296164076304 71.796838347276946 -9.1700299152510887 -15.235344538816699 61.426980952964939 2.4711856870489086 10.850782253153845 5.5594208878180496 11.301534874753784 48.747851635035687 119.67644557124112 27.075149398746699 21.16706270772131 7.5287927538553774 10.383773764939122 -7.5193792066492513 89.877135121230467 126.36508616748154 103.3418798308038 26.94140721515376 45.362464583875294 44.377220943158527 43.794827863308029 28.699945928970244 -0.15500325968581793 30.343002273840071 74.388695093284213 14.059120423787164 -2.6476642084517912 56.816465658571886 -5.0482250808094342 3.0497474934815805 18.651464923026481 -2.7826512839020592 10.733081925304292 80.815381803346327 70.891603102205934 1.2781945451330792 -10.482334155402791 17.286775836564548 44.255580097497216 10.5393291834667 158.34402954032493 50.744105367647762 17.177529482969074 61.947000971003618
leaf_weight=291 1143 234 16913 299 210 765 266 207 365 356 21262 405 40826 2248 1207 321 1851 366 283 15221 309 260 9584 3026 1989 983 577 203 6823 292 10134 2243 24524 445 291 315 1701 1027 283 550 799 263 839 379 1209 6966 359 9837 3971 2371 9377 744 281 342 2203 48749 3885 971 204 265 224 607 298
leaf_count=291 1143 234 16913 299 210 765 266 207 365 356 21262 405 40826 2248 1207 321 1851 366 283 15221 309 260 9584 3026 1989 983 577 203 6823 292 10134 2243 24524 445 291 315 1701 1027 283 550 799 263 839 379 1209 6966 359 9837 3971 2371 9377 744 281 342 2203 48749 3885 971 204 265 224 607 298
internal_value=0.00531255 -2.95993 -4.0653 33.3209 4.02041 23.0744 32.7681 61.4896 12.2011 47.9833 -7.35224 76.2586 -3.86652 3.45767 39.4675 97.649 40.2865 106.178 27.9042 -3.98448 1.63352 56.0356 9.65474 18.8178 7.80704 18.4761 25.1541 86.9865 20.9525 53.6851 10.9695 22.0853 -10.3716 60.5093 117.777 127.798 16.7222 46.9378 69.2271 35.1038 43.5313 30.1543 40.8581 56.2827 19.8479 -7.11903 71.5551 0.171034 -2.71935 12.7348 -1.35736 17.8542 99.132 51.7448 -7.15562 -9.49312 20.7409 27.7325 38.0792 141.633 19.888 26.2306 78.6849
internal_weight=265741 244022 236699 21719 68414 15926 7323 5793 33838 4809 168285 4002 78099 2514 2890 1963 4172 1642 1791 34576 12389 2039 30948 5169 25779 1869 1560 463 15635 1683 16195 14870 90186 1391 1237 871 6061 1576 1026 3579 1728 2143 1049 929 1508 22187 593 35070 13808 4360 10520 8047 637 1369 43029 73273 5804 1919 1175 556 1094 831 743
internal_count=265741 244022 236699 21719 68414 15926 7323 5793 33838 4809 168285 4002 78099 2514 2890 1963 4172 1642 1791 34576 12389 2039 30948 5169 25779 1869 1560 463 15635 1683 16195 14870 90186 1391 1237 871 6061 1576 1026 3579 1728 2143 1049 929 1508 22187 593 35070 13808 4360 10520 8047 637 1369 43029 73273 5804 1919 1175 556 1094 831 743
cat_boundaries=0 4 7 10 11 15 18 21 25 29 30
cat_threshold=17600 132242 2152202306 260 0 0 524288 0 0 34 49 286269748 2424309825 1427112108 145 1088 1024 2 128 130 524288 0 0 2147483712 260 1228931617 1888540737 823189680 643 48
is_linear=0
shrinkage=0.05


Tree=2
num_leaves=64
num_cat=13
split_feature=7 8 4 2 0 2 4 4 11 7 8 16 2 11 11 8 16 11 5 4 6 8 11 7 2 7 11 8 0 7 2 7 7 11 10 11 4 5 7 11 12 12 4 4 2 11 11 12 7 11 2 2 4 2 7 7 6 5 1 7 0 11 7
split_gain=9.72441e+09 3.42382e+09 2.76623e+09 2.20388e+09 1.30296e+09 1.20736e+09 8.77126e+08 6.87486e+08 5.67262e+08 4.9617e+08 4.6483e+08 4.35657e+08 3.53343e+08 3.1684e+08 2.82163e+08 2.59853e+08 2.1578e+08 2.14758e+08 2.07447e+08 2.04441e+08 2.33075e+08 1.80987e+08 1.78551e+08 1.5902e+08 3.1925e+08 1.46677e+08 1.37337e+08 1.37085e+08 1.30407e+08 1.28059e+08 1.86795e+08 1.98934e+08 1.89191e+08 1.49223e+08 1.2514e+08 1.12619e+08 1.10233e+08 1.09521e+08 1.0623e+08 8.92711e+07 8.81497e+07 8.58649e+07 8.34316e+07 1.99515e+08 8.11345e+07 9.01563e+07 8.05572e+07 7.65242e+07 7.25329e+07 7.10224e+07 6.74249e+07 6.65822e+07 1.18472e+08 6.1812e+07 7.61397e+07 6.06948e+07 5.93798e+07 5.81683e+07 5.79777e+07 5.36265e+07 5.30537e+07 4.82887e+07 1.23488e+08
threshold=1.0000000180025095e-35 814.04205322265636 330.13079833984381 0 1 2 703.14825439453136 97.157077789306655 12.500000000000002 281.81648254394537 2155.9570312500005 1.0000000180025095e-35 3 4.5000000000000009 6.5000000000000009 136.80659484863284 1.0000000180025095e-35 11.500000000000002 1.5972222685813906 420.98239135742193 1417.5000000000002 245.5924987792969 16.500000000000004 5986.6875000000009 4 2785.7912597656255 15.500000000000002 31.958238601684574 5 4496.5725097656259 6 3777.530151367188 668.98107910156261 8.5000000000000018 58.500000000000007 17.500000000000004 66.616870880126967 3.0416666269302373 4623.1828613281259 6.5000000000000009 1.5000000000000002 4.5000000000000009 99.453392028808608 223.82183837890628 7 11.500000000000002 15.500000000000002 3.5000000000000004 2276.002807617188 7.5000000000000009 8 9 161.28442382812503 10 10237.128906250002 141.12906646728518 1485.5000000000002 3.597222208976746 11 5917.5815429687509 12 16.500000000000004 470.12060546875006
decision_type=2 2 2 9 9 9 2 2 2 2 2 2 9 2 2 2 2 2 2 2 2 2 2 2 9 2 2 2 9 2 9 2 2 2 2 2 2 2 2 2 2 2 2 2 9 2 2 2 2 2 9 9 2 9 2 2 2 2 1 2 9 2 2
left_child=2 3 4 6 7 10 9 15 16 18 39 -9 34 -7 -12 -1 -4 28 -2 20 40 42 60 24 26 37 38 -25 36 30 31 33 58 -26 48 -24 -6 49 -11 -3 -10 46 -19 57 45 -29 -41 -16 51 -8 59 52 61 54 -50 -14 -30 -44 -32 -40 -23 -5 -63
right_child=1 5 8 12 17 13 25 11 19 23 14 -13 55 -15 47 -17 -18 21 -20 -21 -22 22 35 27 29 -27 -28 44 56 -31 32 -33 -34 -35 -36 -37 -38 -39 50 41 -42 -43 43 -45 -46 -47 -48 -49 53 -51 -52 -53 -54 -55 -56 -57 -58 -59 -60 -61 -62 62 -64
leaf_value=3.6564742058775721 52.573354559400343 20.455527296831978 50.965803793028222 1.4952572510487383 -2.4506647079812258 54.304512565156337 72.36147446721445 58.289366971402536 52.55175747584596 39.716842035637235 48.021101284717588 144.83015266159421 -1.4363922947060257 -3.0149159498566469 101.63491403371941 66.131551231259493 93.92134217538711 7.2766594537298719 15.439716815766936 145.32241154010919 133.3839191987006 15.37857800930546 91.794079647489013 -4.6209526125918314 25.52478411425097 23.419855911671437 19.099935700221778 5.2465261757864994 15.924115102445036 -5.4565824234349547 10.907222774269574 1.6575883678816952 -3.3402843998081071 7.9419219519718602 4.8067832767191785 44.842563756402299 34.716007764787001 24.537674495535324 19.155752383775091 39.344484722951357 93.3167575029739 28.157728731618263 45.211317970393495 20.2691965155249 -10.8300203663176 44.020933035496981 66.43328395188972 69.06962014705357 0.29309787959716399 36.765624293407626 3.6043371067144472 -5.4937125221912435 -5.0161875163143739 -8.2008490625990298 -7.2847012236045545 -8.987087976915543 5.3785845256256062 22.822021117267411 -8.3841045000874388 6.3689750329425099 39.32684588501386 26.396231953278456 0.3383584863624684
leaf_weight=292 632 873 1293 6074 233 269 455 234 231 243 927 385 2733 2316 469 387 378 688 929 266 263 408 239 11347 1904 1129 3011 279 5757 6719 3576 7508 15935 3295 3754 275 1387 291 1519 877 313 981 1323 4666 200 324 400 295 6312 203 7347 12478 7719 17784 6981 101717 1738 372 437 1782 710 751 1152
leaf_count=292 632 873 1293 6074 233 269 455 234 231 243 927 385 2733 2316 469 387 378 688 929 266 263 408 239 11347 1904 1129 3011 279 5757 6719 3576 7508 15935 3295 3754 275 1387 291 1519 877 313 981 1323 4666 200 324 400 295 6312 203 7347 12478 7719 17784 6981 101717 1738 372 437 1782 710 751 1152
internal_value=0.00509374 -2.85664 31.9701 -3.90494 25.2238 30.6172 3.61033 73.4556 78.9116 2.61839 45.3538 112.13 -7.00433 2.94035 66.5719 39.269 60.6879 21.652 30.4764 107.283 94.7287 27.2926 42.2972 1.95368 3.13086 35.6023 9.64154 -3.20806 16.3036 0.829422 2.12308 6.85821 -0.896235 14.3816 -4.0453 66.6877 29.1904 50.0914 7.03531 34.0373 76.0195 39.2873 23.8181 25.6071 16.7552 25.6589 47.8342 89.0713 -4.60683 61.387 6.28912 -2.7695 -0.599898 -6.27253 -3.68374 -8.78868 13.4609 40.2992 8.80631 12.2164 31.0787 3.67281 10.6227
internal_weight=265765 243927 21838 236520 19094 7407 69065 1298 2744 66987 4822 619 167455 2585 1691 679 1671 17796 1561 1073 807 8681 1632 65426 53276 2078 13902 12150 9115 39374 32655 12707 19948 5199 63005 514 1620 949 10891 3131 544 2258 7049 6361 803 603 1277 764 59251 658 10648 28174 15696 31077 13293 104450 7495 1695 4013 3301 1118 7977 1903
internal_count=265765 243927 21838 236520 19094 7407 69065 1298 2744 66987 4822 619 167455 2585 1691 679 1671 17796 1561 1073 807 8681 1632 65426 53276 2078 13902 12150 9115 39374 32655 12707 19948 5199 63005 514 1620 949 10891 3131 544 2258 7049 6361 803 603 1277 764 59251 658 10648 28174 15696 31077 13293 104450 7495 1695 4013 3301 1118 7977 1903
cat_boundaries=0 4 5 8 12 15 16 20 23 25 29 33 34 35
cat_threshold=17600 132242 2152202310 260 192 0 0 34 1502675253 813697089 62005296 145 0 2 4194306 32 16576 0 0 4 0 1024 2 0 2 269484032 8388608 16777216 16 134217776 0 1179680 16 2 17
is_linear=0
shrinkage=0.05


Tree=3
num_leaves=64
num_cat=10
split_feature=7 8 3 8 2 2 2 0 3 3 11 2 2 11 11 11 6 6 11 3 2 5 3 5 5 16 8 11 3 11 3 8 2 8 12 12 5 6 3 12 8 8 11 8 0 5 11 11 3 11 11 12 11 3 11 6 12 5 3 2 11 8 3
split_gain=8.72564e+09 3.10086e+09 2.07393e+09 2.00285e+09 1.77165e+09 1.20056e+09 1.0496e+09 9.98983e+08 7.29049e+08 6.43897e+08 5.42888e+08 4.77397e+08 3.54228e+08 3.2467e+08 2.95906e+08 2.6675e+08 2.29048e+08 1.8287e+08 1.69308e+08 1.68626e+08 1.59943e+08 2.34254e+08 1.55347e+08 1.46645e+08 1.41559e+08 1.31643e+08 1.31299e+08 2.60894e+08 1.0386e+08 1.03929e+08 9.85107e+07 9.45983e+07 8.90082e+07 8.58281e+07 8.21208e+07 1.02104e+08 8.04242e+07 6.74075e+07 6.72409e+07 6.57019e+07 6.47159e+07 8.84656e+07 6.25227e+07 7.29515e+07 1.03249e+08 6.28508e+07 6.17493e+07 6.69608e+07 6.12324e+07 6.08112e+07 5.8975e+07 7.45712e+07 7.89549e+07 5.78436e+07 5.76521e+07 5.54797e+07 5.47849e+07 5.16494e+07 5.06176e+07 4.94976e+07 1.63433e+08 4.84571e+07 4.80481e+07
threshold=1.0000000180025095e-35 814.04205322265636 436.22747802734381 267.26907348632818 0 1 2 3 1803.153259277344 850.09100341796886 13.500000000000002 4 5 18.500000000000004 4.5000000000000009 8.5000000000000018 1479.5000000000002 1409.5000000000002 16.500000000000004 223.30451202392581 6 1.8472222685813906 24.198966026306156 0.041666669771075256 6.097222328186036 1.0000000180025095e-35 18.497616767883304 15.500000000000002 1140.5970458984377 8.5000000000000018 1036.5449218750002 351.95881652832037 7 245.5924987792969 1.0000000180025095e-35 3.5000000000000004 3.3472224473953252 1490.5000000000002 20.770590782165531 2.5000000000000004 44.040742874145515 171.34877777099612 8.5000000000000018 160.19058227539065 8 5.5416667461395273 5.5000000000000009 7.5000000000000009 554.02508544921886 14.500000000000002 6.5000000000000009 4.5000000000000009 15.500000000000002 1583.2700195312502 13.500000000000002 1510.5000000000002 4.5000000000000009 2.4583333730697636 1009.5831298828126 9 16.500000000000004 331.69586181640631 711.90737915039074
decision_type=2 2 2 2 9 9 9 9 2 2 2 9 9 2 2 2 2 2 2 2 9 2 2 2 2 2 2 2 2 2 2 2 9 2 2 2 2 2 2 2 2 2 2 2 9 2 2 2 2 2 2 2 2 2 2 2 2 2 2 9 2 2 2
left_child=3 2 11 5 8 -1 9 18 20 16 25 22 36 17 -8 24 39 -12 37 38 21 -4 -2 33 46 61 -24 -28 32 -30 -25 -27 49 40 -19 -36 48 -5 -13 -3 -7 -42 -32 44 45 -44 -10 -48 -6 -22 -18 52 -52 -14 -35 -29 -11 -21 -38 60 -50 -9 -34
right_child=1 6 4 7 12 23 14 10 15 56 13 19 53 -15 -16 -17 50 34 -20 57 28 -23 26 30 -26 31 27 55 29 -31 42 -33 62 54 35 -37 58 -39 -40 -41 41 -43 43 -45 -46 -47 47 -49 59 -51 51 -53 -54 -55 -56 -57 -58 -59 -60 -61 -62 -63 -64
leaf_value=117.90752532101396 -13.463272824803051 84.585442941541928 68.974071125459687 40.27459536726947 -1.8084970117705017 5.0548222379516501 51.516529748711086 33.252504043285484 37.301456985951965 103.79203495743683 73.061065299249421 -13.864443843041869 -7.8145776189212102 47.370933229386424 -2.8037117744327693 17.678107973746631 22.347783045687489 140.98318916297285 60.774784345274512 -5.2211448637216114 7.1323970897436126 13.597019560722096 -1.2812379031673069 0.46048220638473869 17.843888478642697 56.851480813913341 3.7023973595813624 24.441040638916967 19.906897309806737 8.4471960555467032 9.7009952232957861 103.46983997076825 -1.099677681926942 26.195455070399653 91.067506354946346 128.34707301650874 -4.7858738352711745 12.810511024838759 -9.907367399071541 50.906114621418176 34.249240504516592 20.824122785262304 42.883679261891629 16.243534381674703 9.9749630545310168 12.556162317286036 71.91322714078359 41.655047162806028 1.3631789357827326 14.970136340427239 35.803753846085108 25.674995798803373 62.510155286645812 -2.1780584775103571 55.688559485646948 55.014888072311784 73.730583751329618 -8.3342601828392215 2.0873504392346649 2.5413866309833542 27.747475243110941 52.791217692237105 6.0283652373256666
leaf_weight=308 2042 245 269 276 7136 457 282 440 287 350 365 13904 26017 321 2253 1074 1218 227 276 23633 8575 658 12987 989 274 237 3315 298 3349 4835 2043 202 4180 309 443 316 9241 1172 47124 356 1701 4408 938 4049 544 209 686 250 1795 3479 938 1011 393 5517 358 296 270 30544 3772 14397 872 1145 5442
leaf_count=308 2042 245 269 276 7136 457 282 440 287 350 365 13904 26017 321 2253 1074 1218 227 276 23633 8575 658 12987 989 274 237 3315 298 3349 4835 2043 202 4180 309 443 316 9241 1172 47124 356 1701 4408 938 4049 544 209 686 250 1795 3479 938 1011 393 5517 358 296 270 30544 3772 14397 872 1145 5442
internal_value=-0.00815892 -2.71683 -3.70963 30.3481 1.65999 21.5987 29.3421 56.681 11.1131 43.0911 71.3153 -7.79679 -2.92811 92.5933 3.22807 36.6948 36.0966 103.334 24.7477 -9.00579 8.98026 29.3556 -0.437158 19.6586 50.3359 54.0865 1.13695 9.17081 8.33499 13.1368 15.3246 78.321 6.5258 24.9417 114.532 106.603 0.376137 18.0478 -10.8089 64.6474 23.2051 24.5627 17.2134 19.887 28.6097 37.0363 57.6133 63.8368 2.08074 9.38683 31.275 35.9166 43.6934 -6.82629 42.0313 39.6832 90.7148 -6.97627 -2.79357 3.70718 9.95317 47.3697 2.92877
internal_weight=265297 243564 236248 21733 102105 16313 7316 5420 33358 4781 3696 134143 68747 1672 2535 2571 4161 1351 1724 115205 30787 927 18938 16005 1497 2024 16896 3909 29860 8184 8772 439 21676 7233 986 759 37213 1448 61028 601 6566 6109 7783 5740 1691 1147 1223 936 24200 12054 3560 2342 1331 31534 667 594 620 54177 13013 17064 2667 1585 9622
internal_count=265297 243564 236248 21733 102105 16313 7316 5420 33358 4781 3696 134143 68747 1672 2535 2571 4161 1351 1724 115205 30787 927 18938 16005 1497 2024 16896 3909 29860 8184 8772 439 21676 7233 986 759 37213 1448 61028 601 6566 6109 7783 5740 1691 1147 1223 936 24200 12054 3560 2342 1331 31534 667 594 620 54177 13013 17064 2667 1585 9622
cat_boundaries=0 4 7 10 11 15 19 22 26 27 31
cat_threshold=25792 131218 2152202242 273 0 0 524288 0 0 34 49 134218944 132225 4194306 4 823132469 2491451968 1460666620 132 0 128 524288 128 18 4194306 1 130 1048576 0 268435460 4
is_linear=0
shrinkage=0.05


Tree=4
num_leaves=64
num_cat=11
split_feature=7 8 4 3 2 2 2 3 3 11 2 8 11 2 11 6 11 4 4 4 6 3 3 8 16 16 2 5 5 5 8 3 3 12 2 11 12 6 6 3 5 3 3 12 11 5 5 12 2 2 8 8 3 11 12 2 3 2 3 16 7 3 11
split_gain=7.72761e+09 2.81339e+09 2.09394e+09 1.88081e+09 1.64528e+09 1.00285e+09 9.76662e+08 6.85694e+08 5.97936e+08 4.92845e+08 4.32412e+08 3.80059e+08 6.40769e+08 3.21744e+08 2.71756e+08 2.40081e+08 2.26444e+08 1.95607e+08 1.86863e+08 1.79812e+08 1.64214e+08 1.59274e+08 1.45954e+08 1.54454e+08 2.46954e+08 1.40492e+08 1.32365e+08 2.3095e+08 1.04074e+08 9.79351e+07 8.4139e+07 8.07801e+07 7.89438e+07 7.37546e+07 7.31148e+07 6.93523e+07 6.78028e+07 6.29355e+07 6.23676e+07 6.23575e+07 7.59854e+07 6.18062e+07 5.76067e+07 5.75094e+07 8.67252e+07 5.6672e+07 5.09415e+07 5.09182e+07 5.01263e+07 4.93056e+07 4.92828e+07 4.88597e+07 4.62043e+07 4.41961e+07 4.38731e+07 4.29184e+07 4.92568e+07 6.12854e+07 4.06576e+07 4.01199e+07 3.95524e+07 3.90361e+07 3.879e+07
threshold=1.0000000180025095e-35 814.04205322265636 330.13079833984381 436.22747802734381 0 1 2 1803.153259277344 850.09100341796886 12.500000000000002 3 245.5924987792969 16.500000000000004 4 8.5000000000000018 1485.5000000000002 18.500000000000004 69.714672088623061 223.82183837890628 420.98239135742193 1417.5000000000002 223.30451202392581 25.792321205139164 18.497616767883304 1.0000000180025095e-35 1.0000000180025095e-35 5 1.8472222685813906 6.097222328186036 2.2083333730697636 2155.9570312500005 1498.7998046875002 331.26770019531256 2.5000000000000004 6 8.5000000000000018 1.5000000000000002 1510.5000000000002 1477.5000000000002 957.84747314453136 1.8472222685813906 1583.2700195312502 20.770590782165531 4.5000000000000009 15.500000000000002 5.5416667461395273 0.041666669771075256 2.5000000000000004 7 8 1068.4786376953127 604.25201416015636 767.77743530273449 7.5000000000000009 4.5000000000000009 9 487.02665710449224 10 313.52362060546881 1.0000000180025095e-35 2785.7912597656255 721.43939208984386 16.500000000000004
decision_type=2 2 2 2 9 9 9 2 2 2 9 2 2 9 2 2 2 2 2 2 2 2 2 2 2 2 9 2 2 2 2 2 2 2 9 2 2 2 2 2 2 2 2 2 2 2 2 2 9 9 2 2 2 2 2 9 2 9 2 2 2 2 2
left_child=2 3 5 10 7 -1 8 26 15 25 22 17 34 39 28 33 51 -7 35 20 36 42 -2 -24 48 -4 27 -5 -9 31 43 55 -32 -3 -13 -19 -11 -26 45 40 62 -15 -12 44 58 47 -20 -37 -25 -23 -36 -14 -31 -33 -10 -28 -57 -58 -17 -40 -54 -59 -6
right_child=1 6 9 4 13 11 -8 14 54 19 21 12 16 41 -16 30 -18 18 46 -21 -22 49 23 24 37 -27 29 -29 -30 52 32 53 -34 -35 50 38 -38 -39 59 -41 -42 -43 -44 -45 -46 -47 -48 -49 -50 -51 -52 -53 60 -55 -56 56 57 61 -60 -61 -62 -63 -64
leaf_value=111.46881168329651 -12.414823105663981 81.5480882978311 44.527145368133432 67.219212289075799 0.50378287819143042 2.6332988478640633 -3.4370803631322104 55.559338099959803 96.539590462281438 48.4072943409817 -13.171765816935846 30.946421707137716 71.312904893549614 -7.3248377951792492 16.63664734888145 28.101750451967533 35.20125872226793 18.91864100549925 19.676616160144846 132.77124706410748 117.27188273809368 -5.0220047042348801 -1.5909750719148501 -1.309499967414256 22.539899294160104 79.301852664364858 0.73188492326299404 11.693977833703707 19.174433770703228 1.4797491049927136 28.185581809163121 31.920386731570257 -4.548171863762132 47.086142010345107 10.192298578863571 33.121760058458911 84.211408600842447 51.858065292598326 11.67362158201591 3.6222749517766779 -3.4382364902909552 -1.763715664780996 -9.5047867118294196 23.462701526806708 57.307299590542044 13.605838142253603 12.10065944939123 50.309579611361038 11.280856087169427 -8.0517639499106703 34.168250641382542 97.600238273435693 1.8941442763980954 14.512198473419199 69.738157119943708 5.944200071972646 20.921652362556891 4.561921691729439 48.017980862813651 33.467513193993874 9.4500562842690936 12.866279673121035 7.4084602728133397
leaf_weight=304 2300 260 1257 263 8581 1910 1875 1232 345 231 13935 1383 355 27312 1073 1419 347 1262 4243 257 261 25710 13446 1992 410 378 1232 650 234 5401 395 636 345 387 1177 949 311 331 458 11139 13347 6115 46294 1366 409 213 4653 791 1301 28511 262 356 2390 855 277 3968 1797 1982 313 392 6291 4949 2666
leaf_count=304 2300 260 1257 263 8581 1910 1875 1232 345 231 13935 1383 355 27312 1073 1419 347 1262 4243 257 261 25710 13446 1992 410 378 1232 650 234 5401 395 636 345 387 1177 949 311 331 458 11139 13347 6115 46294 1366 409 213 4653 791 1301 28511 262 356 2390 855 277 3968 1797 1982 313 392 6291 4949 2666
internal_value=-0.014703 -2.56298 28.5415 -3.51294 1.60099 22.7069 27.814 10.7936 38.3734 69.7931 -7.40328 21.1965 35.1438 -2.78023 35.7592 32.5728 68.3272 17.5715 19.7729 96.3497 84.6779 -8.5827 -0.574294 0.983403 9.56407 52.5712 8.71289 27.3943 49.7534 8.12261 28.2492 10.8785 12.926 60.9453 22.7009 28.6543 68.9635 35.6414 33.0368 0.518509 -0.887033 -6.30563 -10.3532 31.482 36.5971 37.9577 15.7142 40.9377 3.69517 -6.61756 14.4592 84.4869 5.11079 21.9395 84.617 9.69425 10.555 12.6633 31.7035 21.7272 7.36986 10.4765 2.14053
internal_weight=265484 243734 21750 236343 102113 19055 7391 32953 5516 2695 134230 18751 3880 69160 2539 4894 1058 14871 12961 1060 803 114450 19780 17480 4034 1635 30414 913 1466 29501 4247 15419 740 647 2822 4065 542 741 2803 35733 24594 33427 60229 3507 2141 1953 8896 1740 3293 54221 1439 711 14082 1491 622 13928 12696 8728 1732 850 8681 6931 11247
internal_count=265484 243734 21750 236343 102113 19055 7391 32953 5516 2695 134230 18751 3880 69160 2539 4894 1058 14871 12961 1060 803 114450 19780 17480 4034 1635 30414 913 1466 29501 4247 15419 740 647 2822 4065 542 741 2803 35733 24594 33427 60229 3507 2141 1953 8896 1740 3293 54221 1439 711 14082 1491 622 13928 12696 8728 1732 850 8681 6931 11247
cat_boundaries=0 4 7 10 14 18 21 24 28 32 36 38
cat_threshold=16576 146 2152202242 257 0 0 524288 268435456 0 34 1073743040 132225 4194306 4 823141685 2424473664 1427112172 148 0 128 524288 0 16779264 33554432 128 1 0 4 553992201 4036083792 2232942752 275 0 0 0 256 128 2
is_linear=0
shrinkage=0.05


Tree=5
num_leaves=64
num_cat=10
split_feature=7 2 4 0 3 7 3 3 16 11 4 3 2 11 2 11 11 3 4 11 2 4 9 7 7 16 2 7 5 7 11 4 0 2 11 4 11 0 4 4 3 12 9 5 11 11 5 3 7 4 3 7 11 11 3 7 12 3 4 3 2 11 7
split_gain=7.08475e+09 2.44021e+09 1.97889e+09 1.0257e+09 9.5758e+08 8.55105e+08 5.62571e+08 5.39252e+08 5.05089e+08 4.61232e+08 4.58753e+08 3.72637e+08 3.50427e+08 3.29697e+08 2.84642e+08 2.5474e+08 2.25109e+08 2.05835e+08 3.45141e+08 1.69881e+08 1.68104e+08 1.50669e+08 1.94349e+08 1.46143e+08 1.87308e+08 1.41777e+08 1.30486e+08 1.27034e+08 1.2541e+08 2.92678e+08 1.19429e+08 1.09862e+08 1.05235e+08 1.0301e+08 1.08183e+08 9.51312e+07 9.13459e+07 1.72882e+08 8.91848e+07 8.41867e+07 1.13232e+08 8.29405e+07 8.0115e+07 7.94346e+07 7.73823e+07 7.62092e+07 7.31361e+07 6.92516e+07 6.80444e+07 6.78062e+07 6.45701e+07 6.03457e+07 9.60187e+07 5.86916e+07 1.09002e+08 5.55999e+07 5.55806e+07 5.50889e+07 5.46563e+07 5.37915e+07 5.3438e+07 4.90914e+07 4.83112e+07
threshold=1.0000000180025095e-35 0 330.13079833984381 1 835.95144653320324 9807.8588867187518 1803.153259277344 347.66873168945318 1.0000000180025095e-35 12.500000000000002 86.525878906250014 27.346779823303226 2 17.500000000000004 3 4.5000000000000009 7.5000000000000009 289.29948425292974 219.50765228271487 11.500000000000002 4 409.01533508300787 19.500000000000004 10525.717773437502 5934.9863281250009 1.0000000180025095e-35 5 5986.6875000000009 0.56944444775581371 3777.530151367188 5.5000000000000009 163.25804138183597 6 7 8.5000000000000018 66.616870880126967 4.5000000000000009 8 299.60990905761724 223.82183837890628 1061.9087524414065 2.5000000000000004 57.500000000000007 2.7916668653488164 14.500000000000002 8.5000000000000018 2.5138889551162724 123.48775482177736 634.10223388671886 84.081436157226577 20.770590782165531 497.64012145996099 16.500000000000004 16.500000000000004 1498.7998046875002 10540.262695312502 1.5000000000000002 357.83505249023443 82.890510559082045 1009.5831298828126 9 14.500000000000002 3091.776977539063
decision_type=2 9 2 9 2 2 2 2 2 2 2 2 9 2 9 2 2 2 2 2 9 2 2 2 2 2 9 2 2 2 2 2 9 9 2 2 2 9 2 2 2 2 2 2 2 2 2 2 2 2 2 2 2 2 2 2 2 2 2 2 9 2 2
left_child=2 4 3 8 11 6 33 50 49 25 -10 -2 57 -12 36 27 30 18 26 32 45 41 -23 24 28 -4 44 -14 29 -19 -8 -7 35 48 62 -5 37 -9 39 40 -21 -11 55 53 -17 -20 51 -46 -6 -1 -3 52 -38 54 -42 -25 -32 -13 -49 -48 -16 -31 -35
right_child=1 7 9 19 5 31 16 14 10 21 13 12 15 -15 60 17 -18 23 20 38 -22 22 -24 42 -26 -27 -28 -29 -30 61 56 -33 -34 34 -36 -37 46 -39 -40 -41 43 -43 -44 -45 47 -47 59 58 -50 -51 -52 -53 -54 -55 -56 -57 -58 -59 -60 -61 -62 -63 -64
leaf_value=6.0084059747226934 -12.075386233787695 -12.43092640784673 42.732772433410389 -2.9226839192784295 10.969844441802936 79.6722016694888 28.640836000308425 51.273097784894119 48.828801532700574 61.975674992203885 168.19167746838957 -7.3596373370569372 35.15526985069701 79.542882436048572 -8.2224667068121473 -1.0277533299010322 19.18256160516097 73.070980199207483 27.564764128310031 1.312852568308259 -5.109551698373906 151.76573815772821 82.829166148248532 25.977727105913218 -1.8453161952161006 76.964909740495202 -7.3893366089060128 6.8935882287395946 5.3988267745445979 9.2688459925964501 74.272915284208551 40.12463492162059 11.230164706874877 34.140085044835367 8.0627815098823188 30.514468517594892 1.8936082811007418 4.6836236928941544 35.405160339229383 17.054545328483311 10.08624825874389 98.079219580676579 25.153058428867531 18.213635203121825 3.2964256598163715 62.958948139051053 -4.5990364306563682 41.666330166388462 2.3923471643587346 43.302387761062818 -8.4017346507337205 0.94348541480635062 23.477138180855089 50.982182990742636 42.407421959045365 7.6477436439608528 47.856567590700585 -1.2076884322240751 12.98283333727921 3.9924925539932028 -4.5402173190051123 22.130401145479965 17.455261360135083
leaf_weight=231 4718 11731 1273 251 3526 494 480 236 357 359 220 6879 1012 201 13069 7793 1362 216 299 345 236 202 208 499 5962 397 5891 655 7560 2473 374 273 7498 523 4389 1394 1416 1080 1348 4380 397 287 1453 742 2518 310 9796 205 6716 258 65272 15471 810 566 761 2419 428 7726 874 2238 40664 1060 2548
leaf_count=231 4718 11731 1273 251 3526 494 480 236 357 359 220 6879 1012 201 13069 7793 1362 216 299 345 236 202 208 499 5962 397 5891 655 7560 2473 374 273 7498 523 4389 1394 1416 1080 1348 4380 397 287 1453 742 2518 310 9796 205 6716 258 65272 15471 810 566 761 2419 428 7726 874 2238 40664 1060 2548
internal_value=0.00996827 -2.42691 27.4034 21.6729 4.60679 13.7805 11.8266 -5.98626 65.0041 67.2347 90.5434 1.41973 2.5559 125.897 -3.23552 4.90266 33.3391 4.10114 0.170523 18.5205 31.3699 93.0997 116.822 7.39317 5.3261 50.8747 -1.35523 24.0517 9.10679 16.5837 48.3764 65.603 13.7944 8.61326 13.0821 25.2591 0.576488 13.467 23.6023 21.3893 28.1427 78.0282 15.5604 31.8961 1.77063 44.8525 0.00605804 7.8382 5.34018 25.6898 -9.01558 2.05102 9.74816 37.7835 31.3285 10.7831 60.1831 -4.1025 18.4358 -3.00122 -5.4372 13.1282 20.2978
internal_weight=265329 243654 21675 18949 81871 21113 20346 161783 1267 2726 778 60758 56040 421 84780 41435 2644 39768 18126 17682 845 1056 410 21642 17271 1670 17281 1667 11309 3749 1282 767 9143 17702 7460 1645 31047 1316 8539 7191 2811 646 4371 2466 11390 609 29731 3597 10242 489 77003 17697 2226 1724 1158 2918 802 14605 1079 12034 53733 3533 3071
internal_count=265329 243654 21675 18949 81871 21113 20346 161783 1267 2726 778 60758 56040 421 84780 41435 2644 39768 18126 17682 845 1056 410 21642 17271 1670 17281 1667 11309 3749 1282 767 9143 17702 7460 1645 31047 1316 8539 7191 2811 646 4371 2466 11390 609 29731 3597 10242 489 77003 17697 2226 1724 1158 2918 802 14605 1079 12034 53733 3533 3071
cat_boundaries=0 4 5 9 13 16 19 20 24 25 29
cat_threshold=17600 132242 2152202274 260 192 16512 0 2147483648 260 286531632 276842561 17825996 145 0 0 2 1088 1152 2 32 0 0 2147483680 260 2 2150111232 38543396 134220800 8
is_linear=0
shrinkage=0.05


Tree=6
num_leaves=64
num_cat=11
split_feature=7 8 4 2 0 2 4 4 8 11 7 2 8 7 4 11 6 7 7 5 2 8 9 7 12 8 11 2 7 10 0 12 5 11 11 4 14 7 2 12 2 11 5 7 4 4 12 12 11 7 7 7 11 6 5 7 1 7 4 12 2 6 6
split_gain=6.34157e+09 2.39843e+09 1.83384e+09 1.52685e+09 9.3166e+08 7.9166e+08 5.54508e+08 4.81203e+08 4.07977e+08 3.98825e+08 3.86835e+08 2.38467e+08 1.88731e+08 1.83129e+08 1.57993e+08 1.4521e+08 1.45122e+08 1.57951e+08 4.24451e+08 1.24907e+08 1.5334e+08 1.29353e+08 1.23689e+08 1.19597e+08 1.15243e+08 1.08643e+08 1.18469e+08 9.98521e+07 9.72526e+07 9.71364e+07 9.46306e+07 9.18072e+07 9.16039e+07 9.06081e+07 8.60217e+07 8.52553e+07 8.34985e+07 8.01368e+07 7.73369e+07 6.97117e+07 6.65867e+07 7.1938e+07 6.47152e+07 5.9685e+07 5.84778e+07 1.23362e+08 5.81356e+07 8.03985e+07 1.05976e+08 5.77043e+07 5.58025e+07 5.41712e+07 5.1833e+07 7.63511e+07 6.76217e+07 5.11717e+07 4.94965e+07 4.90319e+07 4.84998e+07 4.82564e+07 4.66914e+07 4.83301e+07 4.64566e+07
threshold=1.0000000180025095e-35 814.04205322265636 330.13079833984381 0 1 2 703.14825439453136 93.796886444091811 105.16687774658205 12.500000000000002 256.14912414550787 3 136.80659484863284 85.329708099365249 409.01533508300787 11.500000000000002 1455.5000000000002 9807.8588867187518 10467.944335937502 1.0694444775581362 4 19.366240501403812 19.500000000000004 3777.530151367188 2.5000000000000004 245.5924987792969 16.500000000000004 5 2464.390502929688 58.500000000000007 6 1.0000000180025095e-35 2.2083333730697636 17.500000000000004 8.5000000000000018 66.616870880126967 1.0000000180025095e-35 6387.4387207031259 7 2.5000000000000004 8 18.500000000000004 3.0416666269302373 4335.3073730468759 96.085159301757827 223.82183837890628 3.5000000000000004 1.0000000180025095e-35 15.500000000000002 5758.9567871093759 790.98449707031261 2315.392456054688 10.500000000000002 1423.5000000000002 0.56944444775581371 117.35605239868165 9 6274.2656250000009 215.65073394775393 4.5000000000000009 10 1527.5000000000002 1486.5000000000002
decision_type=2 2 2 9 9 9 2 2 2 2 2 9 2 2 2 2 2 2 2 2 9 2 2 2 2 2 2 9 2 2 9 2 2 2 2 2 2 2 9 2 9 2 2 2 2 2 2 2 2 2 2 2 2 2 2 2 1 2 2 2 9 2 2
left_child=2 3 4 6 7 16 10 12 -9 31 13 29 -1 -2 24 30 39 36 -19 21 23 37 -16 34 -11 44 -27 -23 42 51 35 -4 -15 -28 59 -6 57 38 58 -3 43 49 -8 -25 -17 -46 47 -20 -49 -42 -22 -5 53 54 -33 -13 -38 -18 -12 -21 -53 -62 -32
right_child=1 5 9 11 15 -7 28 8 -10 14 19 55 -14 32 22 25 17 18 46 20 50 27 -24 40 -26 26 33 -29 -30 -31 62 52 -34 -35 -36 -37 56 -39 -40 -41 41 -43 -44 -45 45 -47 -48 48 -50 -51 -52 60 -54 -55 -56 -57 -58 -59 -60 -61 61 -63 -64
leaf_value=0.73711914040980586 11.063009046960481 82.099722243613087 79.015542645216101 -2.2960849143575417 -3.0594351556108386 -2.6980543648252073 55.865765384044927 145.14500213920277 62.414711648460404 53.66928790177581 1.2986350645554565 -0.087366444426462228 55.574338396689647 61.153280560186488 137.77070678857862 5.2997400294848909 58.898318534035923 76.471942639119348 17.42444311871807 25.183764996829584 3.0094825513827708 0.70342286542964194 83.436898260595541 2.1793458340430543 95.752508161564975 24.508702060316011 76.981316189390853 28.480537138793387 21.394498417634555 4.2277180043890388 12.686401559541739 79.106742772603425 20.629523819310094 34.43523491766183 5.8286981977651839 28.821257085886398 22.545771746368246 -3.0156727179134535 9.062723114592087 45.189017361877312 6.9205353176679001 23.213998490756424 21.554033920211641 -6.7911959314456034 32.433554665632151 16.592179643776543 21.634118843725155 34.580412969517823 71.855721157328318 -0.94889781846669463 -4.0247217332225702 -7.9869415935444072 33.110616480204776 30.292110630651905 45.0100996132457 -7.4373746335310535 3.4613227889676494 25.335296576482495 12.863309355336723 -0.66280860935516672 -5.3073161642604649 0.0065177691845945259 3.3109497913465527
leaf_weight=285 686 216 218 28838 247 1830 431 233 414 367 9604 2426 349 437 218 671 203 628 366 1128 3360 498 203 3690 293 1086 230 956 1436 3924 5757 297 205 275 3010 1388 1010 3629 7365 315 4679 462 202 3727 1678 4594 1073 681 265 4639 17523 10658 612 272 286 99176 512 235 1001 215 16994 5719 1715
leaf_count=285 686 216 218 28838 247 1830 431 233 414 367 9604 2426 349 437 218 671 203 628 366 1128 3360 498 203 3690 293 1086 230 956 1436 3924 5757 297 205 275 3010 1388 1010 3629 7365 315 4679 462 202 3727 1678 4594 1073 681 265 4639 17523 10658 612 272 286 99176 512 235 1001 215 16994 5719 1715
internal_value=0.0102604 -2.2932 25.92 -3.16603 20.3609 25.8667 3.10145 61.4131 92.2257 63.947 2.31245 -5.73971 30.9275 29.0276 87.6523 17.335 35.3047 32.7146 39.9019 1.77065 0.161109 4.73327 111.598 3.11918 72.3634 22.031 33.8165 19.1682 28.5943 -3.4015 12.9532 48.7347 48.2187 53.8241 10.524 23.8592 21.6645 3.76145 5.13009 60.2162 1.24658 3.95369 44.9215 -2.3252 19.3299 20.8308 30.2697 37.3301 45.0287 3.00274 -2.89155 -3.88329 44.2298 52.184 62.3907 -7.26116 16.1264 40.9007 2.38808 21.0463 -5.25488 -3.96758 10.5205
internal_weight=265640 243952 21688 236618 18922 7334 68883 1281 647 2766 66814 167735 634 1328 1081 17641 5504 4973 3013 65486 42433 23053 421 21550 660 8534 1591 1454 2069 66133 9107 1685 642 505 4353 1635 1960 21599 17970 531 17197 9780 633 7417 6943 6272 2385 1312 946 9318 20883 62209 1467 855 583 101602 1522 438 10605 1343 33371 22713 7472
internal_count=265640 243952 21688 236618 18922 7334 68883 1281 647 2766 66814 167735 634 1328 1081 17641 5504 4973 3013 65486 42433 23053 421 21550 660 8534 1591 1454 2069 66133 9107 1685 642 505 4353 1635 1960 21599 17970 531 17197 9780 633 7417 6943 6272 2385 1312 946 9318 20883 62209 1467 855 583 101602 1522 438 10605 1343 33371 22713 7472
cat_boundaries=0 4 5 8 12 15 19 20 23 24 25 28
cat_threshold=17600 132242 2152202310 260 192 268435456 0 34 1494286645 813697089 328605744 657 16448 1040 4194306 16576 2 2147483648 4 32 16576 128 2148008000 16448 2 269484032 8388608 50331648
is_linear=0
shrinkage=0.05


Tree=7
num_leaves=64
num_cat=19
split_feature=8 2 2 8 2 4 6 11 11 2 2 4 8 0 4 9 16 2 16 10 2 5 11 11 4 8 11 6 2 6 5 2 12 12 11 2 10 2 5 9 11 0 4 8 11 6 4 2 8 1 10 12 0 4 12 6 1 2 12 2 4 5 4
split_gain=5.56332e+09 1.93103e+09 1.85374e+09 1.00091e+09 1.14783e+09 7.41154e+08 4.08186e+08 3.90758e+08 3.71037e+08 3.55891e+08 2.96247e+08 5.02091e+08 2.30309e+08 2.01765e+08 1.98649e+08 1.89944e+08 1.88552e+08 1.82374e+08 1.35634e+08 1.27148e+08 2.15521e+08 1.09772e+08 1.07301e+08 1.13044e+08 1.01847e+08 9.8508e+07 9.70562e+07 8.08018e+07 7.6097e+07 7.44786e+07 7.14749e+07 6.99815e+07 6.63262e+07 9.88152e+07 6.47748e+07 6.04415e+07 5.70747e+07 5.55087e+07 5.50623e+07 7.34969e+07 5.93732e+07 5.11307e+07 5.7909e+07 4.7106e+07 4.66426e+07 4.39954e+07 4.27613e+07 4.03492e+07 3.84953e+07 3.84818e+07 3.6475e+07 3.58114e+07 4.33902e+07 3.27217e+07 3.23915e+07 6.97726e+07 3.19173e+07 3.13902e+07 3.10697e+07 3.02266e+07 2.98043e+07 2.94695e+07 2.81008e+07
threshold=236.35655212402347 0 1 44.040742874145515 2 359.50559997558599 1433.5000000000002 13.500000000000002 13.500000000000002 3 4 703.14825439453136 1733.5645141601565 5 223.82183837890628 17.500000000000004 1.0000000180025095e-35 6 1.0000000180025095e-35 57.500000000000007 7 2.347222208976746 17.500000000000004 16.500000000000004 211.52770996093753 2155.9570312500005 7.5000000000000009 1409.5000000000002 8 1516.5000000000002 6.097222328186036 9 4.5000000000000009 2.5000000000000004 16.500000000000004 10 55.500000000000007 11 2.2083333730697636 39.500000000000007 17.500000000000004 12 48.985919952392585 374.34712219238287 8.5000000000000018 1485.5000000000002 64.629604339599624 13 1397.9843750000002 14 9.5000000000000018 4.5000000000000009 15 330.13079833984381 3.5000000000000004 1426.5000000000002 16 17 2.5000000000000004 18 276.50804138183599 0.29166668653488165 27.008387565612797
decision_type=2 9 9 2 9 2 2 2 2 9 9 2 2 9 2 2 2 9 2 2 9 2 2 2 2 2 2 2 9 2 2 9 2 2 2 9 2 9 2 2 2 9 2 2 2 2 2 9 2 1 2 2 9 2 2 2 1 9 2 9 2 2 2
left_child=1 3 5 10 -5 7 8 12 16 14 21 19 31 22 38 -10 43 36 -15 24 58 34 23 25 35 49 29 -17 -26 -13 46 53 33 -25 -1 -12 -3 -4 40 -40 -6 42 59 -7 51 -8 -14 -19 -47 54 -20 52 -30 60 55 -9 -32 -22 -21 -37 -2 -16 -59
right_child=2 17 37 4 9 6 45 13 15 -11 11 26 30 18 61 27 -18 47 50 20 57 -23 -24 32 28 -27 -28 -29 44 -31 56 -33 -34 -35 -36 41 -38 -39 39 -41 -42 -43 -44 -45 -46 48 -48 -49 -50 -51 -52 -53 -54 -55 -56 -57 -58 62 -60 -61 -62 -63 -64
leaf_value=-0.95556951997213102 25.308361936801617 -3.7490743922815981 9.3458999766664217 121.42400438298503 26.477611239541673 35.119076786212744 40.045421095508971 26.11710967219787 123.42006466330727 -5.4493314161838686 2.1470957462962201 52.773694344637413 33.001030055424181 31.46521668634448 15.317903673743599 50.036408920420214 86.252297201085341 -8.0893609540506883 65.948277027058268 53.026750146028988 2.2442441934863142 -4.7323406788395737 21.448556315474306 44.993340198817052 -2.6168406494109995 66.724363413786563 14.072793066191231 92.917767103109327 20.111677629347913 27.506963794541292 32.631515270073081 8.7933310732590098 35.827570203124161 91.680672765124598 6.537701550990171 8.6953979125279073 2.8765777652587139 -4.4428349861033842 24.374254213310721 1.8236131277987804 48.184415975372012 -6.0787788339007189 -3.3306432240459594 55.694278375935284 4.9742763783800825 2.9480295753012973 54.11636677993237 -6.018532710212563 29.937941243506266 12.087075242992576 91.523801219069924 0.76304041348237217 7.307829492067774 40.011819138519876 24.142952663604646 54.755538185262765 11.154743388126692 5.9583203921149615 28.833341840177884 -2.2362004266142144 15.10495306539489 8.870304549204322 14.875812831545662
leaf_weight=11566 1208 48446 891 242 2631 726 441 467 333 2070 16295 448 407 257 3214 202 321 44646 414 244 2710 19521 1144 227 2157 201 793 242 1615 837 492 2209 240 227 3842 2181 3484 3841 1270 505 358 5504 4563 452 5310 225 586 50728 320 262 212 543 1184 203 617 391 267 2317 292 889 1758 3952 1428
leaf_count=11566 1208 48446 891 242 2631 726 441 467 333 2070 16295 448 407 257 3214 202 321 44646 414 244 2710 19521 1144 227 2157 201 793 242 1615 837 492 2209 240 227 3842 2181 3484 3841 1270 505 358 5504 4563 452 5310 225 586 50728 320 262 212 543 1184 203 617 391 267 2317 292 889 1758 3952 1428
internal_value=-0.0133292 -2.06647 25.4949 3.35367 15.6132 34.065 55.1806 28.2507 66.8222 13.6868 1.28138 3.77648 20.8918 39.512 17.0089 94.8642 52.2813 -5.68998 61.3717 2.71894 8.94291 -2.24145 34.1458 39.7933 1.63764 33.5891 27.8308 73.4244 5.78838 36.3193 36.6359 15.7622 57.1112 68.3521 0.912915 0.11326 -3.30392 -1.83214 24.9363 17.9589 29.079 -2.40929 0.241244 43.0179 7.87778 28.3042 45.466 -6.98867 18.7979 29.7512 74.6229 12.5143 14.794 20.527 32.8878 39.1728 25.0789 6.36568 39.1248 5.55093 19.2613 11.7623 9.33402
internal_weight=265568 245785 19783 98481 14242 15051 3262 11789 2276 14000 84239 49310 7130 4659 11930 777 1499 147304 883 47232 6991 34929 3776 2632 40241 1938 2078 444 10809 1285 1752 5378 694 454 15408 29432 51930 4732 4764 1775 2989 13137 7633 1178 8652 986 993 95374 545 1737 626 3342 2799 3169 1475 858 759 6455 536 3070 2966 7166 3745
internal_count=265568 245785 19783 98481 14242 15051 3262 11789 2276 14000 84239 49310 7130 4659 11930 777 1499 147304 883 47232 6991 34929 3776 2632 40241 1938 2078 444 10809 1285 1752 5378 694 454 15408 29432 51930 4732 4764 1775 2989 13137 7633 1178 8652 986 993 95374 545 1737 626 3342 2799 3169 1475 858 759 6455 536 3070 2966 7166 3745
cat_boundaries=0 4 7 10 13 17 18 22 26 30 33 37 41 42 46 47 48 49 52 54
cat_threshold=1066176 16911506 2185756742 260 269484032 16779264 33554466 0 0 524288 1048576 16780288 33554498 1048576 16779392 2181038148 4 50 1493238069 813695041 294789176 144 0 0 524288 256 0 1026 524288 256 0 16777216 33554464 192 132096 2 256 536887296 0 2147483648 1 80 2250782720 2322358308 134221568 104 2 16 2 1088 0 2 0 2
is_linear=0
shrinkage=0.05


Tree=8
num_leaves=64
num_cat=12
split_feature=7 8 4 3 2 0 2 3 4 3 16 2 2 4 8 2 14 6 6 4 10 16 15 3 3 8 16 8 8 6 7 7 3 2 6 9 6 3 15 16 15 8 4 3 3 3 3 10 4 2 16 2 2 3 16 2 15 2 7 8 15 6 3
split_gain=5.21607e+09 1.94537e+09 1.43482e+09 1.42814e+09 1.12422e+09 7.63392e+08 6.58756e+08 4.82523e+08 4.46491e+08 4.32694e+08 3.40137e+08 2.88539e+08 2.39698e+08 2.13213e+08 1.54058e+08 1.44444e+08 1.66585e+08 1.43274e+08 1.31716e+08 1.30989e+08 1.30211e+08 1.20645e+08 1.28284e+08 1.17418e+08 1.13141e+08 1.21513e+08 1.62677e+08 9.36569e+07 1.16945e+08 6.90507e+07 6.54864e+07 1.04901e+08 6.24413e+07 6.99592e+07 6.02462e+07 5.88629e+07 5.3287e+07 5.31571e+07 4.61179e+07 4.59708e+07 5.68322e+07 4.40859e+07 4.36041e+07 4.30743e+07 4.29218e+07 4.00398e+07 3.6712e+07 3.65269e+07 3.55745e+07 3.5358e+07 3.48744e+07 3.47598e+07 3.47173e+07 3.14633e+07 3.0121e+07 5.61194e+07 3.92062e+07 2.98637e+07 2.9422e+07 4.78189e+07 5.63111e+07 3.92643e+07 2.89256e+07
threshold=1.0000000180025095e-35 814.04205322265636 337.71557617187506 436.22747802734381 0 1 2 1785.9336547851565 93.796886444091811 850.09100341796886 1.0000000180025095e-35 3 4 409.01533508300787 69.726215362548842 5 1.0000000180025095e-35 1479.5000000000002 1411.5000000000002 79.220455169677749 14.500000000000002 1.0000000180025095e-35 1.0000000180025095e-35 163.53404235839847 20.770590782165531 18.497616767883304 1.0000000180025095e-35 146.46186065673831 245.5924987792969 1423.5000000000002 141.12906646728518 1777.360534667969 1132.7241210937502 6 1500.5000000000002 50.500000000000007 1492.5000000000002 547.95709228515636 1.0000000180025095e-35 1.0000000180025095e-35 1.0000000180025095e-35 374.34712219238287 150.61983489990237 2507.5214843750005 1498.7998046875002 83.075454711914077 20.770590782165531 59.500000000000007 186.37502288818362 7 1.0000000180025095e-35 8 9 641.34567260742199 1.0000000180025095e-35 10 1.0000000180025095e-35 11 10525.717773437502 1244.058288574219 1.0000000180025095e-35 1528.5000000000002 394.60311889648443
decision_type=2 2 2 2 9 9 9 2 2 2 2 9 9 2 2 9 2 2 2 2 2 2 2 2 2 2 2 2 2 2 2 2 2 9 2 2 2 2 2 2 2 2 2 2 2 2 2 2 2 9 2 9 9 2 2 9 2 9 2 2 2 2 2
left_child=2 3 5 11 7 8 9 15 14 17 -10 24 37 -4 -1 16 -5 -3 35 41 62 -9 43 46 -2 45 49 42 47 -20 -18 -32 33 -17 -28 -15 -30 -6 -11 -34 -41 -7 -21 57 -14 -26 -13 -29 54 -27 -38 -47 -25 -35 -39 56 -56 -23 -19 -60 61 -61 -8
right_child=1 6 13 4 12 19 20 21 10 38 -12 23 44 18 -16 32 30 58 29 27 -22 22 -24 52 25 26 34 28 36 -31 31 -33 39 53 -36 -37 50 48 -40 40 -42 -43 -44 -45 -46 51 -48 -49 -50 -51 -52 -53 -54 -55 55 -57 -58 -59 59 60 -62 -63 -64
leaf_value=-2.5664358613301879 -12.274012605634631 50.827290437902441 46.957303458447811 64.698767309175977 -2.7553155546730395 1.8836136839337236 -8.0667492320443799 15.744314712783137 37.484122145801102 83.813171647387989 114.67322098562202 -11.316934391638618 -6.103808437587479 73.726312615446815 47.472168125131681 7.8593957470177891 -5.5780821061718191 18.097712063175337 104.66882356279316 21.718154876347853 41.198415700022672 53.591420040335436 7.4090669931374906 -4.5710827638108524 -4.8551742637913415 1.4159391048417589 5.6009445440763361 11.143262204696612 30.27539385400955 69.217315352141782 50.619214058850311 3.1561539847917333 6.122014630464828 -1.6716616958350941 37.409878541089796 35.941893027514034 8.5355526966600763 0.94182554220166181 57.03074033067211 16.245513693158276 1.8748914094142863 19.083671270743597 35.161880219432668 60.629031503156256 -1.273807217321467 4.8516793334457402 -8.266693967902432 17.522816464553383 -1.2640036253219524 18.665106683627776 27.343607943130049 -1.8051749380936153 -6.9193034881608799 4.3008402779689243 15.03922767258981 2.81589459925855 -4.0715880304076846 32.373240455286584 49.223619790264166 37.136417801814076 15.955383211717919 15.016489483824717 3.4669555642115735
leaf_weight=257 2002 599 1620 222 8751 1940 867 1031 223 364 397 13781 26072 204 383 11765 249 1220 370 1840 200 317 295 28631 6395 3028 204 6417 1755 220 226 240 3539 3515 551 209 625 11120 290 3844 838 461 898 296 5585 2869 34722 3451 7508 320 407 6140 35560 5917 1748 8083 317 801 232 944 914 255 1457
leaf_count=257 2002 599 1620 222 8751 1940 867 1031 223 364 397 13781 26072 204 383 11765 249 1220 370 1840 200 317 295 28631 6395 3028 204 6417 1755 220 226 240 3539 3515 551 209 625 11120 290 3844 838 461 898 296 5585 2869 34722 3451 7508 320 407 6140 35560 5917 1748 8083 317 801 232 944 914 255 1457
internal_value=0.00525063 -2.08439 23.5095 -2.87133 1.57954 18.7365 23.2623 9.15714 56.2367 34.07 86.9206 -6.26343 -2.04633 58.1797 27.3813 7.34597 26.5895 28.2012 76.2991 16.0401 2.48642 29.2545 37.4035 -7.27603 -0.954212 0.207104 7.8533 17.7434 15.9291 91.4636 15.1214 26.1807 6.72163 5.28929 28.817 54.6187 24.9735 0.656928 71.9477 10.4228 13.6735 5.18674 26.1285 43.6602 -5.25004 -1.82957 -9.13337 13.3745 1.69485 3.12509 15.955 0.318174 -5.87373 2.07289 2.73938 4.70909 12.0471 39.1626 24.3982 27.6751 25.3069 32.4337 -0.836011
internal_weight=265501 243824 21677 236482 102279 19054 7342 33095 1260 4818 620 134203 69184 2623 640 30355 937 4164 1003 17794 2524 2740 1709 112694 21509 19507 4103 15393 12655 590 715 466 29418 21197 755 413 2787 37527 654 8221 4682 2401 2738 1414 31657 15404 48503 9868 28776 3348 1032 9009 64191 9432 21268 10148 2065 1118 3565 2345 2113 1199 2324
internal_count=265501 243824 21677 236482 102279 19054 7342 33095 1260 4818 620 134203 69184 2623 640 30355 937 4164 1003 17794 2524 2740 1709 112694 21509 19507 4103 15393 12655 590 715 466 29418 21197 755 413 2787 37527 654 8221 4682 2401 2738 1414 31657 15404 48503 9868 28776 3348 1032 9009 64191 9432 21268 10148 2065 1118 3565 2345 2113 1199 2324
cat_boundaries=0 4 5 8 12 16 19 23 27 29 33 36 40
cat_threshold=25824 146 2152202250 257 192 0 0 34 1207960768 132225 20979714 4 823132437 2491583040 1460699380 148 0 128 524288 0 18 4194306 1 128 1 16777218 4 64 128 553992233 1888801104 874021044 18 1048580 0 268435460 0 0 2 256
is_linear=0
shrinkage=0.05


Tree=9
num_leaves=64
num_cat=6
split_feature=7 3 0 10 16 3 3 0 3 6 3 7 11 12 6 5 6 5 11 7 16 3 0 3 12 11 6 0 16 12 12 11 11 0 11 11 11 7 3 0 3 7 7 7 7 3 10 7 11 3 12 7 3 12 5 12 11 12 12 11 12 11 11
split_gain=4.7e+09 1.236e+09 5.14289e+08 4.83716e+08 3.98904e+08 3.8476e+08 3.75728e+08 3.02847e+08 3.49789e+08 2.737e+08 2.58684e+08 6.54471e+08 2.72362e+08 2.53318e+08 2.38064e+08 2.15032e+08 1.89317e+08 1.84971e+08 1.54398e+08 1.49922e+08 1.21708e+08 1.06354e+08 1.04994e+08 9.35301e+07 9.09476e+07 9.0536e+07 8.3619e+07 6.7319e+07 6.69172e+07 9.35785e+07 6.45082e+07 6.67227e+07 1.53006e+08 6.38751e+07 6.06768e+07 6.67505e+07 7.37669e+07 5.97925e+07 5.69527e+07 5.37869e+07 1.24518e+08 5.32886e+07 5.23202e+07 1.00144e+08 5.21005e+07 5.20793e+07 5.18431e+07 7.01767e+07 5.1656e+07 4.81984e+07 4.6342e+07 4.44181e+07 4.15825e+07 3.84697e+07 3.83386e+07 3.60396e+07 3.53592e+07 3.99074e+07 4.32207e+07 5.14548e+07 3.82024e+07 5.33499e+07 3.74394e+07
threshold=1.0000000180025095e-35 777.12530517578136 0 47.500000000000007 1.0000000180025095e-35 126.61719894409181 128.349967956543 1 1768.297790527344 1420.5000000000002 858.58175659179699 9807.8588867187518 4.5000000000000009 3.5000000000000004 1495.5000000000002 2.736111164093018 1457.5000000000002 2.7916668653488164 9.5000000000000018 10525.717773437502 1.0000000180025095e-35 436.22747802734381 2 88.642890930175795 5.5000000000000009 7.5000000000000009 1433.5000000000002 3 1.0000000180025095e-35 4.5000000000000009 1.0000000180025095e-35 15.500000000000002 13.500000000000002 4 5.5000000000000009 18.500000000000004 16.500000000000004 10556.114257812502 20.770590782165531 5 492.11819458007818 2047.4204101562502 10525.717773437502 10556.114257812502 5344.8559570312509 305.23793029785162 105.50000000000001 5882.4934082031259 10.500000000000002 903.43469238281261 1.5000000000000002 470.12060546875006 1498.7998046875002 2.5000000000000004 0.56944444775581371 3.5000000000000004 15.500000000000002 1.0000000180025095e-35 2.5000000000000004 12.500000000000002 4.5000000000000009 8.5000000000000018 14.500000000000002
decision_type=2 2 9 2 2 2 2 9 2 2 2 2 2 2 2 2 2 2 2 2 2 2 9 2 2 2 2 9 2 2 2 2 2 9 2 2 2 2 2 9 2 2 2 2 2 2 2 2 2 2 2 2 2 2 2 2 2 2 2 2 2 2 2
left_child=2 3 4 5 48 38 16 10 28 24 11 12 -3 50 -13 19 -7 20 22 21 -10 -8 54 -5 34 -22 30 -23 -9 52 31 32 -20 -18 -4 36 56 -21 -2 -25 41 -41 -17 -44 51 -43 -42 -48 -1 -28 -6 -29 -30 -32 -11 -38 57 -36 -59 60 61 -60 -61
right_child=1 7 9 23 13 6 15 8 17 18 -12 14 -14 -15 -16 42 33 -19 26 37 25 27 -24 39 -26 -27 49 44 29 -31 53 -33 -34 -35 35 -37 55 -39 -40 40 46 45 43 -45 -46 -47 47 -49 -50 -51 -52 -53 -54 -55 -56 -57 -58 58 59 62 -62 -63 -64
leaf_value=37.94748983387592 -10.871280446917325 55.363475531302768 10.080912582646674 -1.3361711661112299 75.142905423916432 47.780661332107037 -3.5684387979228123 3.3249556215258309 15.381213869757568 28.183728737519598 -0.97376310320487569 7.7939026141859289 -4.3763004147655389 121.14509719103135 70.837320008008206 -5.6606910196989224 16.311471770493373 10.989749145343339 22.72153987972376 15.002969232584995 52.570437573697099 -3.7297711025909281 6.4344601083425985 2.2242008148310939 62.53224262381945 27.034347293424446 -2.8256134079637287 10.759639522720203 9.6430363206200269 0.165324195438807 17.236171294054955 18.07017206784651 80.355687455817744 -7.3603371760259071 45.219620865157772 9.6747840046914071 38.40988875599141 -2.2945042744312167 -7.1921041439628119 -2.3785442348708967 13.624685107008538 15.971693638279479 7.8230534038904098 -5.6404583054485364 7.9889797171173385 4.6009194685017389 52.968828115764509 20.272519298490934 5.836670048066491 17.578461215193769 45.473027793799474 0.18002745276565993 18.675092898478983 27.776833997742091 8.613588734859265 62.518939707005245 18.080290159890421 21.984088180648214 57.086768689068506 58.452377198202782 17.630476518112403 26.84616404324801 31.048838032223728
leaf_weight=216 15647 210 419 4984 226 436 30860 10301 687 934 21372 203 2076 223 571 66674 1101 1873 236 1947 771 5494 4338 4078 202 632 309 1090 7914 2470 1543 234 225 380 427 379 462 672 32096 1441 915 1577 2161 3827 3589 2786 250 478 298 4563 317 11037 1519 1974 342 234 637 1294 208 306 488 489 211
leaf_count=216 15647 210 419 4984 226 436 30860 10301 687 934 21372 203 2076 223 571 66674 1101 1873 236 1947 771 5494 4338 4078 202 632 309 1090 7914 2470 1543 234 225 380 427 379 462 672 32096 1441 915 1577 2161 3827 3589 2786 250 478 298 4563 317 11037 1519 1974 342 234 637 1294 208 306 488 489 211
internal_value=0.00417919 -1.97948 22.2848 -3.79871 53.0014 -4.56212 -3.14543 4.97827 8.71461 20.3265 0.972625 14.5696 1.11379 76.2783 54.3058 -3.47617 18.8251 22.4014 16.7167 -1.10793 32.6271 -1.69506 10.1977 4.38672 29.579 41.0701 20.7454 1.03065 6.27561 8.8291 25.905 39.8257 50.8623 10.298 28.3794 29.8722 31.4815 10.5648 -8.39792 6.86158 9.38537 5.95783 -5.25861 -0.781582 2.69548 8.71114 21.5494 31.5064 19.3355 16.2843 57.8334 1.13103 11.0977 23.153 22.7612 46.5233 28.9018 30.915 28.8749 34.1122 28.3653 35.8775 47.2765
internal_weight=265853 244119 21734 193520 1280 177011 129268 50599 26167 20454 24432 3060 2286 766 774 127351 1917 3963 14698 54689 2090 52070 5614 16509 5756 1403 9084 21210 22204 11903 4212 695 461 1481 5554 5135 4756 2619 47743 11525 7447 5804 72662 5988 15716 4363 1643 728 514 4872 543 12127 9433 3517 1276 696 4060 3423 2996 1702 1185 697 517
internal_count=265853 244119 21734 193520 1280 177011 129268 50599 26167 20454 24432 3060 2286 766 774 127351 1917 3963 14698 54689 2090 52070 5614 16509 5756 1403 9084 21210 22204 11903 4212 695 461 1481 5554 5135 4756 2619 47743 11525 7447 5804 72662 5988 15716 4363 1643 728 514 4872 543 12127 9433 3517 1276 696 4060 3423 2996 1702 1185 697 517
cat_boundaries=0 1 2 3 4 5 6
cat_threshold=192 258 32 6 16 37
is_linear=0
shrinkage=0.05


Tree=10
num_leaves=64
num_cat=7
split_feature=7 8 4 3 0 0 3 11 8 3 7 6 7 5 5 3 11 16 5 12 4 16 5 11 8 11 8 0 11 0 0 11 4 12 6 3 8 6 11 8 8 8 12 11 5 4 3 12 3 0 7 11 7 0 6 3 12 11 6 11 7 7 7
split_gain=4.25227e+09 1.62096e+09 1.31923e+09 1.17785e+09 6.35183e+08 6.03429e+08 3.65117e+08 3.57345e+08 3.4747e+08 3.2249e+08 3.19851e+08 3.16887e+08 3.1249e+08 2.17403e+08 1.63439e+08 1.58082e+08 1.5721e+08 1.49065e+08 1.45174e+08 1.40794e+08 1.6797e+08 1.30842e+08 1.24607e+08 1.16958e+08 9.88301e+07 1.13958e+08 9.81671e+07 1.28613e+08 9.79014e+07 9.1666e+07 8.05413e+07 7.43866e+07 6.20945e+07 6.04418e+07 5.72217e+07 5.37487e+07 5.30037e+07 6.69059e+07 4.9605e+07 4.72072e+07 4.53683e+07 4.53093e+07 5.02852e+07 7.90013e+07 4.17515e+07 4.59503e+07 1.07132e+08 6.21322e+07 3.94766e+07 5.45175e+07 4.47607e+07 5.35657e+07 3.90603e+07 6.96575e+07 4.39826e+07 3.86298e+07 3.81889e+07 3.6847e+07 5.33129e+07 3.67448e+07 3.55454e+07 3.44318e+07 3.42151e+07
threshold=1.0000000180025095e-35 814.04205322265636 330.13079833984381 436.22747802734381 0 1 1803.153259277344 12.500000000000002 44.040742874145515 1036.5449218750002 9807.8588867187518 1490.5000000000002 10467.944335937502 4.1527779102325448 5.8194446563720712 27.346779823303226 7.5000000000000009 1.0000000180025095e-35 2.7916668653488164 3.5000000000000004 409.01533508300787 1.0000000180025095e-35 1.1250000000000002 11.500000000000002 245.5924987792969 16.500000000000004 19.366240501403812 2 4.5000000000000009 3 4 17.500000000000004 69.714672088623061 2.5000000000000004 1508.5000000000002 1498.7998046875002 19.366240501403812 1492.5000000000002 7.5000000000000009 25.236870765686039 1733.5645141601565 1244.058288574219 3.5000000000000004 15.500000000000002 2.736111164093018 229.34976196289065 1498.7998046875002 2.5000000000000004 1194.1552734375002 5 344.74818420410162 16.500000000000004 3132.429077148438 6 1491.5000000000002 1043.716491699219 4.5000000000000009 15.500000000000002 1505.5000000000002 14.500000000000002 1018.8424682617189 5227.4020996093759 9596.1821289062518
decision_type=2 2 2 2 9 9 2 2 2 2 2 2 2 2 2 2 2 2 2 2 2 2 2 2 2 2 2 9 2 9 9 2 2 2 2 2 2 2 2 2 2 2 2 2 2 2 2 2 2 9 2 2 2 9 2 2 2 2 2 2 2 2 2
left_child=2 3 5 15 6 8 18 21 -1 -10 11 33 56 16 48 -2 34 -11 35 20 -9 -4 26 30 44 -26 -17 57 40 -30 32 -27 -7 -3 -8 36 52 -38 -37 -24 -13 -14 43 -43 45 46 -25 -48 49 62 51 -51 53 54 -5 -16 -12 -28 -59 -55 -29 -52 -6
right_child=1 10 7 4 14 23 13 19 9 17 12 28 41 -15 55 22 -18 -19 -20 -21 -22 -23 39 24 25 31 27 60 29 -31 -32 -33 -34 -35 -36 38 37 -39 -40 -41 -42 42 -44 -45 -46 -47 47 -49 -50 50 61 -53 -54 59 -56 -57 -58 58 -60 -61 -62 -63 -64
leaf_value=-6.147181254953396 -9.8232969312200069 59.799441404701753 31.219736480216849 26.223179859294444 -3.1616701614159504 -2.7958757697432586 62.49584276922026 45.132689979789468 111.63690651009343 13.101887170206687 75.595916626394157 10.969272002902096 45.989760426549509 6.4691800953918008 -5.9379249336658892 -3.2902568510299761 20.214209357164776 60.46824782693897 0.90947362024794032 102.36017764935062 93.466672828032856 64.544379677756297 -6.4004291496065919 8.2253629968088013 20.356434907684402 69.739409353915377 12.826455837857504 9.4207920376719194 19.902856236659193 -2.6144701260877405 7.9213486377769859 31.33681471647898 24.663361123181446 30.558227107868319 36.853010461901704 25.361198063161215 40.638982117066476 4.2975788625843503 9.5076856563021419 -2.7032550527034562 34.512054779926181 21.754894507989125 14.32040625808183 50.144865583352043 8.3950079501016059 14.640304233218707 23.359480439220448 47.47817781014642 4.6819786764097797 4.877917839970749 -0.18466199077397658 29.45791877868033 8.9174172906293965 -1.3505916980949797 8.2036803047202014 -1.5386644745292235 50.968685656527001 14.677400306792897 50.920737504468491 7.3543661555274555 -3.4943039350719758 4.6502759065268515 1.7434944687062257
leaf_weight=227 19530 300 1288 393 14460 243 446 471 250 235 358 455 240 1091 17203 27764 904 567 11476 339 291 382 73748 636 1089 234 524 724 557 2220 7503 274 1347 431 426 795 261 246 1301 9779 372 865 928 342 1530 3757 601 481 4927 825 12729 303 9069 4231 2446 7029 283 202 204 1699 2016 5181 4714
leaf_count=227 19530 300 1288 393 14460 243 446 471 250 235 358 455 240 1091 17203 27764 904 567 11476 339 291 382 73748 636 1089 234 524 724 557 2220 7503 274 1347 431 426 795 261 246 1301 9779 372 865 928 342 1530 3757 601 481 4927 825 12729 303 9069 4231 2446 7029 283 202 204 1699 2016 5181 4714
internal_value=0.0164436 -1.87171 21.2031 -2.58999 1.45746 16.4965 6.94334 53.429 49.5665 62.0589 21.2509 12.551 33.7548 24.0371 -1.37576 -5.6643 34.8281 46.5924 5.40997 75.5431 63.6008 38.8459 -4.95774 14.0699 18.2573 29.4819 -2.27437 5.41084 6.46221 1.96477 10.124 49.0365 20.3389 42.5653 49.9742 7.93662 7.0699 23.0102 15.5218 -5.96758 21.5622 25.3916 23.0741 29.8026 15.6979 17.7386 24.5127 34.0848 0.469782 -0.0733437 1.82152 11.4826 6.61672 4.23723 10.6614 -4.66184 64.7327 21.3611 32.8964 1.14162 -0.0811846 1.21401 -1.95469
internal_weight=265742 243997 21745 236646 102155 18974 34784 2771 1279 1052 7351 4335 3016 2867 67371 134491 1776 802 31917 1101 762 1670 114961 17695 8602 1597 31434 3670 3604 2777 9093 508 1590 731 872 20441 18345 507 2096 83527 827 2375 2135 1207 7005 5475 1718 1082 43139 38212 19038 1128 17838 8769 2839 24232 641 930 406 5930 2740 17910 19174
internal_count=265742 243997 21745 236646 102155 18974 34784 2771 1279 1052 7351 4335 3016 2867 67371 134491 1776 802 31917 1101 762 1670 114961 17695 8602 1597 31434 3670 3604 2777 9093 508 1590 731 872 20441 18345 507 2096 83527 827 2375 2135 1207 7005 5475 1718 1082 43139 38212 19038 1128 17838 8769 2839 24232 641 930 406 5930 2740 17910 19174
cat_boundaries=0 1 2 3 4 5 6 7
cat_threshold=112 192 464 144 32 6 64
is_linear=0
shrinkage=0.05


Tree=11
num_leaves=64
num_cat=11
split_feature=7 8 4 3 2 2 2 3 3 2 8 4 16 2 8 2 5 2 12 4 6 4 4 16 16 12 3 16 12 3 10 3 7 5 6 5 5 9 6 12 12 12 6 3 5 3 12 2 3 5 5 8 3 6 2 3 6 2 3 16 2 12 3
split_gain=3.83647e+09 1.4735e+09 1.162e+09 1.05845e+09 8.7133e+08 5.65533e+08 5.05567e+08 3.62265e+08 3.41586e+08 2.4828e+08 2.32989e+08 2.29263e+08 1.99935e+08 1.89513e+08 1.67084e+08 1.2891e+08 1.83604e+08 1.28477e+08 1.2366e+08 1.38068e+08 1.23201e+08 1.15205e+08 1.1486e+08 1.09625e+08 1.06663e+08 1.15613e+08 9.84663e+07 6.83771e+07 6.23877e+07 5.90876e+07 5.86837e+07 6.88127e+07 5.80887e+07 5.74883e+07 5.638e+07 5.33153e+07 5.2939e+07 5.11119e+07 4.72991e+07 5.10437e+07 4.72494e+07 4.70648e+07 4.69469e+07 4.60962e+07 4.26447e+07 4.15802e+07 4.1467e+07 4.06445e+07 4.01198e+07 3.89142e+07 3.74651e+07 3.51211e+07 3.47517e+07 3.41405e+07 3.40586e+07 3.27511e+07 3.27128e+07 3.12407e+07 2.95002e+07 2.81759e+07 6.40163e+07 2.78689e+07 2.73094e+07
threshold=1.0000000180025095e-35 814.04205322265636 330.13079833984381 454.56866455078131 0 1 2 1803.153259277344 850.09100341796886 3 245.5924987792969 409.01533508300787 1.0000000180025095e-35 4 19.366240501403812 5 1.0694444775581362 6 4.5000000000000009 195.81267547607425 1455.5000000000002 73.148303985595717 221.55157470703128 1.0000000180025095e-35 1.0000000180025095e-35 4.5000000000000009 235.33718872070315 1.0000000180025095e-35 1.5000000000000002 75.156158447265639 49.500000000000007 331.26770019531256 173.34159851074222 2.736111164093018 1412.5000000000002 4.1527779102325448 6.3750000000000009 59.500000000000007 1500.5000000000002 1.5000000000000002 3.5000000000000004 2.5000000000000004 1474.5000000000002 1583.2700195312502 4.9027781486511239 2238.289916992188 4.5000000000000009 7 554.02508544921886 1.9583333730697634 0.041666669771075256 2155.9570312500005 298.87025451660162 1512.5000000000002 8 1152.4859619140627 1420.5000000000002 9 19.127698898315433 1.0000000180025095e-35 10 2.5000000000000004 394.60311889648443
decision_type=2 2 2 2 9 9 9 2 2 9 2 2 2 9 2 9 2 9 2 2 2 2 2 2 2 2 2 2 2 2 2 2 2 2 2 2 2 2 2 2 2 2 2 2 2 2 2 9 2 2 2 2 2 2 9 2 2 9 2 2 9 2 2
left_child=2 3 5 9 7 -1 8 15 20 14 21 40 42 44 29 16 -5 27 19 28 41 -7 36 34 -9 35 58 -16 -14 -2 31 -22 -18 43 -13 53 56 -34 -29 -40 -4 -3 -12 54 48 -15 -10 -31 -6 57 -24 -33 -32 -26 -17 -56 -23 -28 -11 -50 -61 -21 -19
right_child=1 6 11 4 13 10 -8 24 46 26 12 23 18 45 17 33 32 62 -20 61 30 22 50 -25 25 -27 49 38 -30 47 52 51 37 -35 -36 -37 -38 -39 39 -41 -42 -43 -44 -45 -46 -47 -48 -49 59 -51 -52 -53 -54 -55 55 -57 -58 -59 -60 60 -62 -63 -64
leaf_value=82.205050820853273 -6.2002110096749368 65.325766837961297 34.128818562121737 63.821256227188371 -1.510485802573867 0.90320669555264532 -2.3567013509848147 13.681226765630903 73.787484167457407 -9.7993435686407935 23.886721915355835 35.955510439934024 81.094103426679638 -4.9946601946350206 9.9237212511623714 0.65434864779366875 -4.3219995968051235 -5.576702289600231 5.9681284098061536 21.375297973531758 21.652695336818311 35.252585720827611 13.861217843060173 91.25549852985155 51.685697563347759 5.1016622106234237 -0.10026203112473556 6.7049318203178165 49.000988208943475 -6.5704507691566825 23.82888254438128 15.852558925397947 42.751794609461541 3.1623339437536426 68.193041560638108 17.019369051238591 0.10613176960816731 8.5084405861022052 54.59818710211303 23.855038832682212 51.782870479852434 34.179514438194701 8.4286056203213935 16.190207716626915 -2.4881096044571098 3.1053961158540662 48.117188729973748 0.88859769435080471 1.0429610091917019 -5.7955792798900241 7.397456704900252 -8.4231003312833863 51.482563102617377 33.339326415050742 6.9644937144753563 14.517566796807996 20.7174964413331 -4.2861575451258043 -7.0782866501495612 13.786086479378756 2.9859215682093119 39.133643739499746 6.7555018107104505
leaf_weight=306 7398 206 1164 229 6760 2080 1827 1065 357 12600 838 210 233 30530 1767 1904 301 1360 263 451 3212 443 4320 379 685 281 6319 202 435 2239 226 285 201 11148 385 204 284 238 209 382 563 296 1187 1477 7538 1671 283 9708 9374 32766 4661 312 229 404 13156 1611 3078 15186 47569 1664 7724 434 670
leaf_count=306 7398 206 1164 229 6760 2080 1827 1065 357 12600 838 210 233 30530 1767 1904 301 1360 263 451 3212 443 4320 379 685 281 6319 202 435 2239 226 285 201 11148 385 204 284 238 209 382 563 296 1187 1477 7538 1671 283 9708 9374 32766 4661 312 229 404 13156 1611 3078 15186 47569 1664 7724 434 670
internal_value=0.00443358 -1.78944 20.1433 -2.46921 1.50182 15.7836 20.4407 8.13454 28.0976 -5.28631 14.645 50.8306 25.6304 -1.84331 -0.653458 6.58776 24.4544 7.92244 37.6763 43.0453 23.5429 11.8163 13.5916 70.2293 25.9035 34.1719 -6.25466 15.339 60.2056 -2.68863 20.7837 18.7554 12.5954 5.98633 56.8231 40.4887 20.8723 24.1932 27.5962 34.7344 39.8867 46.9711 14.8265 7.72433 0.815929 -4.5729 62.4457 -0.514109 1.79211 -4.7109 10.5067 3.16649 37.7552 44.8832 6.97418 7.78332 22.5472 -3.05823 -7.64812 2.98205 4.91822 30.0874 -1.49895
internal_weight=265487 243773 21714 236540 98165 19013 7233 32904 5406 138375 18707 2701 3841 65261 23935 30265 969 4590 1816 1553 4766 14866 12786 974 2639 1574 114440 2560 668 19345 4264 3809 740 29296 595 1293 3805 439 793 591 1727 502 2025 18148 33060 32201 640 11947 25522 54271 8981 597 455 1089 16671 14767 3521 21505 60169 18762 9388 885 2030
internal_count=265487 243773 21714 236540 98165 19013 7233 32904 5406 138375 18707 2701 3841 65261 23935 30265 969 4590 1816 1553 4766 14866 12786 974 2639 1574 114440 2560 668 19345 4264 3809 740 29296 595 1293 3805 439 793 591 1727 502 2025 18148 33060 32201 640 11947 25522 54271 8981 597 455 1089 16671 14767 3521 21505 60169 18762 9388 885 2030
cat_boundaries=0 4 7 10 14 18 21 25 29 33 37 40
cat_threshold=25808 131218 2152202250 272 0 0 524288 268435456 0 34 1207960640 132289 20971522 5 286261541 2961214016 1427144932 132 128 128 524288 1073741824 1152 2 1 1073741824 1025 0 1 0 0 8 272 17055880 3498086400 102236737 256 1048580 0 268435460
is_linear=0
shrinkage=0.05


Tree=12
num_leaves=64
num_cat=10
split_feature=7 2 4 3 2 6 3 3 11 2 11 2 11 6 3 7 3 2 4 7 4 3 3 7 11 4 3 9 4 16 11 5 2 11 4 10 10 5 4 11 3 11 3 10 11 6 11 2 11 6 3 11 2 11 15 5 3 3 2 7 7 3 2
split_gain=3.42315e+09 1.29491e+09 1.00454e+09 5.64287e+08 4.33982e+08 3.68124e+08 3.26348e+08 3.15651e+08 2.43799e+08 2.12685e+08 1.99694e+08 1.57809e+08 1.56643e+08 1.49971e+08 1.35317e+08 1.22204e+08 4.36617e+08 1.31008e+08 1.34227e+08 1.04057e+08 9.87289e+07 1.43992e+08 1.32354e+08 9.01668e+07 9.00149e+07 8.61051e+07 8.02034e+07 7.95148e+07 7.69148e+07 7.67837e+07 7.48248e+07 7.18387e+07 6.60573e+07 6.50762e+07 6.2732e+07 6.06679e+07 6.03948e+07 5.33236e+07 5.2665e+07 5.17664e+07 5.01637e+07 4.44466e+07 4.31614e+07 9.21145e+07 4.29047e+07 4.35136e+07 4.24171e+07 6.67284e+07 4.77692e+07 4.23848e+07 4.13569e+07 3.92999e+07 3.88359e+07 4.33754e+07 3.73794e+07 3.55961e+07 3.55654e+07 3.4617e+07 3.33932e+07 3.3269e+07 3.41252e+07 3.2877e+07 3.31479e+07
threshold=1.0000000180025095e-35 0 337.71557617187506 471.11003112792974 1 1456.5000000000002 1803.153259277344 347.66873168945318 12.500000000000002 2 11.500000000000002 3 8.5000000000000018 1417.5000000000002 126.61719894409181 9807.8588867187518 850.09100341796886 4 27.008387565612797 10556.114257812502 207.3688659667969 1036.5449218750002 1061.9087524414065 1752.4697875976565 14.500000000000002 301.99279785156256 1145.328063964844 36.500000000000007 92.634799957275405 1.0000000180025095e-35 18.500000000000004 6.097222328186036 5 8.5000000000000018 190.97868347167972 52.500000000000007 52.500000000000007 2.5138889551162724 69.714672088623061 17.500000000000004 20.770590782165531 5.5000000000000009 559.75772094726574 123.50000000000001 7.5000000000000009 1509.5000000000002 16.500000000000004 6 4.5000000000000009 1484.5000000000002 347.66873168945318 4.5000000000000009 7 15.500000000000002 1.0000000180025095e-35 1.2916666865348818 1009.5831298828126 20.770590782165531 8 10525.717773437502 10540.262695312502 2402.1955566406255 9
decision_type=2 9 2 2 9 2 2 2 2 9 2 9 2 2 2 2 2 9 2 2 2 2 2 2 2 2 2 2 2 2 2 2 9 2 2 2 2 2 2 2 2 2 2 2 2 2 2 9 2 2 2 2 9 2 2 2 2 2 9 2 2 2 9
left_child=2 3 4 5 -1 -2 15 57 29 14 32 37 31 27 40 17 -17 18 -5 24 21 -12 30 28 51 -22 52 -10 -20 -4 -23 41 38 54 -18 39 -24 42 -6 -26 -7 -8 -9 46 45 -43 48 -48 -44 -34 -11 -16 53 -19 58 -42 -39 -3 -28 -53 -61 62 -13
right_child=1 7 8 6 10 9 12 11 13 50 20 61 -14 -15 19 16 34 26 23 -21 25 22 36 -25 35 -27 33 -29 -30 -31 -32 -33 49 -35 -36 -37 -38 56 -40 -41 55 44 43 -45 -46 -47 47 -49 -50 -51 -52 59 -54 -55 -56 -57 -58 -59 -60 60 -62 -63 -64
leaf_value=73.632045638198392 38.419155884118069 -9.1092735134052401 29.915872216738933 5.6436862735036772 -3.0631891238532063 -10.030559016040298 23.911781965583714 -0.10043963409703323 71.384320233237105 -5.9238710543023663 -1.5481763354934348 -5.7522831469602798 10.055549193105676 97.068767392551933 14.317095709294799 -0.76540815115085314 58.019161371261397 3.1429028944352062 22.625097762098363 -3.3919747767435235 12.514506864664607 61.751017939234295 20.29743895117587 17.795303009797465 17.760967768193591 27.479034001805395 21.309952628929743 37.68005770154187 65.911344929232357 55.420225234152383 28.056061365943972 11.94186667209358 9.0190818684557748 5.0288903839206043 27.072000193506142 36.809956652559251 42.23403369553094 -3.1673452791495555 21.975496641339141 3.9710395358595294 2.5529826750242233 62.186785755284284 25.371515547759486 32.900817467008238 27.881136445146179 37.260457188270884 21.912357214940638 3.4962953336286731 1.0585081899550601 0.39043905044296223 -1.3991535839070848 0.77304275412800028 0.2380298697404688 10.928084623757018 -0.51970527329854799 -4.4253259128348903 3.6820738096534029 -6.1608580781668714 10.744327083586537 19.543001009546856 5.1770260214941759 5.0289504261904963 -3.1008188378669388
leaf_weight=302 605 11753 1225 2468 248 1649 334 10926 356 14332 413 19336 1073 300 975 1121 522 8310 211 2534 4967 434 1848 1839 1864 1192 1432 345 200 389 266 284 5781 5207 239 287 378 11132 1370 1072 4322 406 208 277 266 309 733 1494 6924 1888 7798 4128 8252 2280 405 3166 2284 65102 1744 512 2145 999 30482
leaf_count=302 605 11753 1225 2468 248 1649 334 10926 356 14332 413 19336 1073 300 975 1121 522 8310 211 2534 4967 434 1848 1839 1864 1192 1432 345 200 389 266 284 5781 5207 239 287 378 11132 1370 1072 4322 406 208 277 266 309 733 1494 6924 1888 7798 4128 8252 2280 405 3166 2284 65102 1744 512 2145 999 30482
internal_value=0.00126212 -1.69168 19.0307 3.41388 15.0488 -0.319016 8.0062 -4.29071 48.0929 -0.842426 14.0599 -2.1875 24.8354 67.4795 2.56286 6.69244 19.078 5.9718 13.6676 5.74111 19.165 26.0887 29.9895 22.5289 7.84831 15.4111 4.65102 54.8044 43.6999 36.0659 48.9528 34.7521 8.85379 8.59721 48.3047 14.8719 24.0243 0.450785 18.0263 12.7263 -2.13615 39.6771 2.05088 4.49017 45.0417 51.4212 3.64895 9.6726 1.76793 6.88589 -4.32754 4.931 2.81293 4.81457 13.7855 -0.397534 -2.00125 -6.61175 15.6096 3.58203 7.94596 -3.95085 -4.13173
internal_weight=265643 243941 21702 82291 19087 45389 36902 161650 2615 44784 18785 84795 2672 1001 22654 34230 1882 32348 4718 13517 9498 3339 2926 2250 10983 6159 27630 701 411 1614 700 1599 9287 8788 761 3223 2226 33978 1618 2936 9137 1315 20562 9636 981 715 9359 2227 7132 7669 22130 7760 18842 10590 3581 7488 13416 76855 3176 6785 2657 50817 49818
internal_count=265643 243941 21702 82291 19087 45389 36902 161650 2615 44784 18785 84795 2672 1001 22654 34230 1882 32348 4718 13517 9498 3339 2926 2250 10983 6159 27630 701 411 1614 700 1599 9287 8788 761 3223 2226 33978 1618 2936 9137 1315 20562 9636 981 715 9359 2227 7132 7669 22130 7760 18842 10590 3581 7488 13416 76855 3176 6785 2657 50817 49818
cat_boundaries=0 4 7 10 14 17 20 23 26 29 33
cat_threshold=17600 132242 2152202274 260 0 0 524288 64 1024 4194338 286531632 276842817 1158676684 145 128 130 524288 0 0 33554432 1048576 0 4 64 16 2151677954 16448 0 2 2150111232 55386116 134220800 8
is_linear=0
shrinkage=0.05


Tree=13
num_leaves=64
num_cat=1
split_feature=8 3 3 5 3 4 7 8 7 11 7 4 3 11 9 11 11 3 10 10 14 3 3 8 3 8 8 4 4 4 8 3 5 11 5 4 10 7 4 8 11 11 11 6 1 7 11 12 3 6 3 12 12 11 11 3 4 11 8 6 7 11 11
split_gain=3.11646e+09 1.39089e+09 7.42903e+08 5.71205e+08 4.7626e+08 4.49067e+08 2.46734e+08 2.46542e+08 2.59437e+08 2.03377e+08 2.01073e+08 2.78353e+08 6.54564e+08 1.77787e+08 1.54835e+08 1.46074e+08 1.48547e+08 1.37744e+08 1.21615e+08 9.62058e+07 9.42744e+07 9.4266e+07 9.31547e+07 9.26818e+07 9.07095e+07 8.72795e+07 8.25342e+07 7.90301e+07 7.07347e+07 6.98235e+07 6.53412e+07 6.31248e+07 5.99922e+07 5.72968e+07 5.10207e+07 4.74949e+07 4.72635e+07 4.68246e+07 4.5479e+07 4.2103e+07 3.93255e+07 7.07435e+07 3.54169e+07 5.14206e+07 3.18383e+07 3.78876e+07 3.08536e+07 3.03216e+07 3.00101e+07 2.92435e+07 2.90247e+07 2.86086e+07 4.60885e+07 4.07388e+07 2.76461e+07 3.34363e+07 2.66911e+07 2.94426e+07 2.65532e+07 3.27522e+07 2.63365e+07 2.62626e+07 2.52712e+07
threshold=236.35655212402347 463.13261413574224 850.09100341796886 4.1527779102325448 1498.7998046875002 398.45732116699224 9807.8588867187518 4202.9992675781259 10525.717773437502 13.500000000000002 1.0000000180025095e-35 75.498928070068374 738.22271728515636 12.500000000000002 19.500000000000004 18.500000000000004 16.500000000000004 2507.5214843750005 57.500000000000007 59.500000000000007 1.0000000180025095e-35 58.53692817687989 614.27520751953136 256.15394592285162 1009.5831298828126 160.19058227539065 95.614437103271499 330.13079833984381 32.295833587646491 369.87875366210943 19.366240501403812 168.93848419189456 2.2083333730697636 5.5000000000000009 8.87500047683716 188.67749023437503 46.500000000000007 256.14912414550787 879.55929565429699 1068.4786376953127 17.500000000000004 16.500000000000004 10.500000000000002 1420.5000000000002 0 4072.056518554688 8.5000000000000018 4.5000000000000009 1890.6164550781252 1485.5000000000002 80.299800872802749 3.5000000000000004 1.0000000180025095e-35 12.500000000000002 14.500000000000002 126.61719894409181 565.23794555664074 14.500000000000002 18.497616767883304 1500.5000000000002 497.64012145996099 7.5000000000000009 14.500000000000002
decision_type=2 2 2 2 2 2 2 2 2 2 2 2 2 2 2 2 2 2 2 2 2 2 2 2 2 2 2 2 2 2 2 2 2 2 2 2 2 2 2 2 2 2 2 2 1 2 2 2 2 2 2 2 2 2 2 2 2 2 2 2 2 2 2
left_child=1 18 7 4 10 6 9 8 20 29 11 -3 -13 42 -15 16 27 25 21 44 22 -1 -2 -18 -5 26 38 -11 -21 -4 -20 54 -23 -9 48 -28 -25 -30 62 -17 41 51 43 -7 49 56 -27 -8 -26 -12 -32 52 -10 -54 -22 -56 57 58 -46 -60 -59 -40 -6
right_child=2 3 5 24 17 13 47 33 40 15 19 12 -14 14 -16 39 23 -19 30 28 31 32 -24 36 34 46 35 -29 37 -31 50 -33 -34 -35 -36 -37 -38 -39 61 -41 -42 -43 -44 -45 45 -47 -48 -49 -50 -51 -52 -53 53 -55 55 -57 -58 60 59 -61 -62 -63 -64
leaf_value=-7.7648004357307379 9.3544937533239061 0.041534528758614894 12.146522037405525 -4.1161981949722088 14.006935709846875 61.607351093344519 64.862449412730285 27.840113861649101 9.6732526780643724 21.496057509959126 -1.2182542260345766 108.03186012463746 16.971890649385767 105.0334865542638 52.511347746043967 -0.67049170583729445 22.467419562008978 40.594740329655835 -1.0863917891310404 4.5347817585468002 4.2517193985637682 -2.8407723429923362 46.436926126694573 51.876768059086913 2.3193845995768001 1.6473227565593107 41.730394886402081 51.724394085496968 37.352074951611591 30.076172108672303 22.232348885709225 -3.4430915772530777 -5.4710926250329601 57.18098060386756 -2.0103538247991457 20.19370817162169 78.870380218678179 12.901039786371454 30.53388898474212 25.324015437634245 7.0273636698100468 47.904476041432105 27.318783309557574 29.260311919038987 -1.0654522784411691 -4.2720095854310092 9.9832659824612371 42.579003144402542 10.426312431069741 3.7843358860402598 5.8390566171482972 13.485783992450855 25.426643495643393 51.736420308717406 4.3621282906856482 31.393719634763372 10.304024525647169 9.3623159062024417 25.446277624884615 2.0899521774744865 1.8602780768498026 12.747091791525936 5.7897416689077978
leaf_weight=30362 1103 1503 3521 24476 4552 310 346 640 288 1216 3459 230 1387 265 299 368 219 447 8549 4907 1492 32988 200 615 5220 1407 433 263 217 642 405 3951 63230 225 7027 627 221 2000 595 270 374 282 308 204 12284 3699 5260 275 1461 18792 810 743 482 212 222 236 779 1520 209 532 5078 319 1178
leaf_count=30362 1103 1503 3521 24476 4552 310 346 640 288 1216 3459 230 1387 265 299 368 219 447 8549 4907 1492 32988 200 615 5220 1407 433 263 217 642 405 3951 63230 225 7027 627 221 2000 595 270 374 282 308 204 12284 3699 5260 275 1461 18792 810 743 482 212 222 236 779 1520 209 532 5078 319 1178
internal_value=-0.0138028 -1.54986 19.0736 2.64403 5.28349 29.319 24.7429 9.91438 7.60705 22.1803 3.19417 15.5323 29.93 55.5832 77.2036 31.7183 37.1021 13.2634 -4.92105 2.47428 2.87779 -5.33579 15.0495 51.4361 -2.29242 12.413 16.0378 26.8745 7.88382 14.9122 0.455636 0.189945 -4.5693 35.4779 0.963981 28.9944 59.0212 15.2959 13.9703 10.3326 21.9153 24.6891 40.7413 48.7774 1.64286 0.383733 8.2241 55.003 4.09234 3.00666 11.3049 20.8913 26.4926 33.4699 7.55084 18.2949 1.22786 0.867503 -0.510954 8.68019 3.58866 24.3281 12.3177
internal_weight=265734 245942 19792 109598 71414 9342 7956 10450 9585 7335 56596 3120 1617 1386 564 3172 2534 14818 136344 53476 7204 126580 1303 1055 38184 14371 7704 1479 7124 4163 9764 5901 96218 865 13708 1060 836 2217 6644 638 2381 2007 822 514 46352 24101 6667 621 6681 22251 1215 1725 982 694 1950 458 20402 19623 13025 741 6598 914 5730
internal_count=265734 245942 19792 109598 71414 9342 7956 10450 9585 7335 56596 3120 1617 1386 564 3172 2534 14818 136344 53476 7204 126580 1303 1055 38184 14371 7704 1479 7124 4163 9764 5901 96218 865 13708 1060 836 2217 6644 638 2381 2007 822 514 46352 24101 6667 621 6681 22251 1215 1725 982 694 1950 458 20402 19623 13025 741 6598 914 5730
cat_boundaries=0 1
cat_threshold=2
is_linear=0
shrinkage=0.05


Tree=14
num_leaves=64
num_cat=0
split_feature=8 3 3 5 3 4 3 7 11 7 4 3 12 11 7 3 11 6 4 3 5 8 8 10 7 4 14 8 11 6 3 4 8 3 7 4 10 10 7 11 12 3 12 12 11 10 6 5 5 8 12 11 16 12 6 11 3 10 11 16 6 6 12
split_gain=2.85803e+09 1.26391e+09 6.84366e+08 5.04768e+08 4.48303e+08 3.69823e+08 2.4594e+08 2.20471e+08 2.00672e+08 1.83732e+08 2.6978e+08 5.92509e+08 1.76823e+08 1.54111e+08 1.44235e+08 1.27125e+08 1.22895e+08 1.15238e+08 1.08538e+08 1.06279e+08 1.01025e+08 9.12925e+07 8.79052e+07 8.49073e+07 8.37571e+07 7.72088e+07 7.3124e+07 6.83247e+07 8.67714e+07 9.34136e+07 6.5997e+07 6.458e+07 6.29784e+07 5.9271e+07 5.83925e+07 5.71742e+07 5.30006e+07 4.59384e+07 4.54988e+07 6.38055e+07 4.51402e+07 4.48267e+07 3.99025e+07 6.4182e+07 7.37683e+07 3.87765e+07 5.29728e+07 3.87446e+07 3.7482e+07 3.66962e+07 3.55246e+07 3.57179e+07 3.53859e+07 3.69268e+07 2.99613e+07 3.05988e+07 2.9491e+07 2.88789e+07 2.83084e+07 2.8235e+07 2.75438e+07 2.73569e+07 2.79875e+07
threshold=236.35655212402347 458.34968566894537 850.09100341796886 4.7083334922790536 1498.7998046875002 398.45732116699224 316.59912109375006 9807.8588867187518 13.500000000000002 1.0000000180025095e-35 75.498928070068374 738.22271728515636 1.0000000180025095e-35 18.500000000000004 5740.0651855468759 2507.5214843750005 16.500000000000004 1458.5000000000002 437.64195251464849 24.198966026306156 1.1250000000000002 160.19058227539065 256.15394592285162 58.500000000000007 1830.0447998046877 318.39019775390631 1.0000000180025095e-35 31.958238601684574 9.5000000000000018 1464.5000000000002 1009.5831298828126 330.13079833984381 19.366240501403812 77.721446990966811 10525.717773437502 32.988502502441413 58.500000000000007 9.5000000000000018 6404.0954589843759 14.500000000000002 2.5000000000000004 1785.9336547851565 3.5000000000000004 1.0000000180025095e-35 15.500000000000002 115.50000000000001 1498.5000000000002 0.23611111938953402 9.1527781486511248 1068.4786376953127 2.5000000000000004 9.5000000000000018 1.0000000180025095e-35 4.5000000000000009 1426.5000000000002 13.500000000000002 258.82521057128912 118.50000000000001 8.5000000000000018 1.0000000180025095e-35 1505.5000000000002 1495.5000000000002 2.5000000000000004
decision_type=2 2 2 2 2 2 2 2 2 2 2 2 2 2 2 2 2 2 2 2 2 2 2 2 2 2 2 2 2 2 2 2 2 2 2 2 2 2 2 2 2 2 2 2 2 2 2 2 2 2 2 2 2 2 2 2 2 2 2 2 2 2 2
left_child=1 19 6 4 9 7 14 8 25 10 -3 -12 -7 16 -2 21 31 40 36 -1 32 27 -18 52 26 -4 -8 28 29 -6 -5 57 -21 59 38 -25 -14 -24 39 -19 -16 -31 43 -36 -45 -37 -47 -27 -32 -15 -29 -52 -11 -54 -53 -56 -22 -10 -23 -34 -17 62 -43
right_child=2 3 5 30 15 12 24 -9 13 23 11 -13 18 49 17 60 22 34 -20 20 56 58 37 35 -26 47 -28 50 -30 41 48 -33 33 -35 42 45 -38 -39 -40 -41 -42 61 -44 44 -46 46 -48 -49 -50 -51 51 54 53 -55 55 -57 -58 -59 -60 -61 -62 -63 -64
leaf_value=-8.3331504338545788 -4.9878570853965449 -0.36111623945150173 9.9932962102352452 -4.1154661083190769 2.6488907585893617 91.567649498580636 28.132895143724415 52.356156217316688 18.262089591391696 0.067108577095936803 101.7528859975518 16.309500944106095 45.721374887503622 -1.2670599327585426 56.905195523101476 52.327059309021472 21.074357936065603 8.9710471069497828 72.66473546702926 -2.5182917993470415 -5.9176198466746133 1.2123621334443129 49.030944854817356 4.343834917396868 -5.2415367240677355 35.026206808401213 3.2076312570992673 16.693796723433131 4.1906368920401631 16.011096481677967 3.6396801301495749 50.026778788681064 10.891435395282093 1.7553900205424791 9.678987556893448 8.7286306333230268 20.941182475953809 74.363057857269197 -8.3511316128328854 29.454058344566285 27.975720834956203 49.861673976798102 14.792420014161738 25.797013627624853 56.959518288792594 42.306952852481885 14.450823140245419 17.012582802039034 -1.9786107545748253 23.366756209330788 15.217355907130258 48.099088879433197 3.6393977068610512 -1.2285163626385573 39.903284139467303 13.213611347636775 -4.0511800381380567 37.249656586553677 9.034749212727343 34.164207942115361 27.520260730830888 22.533059215796424 25.379130671892916
leaf_weight=17525 736 1567 2970 22413 894 234 388 629 948 24036 237 1407 533 369 234 200 217 1828 255 29700 46480 1476 589 5281 2647 535 1217 1125 2080 1785 5262 254 341 2603 356 1357 363 258 273 480 319 240 1100 671 265 239 597 676 6811 256 305 289 20963 4785 227 204 38860 254 5345 211 255 751 228
leaf_count=17525 736 1567 2970 22413 894 234 388 629 948 24036 237 1407 533 369 234 200 217 1828 255 29700 46480 1476 589 5281 2647 535 1217 1125 2080 1785 5262 254 341 2603 356 1357 363 258 273 480 319 240 1100 671 265 239 597 676 6811 256 305 289 20963 4785 227 204 38860 254 5345 211 255 751 228
internal_value=0.0040968 -1.46823 18.2527 2.5056 4.78536 28.1018 9.50313 23.9498 21.5102 2.84553 14.4838 28.6325 51.9461 31.0516 15.8045 12.4002 36.5635 18.5738 43.8838 -4.6995 -4.16073 11.6076 49.4808 2.19283 0.222834 14.3326 9.23456 15.187 12.4374 16.8377 -2.51013 27.1212 -1.8048 4.9116 16.1654 7.16207 35.6855 56.7551 10.9489 13.232 40.2252 21.0601 21.7935 27.7525 34.6249 13.9482 22.4186 24.9729 0.470123 8.82507 22.8312 29.5651 1.4468 2.73474 35.64 27.2766 -5.06773 22.2772 7.3421 19.792 38.4335 28.4516 37.9423
internal_weight=265933 246079 19854 110359 75873 9340 10514 7955 7326 60469 3211 1644 1385 3145 6262 15404 2520 5526 1151 135720 118195 14949 1064 57258 4252 4181 1605 8128 5978 3898 34486 1456 32855 3155 4973 7474 896 847 2581 2308 553 3004 2392 1292 936 2193 836 1211 12073 625 2150 1025 49784 25748 720 431 85340 1202 6821 552 455 1219 468
internal_count=265933 246079 19854 110359 75873 9340 10514 7955 7326 60469 3211 1644 1385 3145 6262 15404 2520 5526 1151 135720 118195 14949 1064 57258 4252 4181 1605 8128 5978 3898 34486 1456 32855 3155 4973 7474 896 847 2581 2308 553 3004 2392 1292 936 2193 836 1211 12073 625 2150 1025 49784 25748 720 431 85340 1202 6821 552 455 1219 468
is_linear=0
shrinkage=0.05


Tree=15
num_leaves=64
num_cat=9
split_feature=8 3 3 5 3 4 7 0 8 0 3 11 11 1 11 9 0 0 4 10 3 8 7 4 8 3 14 11 6 16 4 10 4 6 0 6 15 11 8 5 11 11 7 0 5 5 6 4 0 11 7 6 15 15 16 5 4 11 5 11 0 11 7
split_gain=2.65635e+09 1.16103e+09 6.58924e+08 4.74238e+08 3.93681e+08 3.87918e+08 2.12572e+08 2.11631e+08 2.56815e+08 4.98317e+08 2.07705e+08 1.94686e+08 1.86886e+08 1.5925e+08 1.35084e+08 1.27355e+08 1.2127e+08 1.06282e+08 1.19663e+08 1.02274e+08 7.99108e+07 7.98022e+07 7.84003e+07 7.7542e+07 8.00094e+07 7.69858e+07 7.60113e+07 6.80049e+07 6.537e+07 6.40099e+07 5.64679e+07 5.45349e+07 6.15839e+07 5.41003e+07 5.03023e+07 4.58904e+07 5.21172e+07 4.48145e+07 4.428e+07 4.28346e+07 4.28018e+07 7.9114e+07 4.21271e+07 4.05549e+07 3.75135e+07 3.65777e+07 3.47803e+07 3.41437e+07 3.39821e+07 4.28264e+07 4.91637e+07 3.37274e+07 2.95755e+07 2.93212e+07 3.77225e+07 2.89309e+07 2.69271e+07 2.64776e+07 2.61011e+07 2.51611e+07 2.2928e+07 6.87849e+07 4.56712e+07
threshold=236.35655212402347 463.13261413574224 850.09100341796886 4.1527779102325448 1498.7998046875002 398.45732116699224 9807.8588867187518 0 60.066064834594734 1 316.59912109375006 13.500000000000002 12.500000000000002 2 18.500000000000004 48.500000000000007 3 4 314.49047851562506 58.500000000000007 32.103532791137702 4202.9992675781259 1830.0447998046877 221.55157470703128 95.614437103271499 979.63348388671886 1.0000000180025095e-35 5.5000000000000009 1417.5000000000002 1.0000000180025095e-35 369.87875366210943 58.500000000000007 58.397104263305671 1492.5000000000002 5 1536.5000000000002 1.0000000180025095e-35 7.5000000000000009 25.236870765686039 2.2083333730697636 15.500000000000002 17.500000000000004 5882.4934082031259 6 1.5972222685813906 0.23611111938953402 1516.5000000000002 188.67749023437503 7 16.500000000000004 315.79756164550787 1424.5000000000002 1.0000000180025095e-35 1.0000000180025095e-35 1.0000000180025095e-35 8.7916669845581072 24.332281112670902 11.500000000000002 0.56944444775581371 12.500000000000002 8 9.5000000000000018 196.24018859863284
decision_type=2 2 2 2 2 2 2 9 2 9 2 2 2 1 2 2 9 9 2 2 2 2 2 2 2 2 2 2 2 2 2 2 2 2 9 2 2 2 2 2 2 2 2 9 2 2 2 2 9 2 2 2 2 2 2 2 2 2 2 2 9 2 2
left_child=1 19 10 4 7 6 11 8 31 -10 13 30 29 21 17 -14 37 -13 44 20 -1 27 26 24 60 -5 -12 -2 -20 -7 -4 42 -33 -34 -27 36 40 46 -21 -22 -29 -42 53 -16 51 -32 -6 59 -9 -50 -51 -19 -8 54 -3 -36 -44 -40 -11 -26 61 62 -18
right_child=2 3 5 25 16 12 52 48 9 58 22 14 15 -15 43 -17 23 18 28 38 39 -23 -24 -25 47 34 -28 35 -30 -31 45 32 33 -35 55 -37 -38 -39 57 -41 41 -43 56 -45 -46 -47 -48 -49 49 50 -52 -53 -54 -55 -56 -57 -58 -59 -60 -61 -62 -63 -64
leaf_value=-7.6667286023841488 6.4003394618545215 0.99344094224139801 10.965117570880398 -3.7809905307578973 44.920697258916221 28.154987478839701 60.947105899306337 -0.75161278082022853 90.648235919821957 18.29353562340911 28.893203143594224 61.342177691065096 94.877124806083998 -5.7492057577358402 24.338383752153266 47.932929463636384 45.727643619699684 20.476321780443246 33.097520230590355 -0.69528339563157748 -2.9430607064679464 32.894875673970979 -4.9137418950764733 7.6402112968925113 25.610848435347641 11.622270142271454 3.097529105448074 21.306108825092856 64.666970782419568 60.038127329359682 37.698926743545499 8.09425045204644 46.080161980629413 11.940413259170143 2.5615932846512965 3.1175066100765996 13.366932780473352 13.850877466866638 3.7794194657860745 -5.0455929181575367 56.281530680603467 20.164007895402619 5.4173205599351313 -1.8554011989004597 14.622008769458773 13.748568371695036 24.728685261022779 19.929264557073818 0.84090932508807126 27.93267745390477 5.8888256439434734 40.57887474791049 38.70426356984737 -0.78628216142895047 6.5071588013873622 -2.1504777190912399 17.83932478169767 20.164680631322565 4.3493825304821065 49.408607546875629 9.090956523631105 3.5754853791548538 19.511570763785343
leaf_weight=21091 1434 5252 3478 24086 372 621 347 22676 237 1116 374 344 313 818 238 269 202 430 336 8672 37658 764 2604 8286 209 1000 1207 1103 321 211 359 3271 213 255 6091 378 1138 446 623 67909 297 310 926 369 712 287 501 585 7429 285 2243 406 264 3730 7578 7002 825 408 480 238 2454 630 936
leaf_count=21091 1434 5252 3478 24086 372 621 347 22676 237 1116 374 344 313 818 238 269 202 430 336 8672 37658 764 2604 8286 209 1000 1207 1103 321 211 359 3271 213 255 6091 378 1138 446 623 67909 297 310 926 369 712 287 501 585 7429 285 2243 406 264 3730 7578 7002 825 408 480 238 2454 630 936
internal_value=0.0177693 -1.39853 17.6686 2.4344 4.84038 27.3407 23.0186 2.93632 6.51152 24.4966 9.03712 20.6406 51.4574 14.8153 29.9874 73.1915 12.0824 35.0352 30.5119 -4.47794 -4.85695 17.9167 0.418652 10.6455 15.4052 -2.06355 9.20118 15.4605 48.5294 36.247 13.4872 5.01928 10.522 27.4849 0.871683 19.4875 21.66 26.5484 0.469396 -4.29558 27.1779 37.8424 3.89561 8.78762 23.0594 27.0622 33.337 27.8849 0.317644 2.75106 8.375 30.2427 51.3444 3.11572 4.25013 0.0415975 11.2708 10.2649 14.0126 38.2899 12.3541 16.7366 24.1687
internal_weight=265647 245915 19732 109554 71375 9305 7891 56516 23883 1833 10427 7280 1414 6242 3156 582 14859 2549 2205 136361 126658 5424 4185 13540 5254 38179 1581 4660 657 832 4124 22050 3739 468 14093 3226 2848 1319 9703 105567 1710 607 18311 607 1548 646 873 1032 32633 9957 2528 836 611 16560 12830 13093 1751 1031 1596 447 4222 1768 1138
internal_count=265647 245915 19732 109554 71375 9305 7891 56516 23883 1833 10427 7280 1414 6242 3156 582 14859 2549 2205 136361 126658 5424 4185 13540 5254 38179 1581 4660 657 832 4124 22050 3739 468 14093 3226 2848 1319 9703 105567 1710 607 18311 607 1548 646 873 1032 32633 9957 2528 836 611 16560 12830 13093 1751 1031 1596 447 4222 1768 1138
cat_boundaries=0 1 2 3 4 5 6 7 8 9
cat_threshold=112 64 2 96 128 196 128 7 16
is_linear=0
shrinkage=0.05


Tree=16
num_leaves=64
num_cat=4
split_feature=7 4 3 0 10 16 11 4 3 3 0 3 11 6 3 7 11 6 5 6 16 11 5 4 7 7 6 7 4 4 6 7 3 0 10 16 15 4 11 11 6 5 11 3 7 7 4 11 5 6 0 11 6 6 11 5 7 11 6 11 3 4 7
split_gain=2.28816e+09 6.80808e+08 6.24764e+08 3.74846e+08 2.94097e+08 2.69794e+08 2.14185e+08 2.07206e+08 1.99211e+08 1.83269e+08 1.69036e+08 1.8087e+08 1.57248e+08 1.29215e+08 1.27823e+08 3.39992e+08 1.47128e+08 1.27387e+08 1.16636e+08 9.15605e+07 8.95308e+07 8.77454e+07 8.90516e+07 7.77308e+07 7.27888e+07 6.83893e+07 9.37563e+07 7.74088e+07 5.94119e+07 6.90155e+07 5.24715e+07 4.8414e+07 4.7996e+07 4.35423e+07 4.19092e+07 4.18631e+07 6.83894e+07 4.1744e+07 3.697e+07 5.50059e+07 3.69266e+07 3.67717e+07 3.57753e+07 3.53628e+07 3.46693e+07 4.25842e+07 6.91735e+07 3.30704e+07 3.66854e+07 3.36322e+07 3.25048e+07 3.10716e+07 3.17822e+07 3.10211e+07 3.06329e+07 3.03813e+07 3.0506e+07 3.03255e+07 4.45323e+07 2.90306e+07 2.84787e+07 2.71253e+07 2.70122e+07
threshold=1.0000000180025095e-35 359.50559997558599 777.12530517578136 0 47.500000000000007 1.0000000180025095e-35 12.500000000000002 80.38544082641603 126.61719894409181 128.349967956543 1 1768.297790527344 17.500000000000004 1412.5000000000002 858.58175659179699 9807.8588867187518 4.5000000000000009 1495.5000000000002 2.62500011920929 1457.5000000000002 1.0000000180025095e-35 9.5000000000000018 6.2638890743255624 307.56265258789068 10525.717773437502 419.00248718261724 1500.5000000000002 5344.8559570312509 74.265983581542983 207.3688659667969 1494.5000000000002 5908.6154785156259 433.39814758300787 2 8.5000000000000018 1.0000000180025095e-35 1.0000000180025095e-35 398.45732116699224 5.5000000000000009 7.5000000000000009 1512.5000000000002 0.041666669771075256 10.500000000000002 573.13320922851574 5659.1540527343759 344.74818420410162 99.453392028808608 8.5000000000000018 5.8194446563720712 1420.5000000000002 3 13.500000000000002 1422.5000000000002 1412.5000000000002 14.500000000000002 7.4305558204650888 5227.4020996093759 13.500000000000002 1477.5000000000002 16.500000000000004 19.127698898315433 289.11791992187506 10556.114257812502
decision_type=2 2 2 9 2 2 2 2 2 2 9 2 2 2 2 2 2 2 2 2 2 2 2 2 2 2 2 2 2 2 2 2 2 9 2 2 2 2 2 2 2 2 2 2 2 2 2 2 2 2 9 2 2 2 2 2 2 2 2 2 2 2 2
left_child=1 3 4 5 8 42 20 -7 60 19 14 35 -9 34 15 16 -4 -17 24 -10 53 22 38 28 32 26 -6 43 59 30 47 -29 -11 -34 -8 -12 -37 -15 -13 40 61 -31 -1 -27 45 46 -35 -30 49 -49 -21 -25 -53 -3 -32 56 -20 58 -51 -5 -2 -40 -26
right_child=2 6 10 23 25 7 13 12 9 18 11 21 -14 37 -16 17 -18 -19 55 50 -22 -23 -24 51 62 27 -28 31 29 41 54 -33 33 44 -36 36 -38 -39 39 -41 -42 -43 -44 -45 -46 -47 -48 48 -50 57 -52 52 -54 -55 -56 -57 -58 -59 -60 -61 -62 -63 -64
